{"wji": [[-0.025949981553352992, 0.06831636804722717, 0.051746159087713586, -0.039905330531542486, 0.06808837823111227, 0.02809646575949099, 0.06688829497209493, -0.015331705679553836, 0.06877153467733436, -0.07970289442447887, -0.06818485559872521, 0.038319648951905046, 0.04687346606951636, 0.036818994833608475, 0.06453717974299351, -0.07377156373455067, -0.08573392185692473, 0.06043408641388171, 0.04371740546995241, -0.003224251346656288, -0.06498101131825572, 0.04708956044127617, 0.03010799406682118, 0.04687229384824984, 0.05511727476357678, 0.06607089321808862, -0.06843057797407959, 0.04670302144250975, -0.08450069583677136, -0.08164683421898451, -0.012623701000641812, 0.008774617722058375, 0.057878824403832733, 0.029844435547656315, 0.012037037137382148, 0.06799793282626446, -0.04365503833709812, -0.04914451343318874, 0.026243733936259277, -0.06732522250448884, -0.00318498687846385, 0.003280956338994205, 0.06373019754417258, 0.06445540231217055, 0.05324568605279451, -0.03153835160130796, -0.05581840347369146, -0.030951922773200854, 0.01175111588119335, -0.05844204470589864, 0.025795436960202183, -0.009109128651067961, 0.02438005436359639, 0.007845192673320359, 0.01876313208979727, -0.03346461324071395, 0.04931364688974937, -0.012709398761910318, 0.05659728580441764, -0.03597756323169825, 0.05439055345820125, 0.02189474234785724, 0.003210150660289857, -0.009562785376576748, -0.0618718059881482, -0.06561938367950809, 0.004100533176965022, -0.07645589021695587, -0.08129948607625902, 0.006575737263239395, -0.10867788656134146, -0.02008795269734628, 0.023837731704879645, 0.021334554002954136, 0.006072611805429964, 0.03822733675830675, -0.05596259933623063, -0.07379156820265706, 0.0437624711623746, 0.0577617782070107, 0.0018719047024014057, -0.01429564096353774, -0.026975156990512006, 0.042980708604208655, -0.04656023840350197, 0.0577418099871059, 0.009854374158883045, -0.04721772458021855, 0.032535215880905924, -0.045091519697294566, -0.022141138591479682, -0.019791436516737024, 0.006692505967768142, -0.12114498443272224, -0.018009834475607566, -0.1585607218322064, -0.05908954395544774, -0.07836075203553503, -0.0788787371777346, -0.06037449085615246, -0.02178199274194305, 0.019961792115344462, -0.03634211229308205, 0.07873467423458858, 0.05911086931986958, 0.09410943270964671, -0.062477916522839134, -0.013650404948597664, -0.005539475399706975, -0.05499102864233421, -0.07728022523995456, -0.030681354067207976, -0.004912418479832397, -0.013537616276761217, 0.05095945842157424, -0.034997285371019274, -0.006889188818863105, 0.020085066633266802, -0.021206398415408965, -0.07037926595461119, -0.13926813422605444, -0.15309754570863823, -0.06806302862880628, 0.0055477519616800985, -0.10689380135880475, -0.11485012547569179, 0.019635229937314518, -0.11123143709739297, -0.023931229535575818, 0.0064682243341829876, 0.014238921215785613, -0.03445254719495237, -0.047651235427404945, 0.07260352739955905, 0.13344917034772094, 0.08670736768128445, 0.04170126413154857, -0.047629370031048286, 0.08507151437116132, -0.021800776127922427, -0.06915855957574432, -0.02907805486579435, -0.06638157465475718, 0.04766962417996767, 0.042036420217825686, -0.029301891185553947, 0.02638607834585679, -0.06989006353717167, -0.06493496260757779, -0.11845435906736383, -0.12024640007505517, -0.03552753837951359, 0.10192431083861832, 0.10105902606892404, 0.03206733098004602, -0.11180942194821243, 0.008058845881652133, -0.07030795752808328, -0.14305093800502786, -0.05523069485686099, -0.0793283815171248, 0.01627639405255977, 0.027644364640867763, 0.03618760838944563, 0.09605932348175689, -0.02833365227100675, 0.05649530413315455, 0.03612507693376744, 0.06999018897238603, -0.0775348960201578, 0.04014649868802238, 0.07819597388753356, -0.05959769599634302, 0.037337957138368245, -0.06812187793482442, -0.1303307775986187, -0.158376276252845, -0.12113284480781572, -0.08960583950851513, 0.1326284683477365, 0.14318143041949036, 0.05761672580128821, 0.028758810548676815, 0.030318175387853728, 0.036469480967630336, -0.027454724596244155, -0.18361986464900923, 0.019702250249957927, -0.0034508147976351506, -0.05958975242274707, 0.04066998240130816, 0.015131863474408374, -0.06096406711200218, 0.034801552761651075, -0.05139131711804589, 0.04914145055755752, -0.026903707090762896, 0.06888708140697061, -0.05060430630324735, -0.05084793842013115, -0.048176006108253414, 0.05093658637574876, 0.12409382915518363, 0.0509109331398801, -0.021970028204281615, 0.01073852160795324, -0.06169101653697631, -0.03596425970361667, -0.03897597062541271, -0.17211225725596685, -0.10460621244642289, -0.04917742216053764, 0.040703039801158004, 0.015957964284315337, 0.09182739569749501, 0.0586123801549152, 0.058656107085297136, -0.06657207328689113, -0.0615764581050061, 0.08268186831126949, 0.060990258224894525, 0.016496472174900946, -0.0645164630845768, -0.05643189527580335, 0.03312307112057891, 0.004866791661152462, -0.05651513895987348, 0.03650178098898447, -0.03324338755963872, 0.13387108755423002, 0.10001115381744187, 0.14244546738138933, -0.012922547744500091, -0.11127762267956959, -0.09972464076943002, -0.10890702794628335, -0.09723145637015711, -0.20291292153554655, -0.24613105322287554, -0.20645164982030065, -0.07974970612273324, -0.07636919637966795, 0.13430908248121684, -0.06164483104732264, 0.04729785588081656, -0.03359764432478499, 0.015531284254646638, 0.019193052924378833, 0.051213325715116255, 0.06661094936581807, -0.05291429531001869, -0.041895413664229844, 0.05461352736607549, 0.019312447171772364, 0.003041233993927942, 0.04097068093080134, 0.10733955885966709, 0.18941177401343331, 0.04917709874992808, 0.0979533436885425, 0.004214525985568654, -0.13713027935005134, -0.19354081451997188, -0.07631572954596706, 0.10364470359222319, -0.04733531771179816, 0.033547751010145004, 0.015622665905376, 0.09524762270830442, 0.08424741801656756, -0.03652146105912841, -0.07839055657140437, 0.061261801390955425, 0.06276056729420176, 0.0963135230392469, 0.005426527794555259, 0.027276624502349495, -0.06960621875600138, 0.06489227435349394, 0.05829643747210794, 0.07047350501609968, -0.07000732455773198, -0.06072179644963097, -0.02454275186559358, 0.18621797864204503, 0.1652214721612436, 0.10730585658626476, -0.03256344157326352, -0.05291398611990112, 0.024207230964328506, -0.03242611805353865, 0.026847121482723734, 0.23230322842126047, 0.057852698080180794, -0.060798105567631135, 0.18295932831561731, 0.15012897819289034, 0.09129446947704213, -0.0236325394150464, 0.06154143351741414, 0.07313975095110278, 0.012797580085875252, 0.05475790386571945, -0.14759566986431033, -0.11831395809372208, -0.08626292347280334, -0.02033683423919322, 0.015396943975968181, -0.02653071766677611, 0.01855229509721742, 0.07203398751236367, 0.005323672365569252, 0.13497925390558033, 0.2107538915691562, 0.1096416666501488, 0.1833425984555574, -0.00934744468045103, 0.03916150114716517, -0.02306220625276953, 0.1405248375121838, 0.16427650772084387, 0.11290701962357402, -0.00820101830019121, 0.048787505769401524, -0.14109194709782094, -0.23096737677041773, -0.12886812485697796, -0.07730287904658256, -0.01313716955396375, -0.09683612435654534, 0.05550756462727281, -0.12328279874582487, -0.08504843972369044, 0.018507168920944474, 0.02945344572489982, -0.030671158984518426, -0.005831704619650322, -0.02048078547106206, 0.06977519681768403, 0.14011213924320617, 0.1551147035715997, 0.14416830347417264, 0.043852341105378195, 0.06253548806491571, 0.17210186251072565, 0.0897618679414549, 0.0740334276835574, 0.005902602389380355, 0.19944749720679536, 0.028587537920212673, -0.06182822837031072, 0.012827599322856176, -0.15092883810498925, -0.29868541027705026, -0.11300717643347714, -0.0007225606218103362, 0.06755846586797297, 0.036763461130476086, -0.04857600950501409, -0.03086702863629115, -0.12377243037183301, 0.03687103584618287, 0.06503118901861006, 0.06665499760555599, -0.02262289901480114, -0.04385901623778948, 0.04427823692124236, 0.06345476448054765, 0.11609103773110308, 0.1501811506846541, 0.1592873135305499, 0.1502605457489442, 0.12581146570636717, 0.08470571290914947, 0.11155600535424612, 0.12012118809039676, 0.062329716598717326, 0.003942046505905841, 0.08624645627919322, -0.08941359965301601, -0.227965801995104, -0.09378530547742188, -0.029199091949836387, 0.044513901532108505, 0.2234105402350866, 0.07407021552231845, -0.007466669881624666, -0.03580374319262866, 0.0024259006878510933, -0.033120519887059406, 0.03937076289897157, 0.033070012719500656, -0.04503351394177177, 0.01001187411267084, -0.03434609848091174, -0.04291043998807952, -0.030772439311306243, 0.07546901387645731, 0.10683234919137477, -0.018287572702593916, 0.06851810246194633, 0.04783518122807213, 0.10483281809117459, -0.049784920479058574, 0.011561547794214559, -0.030794890410343483, 0.0023199551258742557, 0.021727357072879646, -0.10143002446775636, 0.17083071284043086, 0.14022994366021355, 0.35353390098162146, 0.17252943848614824, -0.0071883585803185195, 0.0161155171795188, 0.060735603452795495, 0.06425637561335557, 0.008754641351698404, 0.03512291421928499, -0.018080229222437502, -0.03758466634777374, -0.07179851893314426, 0.005680252182427014, -0.02090765281211174, -0.047242720130357393, 0.0031385993598748796, 0.03196606324528861, 0.015168183420527271, 0.10157718883102687, 0.0396288854737769, 0.03139845187184853, 0.15829333900161421, 0.0068829408209755685, 0.05955270756618206, 0.260567877313685, 0.23388863515828606, 0.004607953623668469, 0.17843997797029737, 0.1247392296433789, 0.20791242307607394, 0.15812879025332854, 0.12808390222990362, 0.20150005203427646, 0.039722585982531214, -0.0018907991514574272, -0.08700168861673173, -0.06341197648253606, -0.0780258513417151, 0.012172178274380423, 0.061807341140938624, -0.0285264182304868, 0.0856351184849393, -0.09113125254649104, -0.09301536948032815, 0.04885559728617886, -0.039675742562283935, -0.03807951582279302, -0.040147073310735096, 0.008335594033056087, -0.06922280995255602, 0.17108813722774086, 0.3824630372594072, 0.32815454625419094, 0.357342032299462, 0.10485968616927455, 0.2399135773618144, 0.1545337328761984, 0.15330677155611627, 0.1632746540532376, 0.2157766281400821, 0.17345429656975364, 0.009362599401494373, -0.05297789621232666, -0.1325693180130632, 0.02945378053996088, -0.04058355307711703, 0.04638740809116315, 0.07270197921035974, 0.022730272534643436, 0.016439410150190445, 0.0012129576132795807, 0.00500121441143251, -0.07124604701458509, -0.1091325800526564, -0.1103331199236003, -0.21276247397611403, -0.39414405108170136, -0.15309986231799175, 0.054932437237902317, 0.23775840853600796, 0.2590183474471807, 0.07020413648976155, -0.0005166844534659248, -0.06284292007079686, -0.07355424493589383, -0.07438878145762463, 0.0536963432691224, 0.2760658921969087, 0.0643159395518701, 0.05891528254488667, -0.015164170982774897, -0.06604790838346551, 0.05909066565723051, -0.03927674493604856, 0.0696164327956351, 0.052271646991989454, -0.004601237514450742, -0.010408654768175452, -0.06655724134233791, -0.11328445340171263, -0.07320732431826033, -0.20169589065642263, -0.21197154887083797, -0.2790677990034076, -0.32822341502311053, -0.17440370349522807, -0.19556614634212877, 0.05326201821814094, -0.04763250714376618, -0.1623565754827093, -0.02033929116753714, -0.1291569524367967, -0.29235340566191104, -0.06900783973999848, -0.021016563933205078, 0.012354500786132086, 0.03963983089396007, -0.030917384086716952, -0.0659259472743141, -0.0655522354095093, 0.07675427624689125, -0.022311276021104724, 0.059474921715307036, -0.006940090636839411, 0.026927805332076525, -0.025497038651181882, -0.09252697939301069, -0.15952878221171238, -0.19973662695683048, -0.3174683517933717, -0.17702687263582104, -0.13596918307891753, -0.24898960698730466, -0.18144982135375817, -0.2749757579123782, -0.01872076007495608, -0.16290806126075988, -0.16462295320297957, -0.010151299295690286, -0.1649540198668574, -0.2944963993909391, -0.05893183555290615, -0.11885434935194328, -0.13149358159884036, -0.15293025646465933, -0.028453292565569912, 0.00988888625430918, -0.09999282595329505, -0.015897656189199135, 0.053880063097977215, 0.031038877799577348, 0.06298553244285261, 0.06905981349764008, -0.030863297598794096, -0.01742531255376304, -0.07439086112874818, -0.1774108299290932, -0.2465181426960993, -0.17006119946829562, -0.13345187180932236, -0.14465270074541378, -0.08980485995552633, -0.06757295435152051, 0.024757212135497732, -0.10310379469401522, 0.03732303937836644, -0.08607921697887724, -0.13533880452009006, -0.07456814387979098, -0.04509098558425361, -0.060308742691225874, 0.019594954707426337, 0.0687076946461473, 0.009100127638399996, -0.07040458451936077, 0.044032231661245855, -0.04435736392494709, -0.08512352262219151, 0.06866531012787448, 0.05630786918739153, 0.060394405096686685, -0.07973984314162426, -0.1250284401489937, -0.05760377095268152, -0.049383067041402155, -0.1462966414117619, -0.06057081465629436, -0.10752190219688743, 0.015662714794449674, 0.1006255184524974, 0.09803918944496896, 0.038040543973509595, 0.056039722223007245, 0.12450355013135606, 0.10914836677471389, 0.012850975014526755, -0.014123824663842233, -0.008912065944960476, 0.03575267887979851, 0.11857851459720528, -0.06661456817738723, -0.055746100453066445, -0.02660597846070628, 0.026453873951834524, 0.017869672351578873, 0.0055465936090784915, -0.03197668270910374, -0.05730128536163803, 0.06578247298186145, 0.004321986747090886, -0.049233407591244005, 0.0053778898166882035, -0.15157731118500994, -0.06950271833086848, -0.07077347469924787, -0.01313243653676576, -0.04890340405958773, 0.09432046567532992, 0.05522755937326945, -0.08764916700818613, 0.16796102105608, 0.038799851377406706, 0.0953135131025062, -0.05212164512492475, -0.04450808197279961, 0.046637667744016606, 0.01205414584926123, -0.013712432403352202, -0.13053484331992216, -0.09410878531419146, -0.08595315045729889, 0.016460732821539946, 0.0036623884228763294, -0.05477506194064541, 0.042249629721659715, -0.06804177951490682, 0.0013486859936180974, -0.09253266887376621, 0.04710475475063805, 0.07806158638850777, -0.0768829867414427, -0.0569304640914654, -0.13293619483404023, -0.11129030598138796, 0.0030357342550249985, 0.13034790022160192, 0.010906890989460712, 0.07592568661656265, 0.07967420151581478, 0.0962255342155936, -0.032591206031574775, -0.1538183887435897, -0.10152604373770939, 0.035300878599772254, 0.03241223235907726, 0.021282840432950034, -0.008040313985745734, -0.021717248843662246, -0.016825413178007915, 0.028020594018711403, 0.04065477139227554, 0.016577659820062537, 0.04836174503943073, -0.047131256516215664, -0.046206077524390564, 0.07265663375300421, 0.03163606550773819, -0.018672186230165377, -0.02676450200319605, -0.09233548308441634, -0.13664608370585496, 0.05276522300724556, 0.025957329813261102, 0.2188101689047371, 0.03411049597501124, 0.015813329440651683, 0.1977631607687759, -0.06621376885732988, -0.14414176260004588, -0.1501597167477006, -0.012828468189194885, -0.062346167583902296, -0.037683513991077895, -0.004401787200847619, -0.049908356908289, -0.07384132399380537, 0.041007359217216884, 0.06542655816244737, 0.0734279288022014, 0.03172644770532807, 0.019714500631007676, -0.05663939398594099, 0.07296150503963614, -0.02194591085098147, 0.01253236304996505, -0.04534905216090189, -0.031265180172393686, -0.005402064007593292, -0.04532468245623207, -0.038611942617928025, 0.10522724672341788, -0.003811568098585288, 0.0013106720846000359, 0.01577791039766985, 0.096164040422459, -0.02811264190611143, -0.011505734340289567, 0.03720682534770847, -0.039812318321475436, -0.06527010598447348, -0.03290938319581437, 0.049900070656044015, -0.028948841048382547, -0.038210568190193486, 0.037780709377638236, 0.02258468229682243, 0.04926413045642296, -0.022788030016453138, -0.07935830882421684, -0.034423292555296144, -0.011542424802156741, -0.07665124396503711, -0.03588454372165355, 0.030438004076505314, -0.091846227692377, -0.10890506091488576, -0.02351868293180016, -0.017284810752584086, 0.009762946870129534, -0.01970590102708127, -0.12997903862113988, -0.08400034945665603, -0.05092028075362097, -0.08502226667723264, -0.019835193613283564, -0.07726041668739811, 0.01690929943793836, -0.019562555764160463, -0.045520122691314197, -0.08499134385187368, 0.06839290444346154, -0.06991617097429281, -0.059328224117658944, 0.05925191237646209, 0.038413253037467676, -0.049660650186800666, 0.045169060673158075, 0.02077085634283052, 0.011836168680710855, 0.06740891636949121, -0.033067403221072135, 0.03130773131781556, 0.04993721045167375, 0.00405630217146704, -0.003769459568163148, 0.05245663634749704, -0.03786652390558007, -0.059305857845968785, -0.08442131327687466, 0.055905152379918784, -0.03792524734544666, 0.06720166720015162, -0.05943362253326115, 0.013760502760224617, -0.022494243759331244, -0.027859228759562777, -0.024532115703744077, 0.060128093484509634, 0.07491751409055857, -0.06534845790936572, 0.06397396091747798, -0.03126388199855223, 0.03513728199498346, 0.07230905151238773], [0.10456341292714615, 0.049873290406589735, 0.007453102680191902, 0.02638295873499182, 0.04789700847515479, -0.025309335112834955, 0.026301557462950476, 0.08585727027260323, 0.01542675604421586, -0.0067918523182979385, 0.06959828079803126, -0.009109875032146315, -0.03417917714451087, 0.0299902435367639, 0.04483400141638373, -0.02954684884784717, 0.018895571062399846, 0.03043066661474774, 0.05212904191649331, -0.0046870726483552345, -0.028255868744626496, 0.050144473668489724, 0.030963857842080198, 0.0685542609477205, 0.07854934416240886, 0.07713327675436993, 0.08497234734852417, -0.008082807012224438, -0.00854002474243953, 0.10136390956197687, -0.04084354325511948, -0.04782811754651998, 0.07637333132936858, -0.052295242633433665, -0.0261343149388176, 0.10259801407940265, 0.10255349614284336, 0.018660376350310686, 0.0767381273667847, 0.06321011767759292, 0.07063742347864604, -0.01430581559501268, -0.039738232094722, -0.007972950949804122, 0.08765699150806566, -0.0333748733357738, 0.04770810542093065, 0.057013517465518145, 0.09756806082141871, 0.06711213288146407, 0.04929843440360315, 0.08542647307635177, -0.041245775807940636, 0.08123090335661415, 0.08615434887294757, 0.08376436125783304, 0.04024583908270868, -0.02912300226764412, 0.09178062758106417, -0.04447142813995283, 0.023436579374367952, -0.0017486823304383526, -0.04226308581433031, 0.06424417137451004, -0.01871997547247944, 0.025494462983204548, 0.10719838749564987, 0.009117636197850044, 0.09030237958514871, 0.012624825864944914, 0.05412481074772213, -0.0026696666404687694, 0.0949883013078765, 0.13184121455864184, 0.09095283601354037, -0.0011696793097885744, 0.07825771168384688, 0.08877705041465775, -0.03854476898360869, 0.0798120235392543, 0.05811230591403519, -0.043129148244137584, 0.07085931351115987, 0.09453886194411323, 0.08712849447683971, -0.04333383576229333, 0.014643397586081958, -0.04645462640672014, 0.03392931925904235, 0.02611557172089605, 0.03874953527830667, -0.03620763565067214, 0.09498476837227138, 0.12262278168706275, 0.12466330048524359, -0.020207203702249855, -0.037107346110170004, -0.017063557919275503, -0.06491717721040154, 0.05550285947459252, 0.13505799196313784, 0.1749200072275245, 0.1431758471485672, 0.17006623631038098, 0.1018094558123251, 0.011042027317370435, -0.03657623501959584, -0.0239896246844571, 0.042528154690824826, 0.08309226190249286, -0.025299159912998064, 0.06205603255980809, 0.08805751982450151, -0.03658127199763293, 0.06860026449672543, -0.0056454131936942535, 0.010643698019379044, 0.06700415705066164, 0.045533023736630256, -0.020719819726302532, 0.019432962408253672, 0.11096147667326121, 0.13737817907126965, -0.021001719393552696, -0.005918320311692744, 0.051266828992161166, -0.009283830695922358, 0.13825891427206588, 0.19190236296010435, 0.2242229159180691, 0.0892135178873818, 0.00851260169497247, 0.026348854913720285, 0.011555998750167586, 0.06222907568311684, 0.08785953436453187, 0.014882598660078737, 0.11823764626611703, 0.021847484548361124, 0.021145308894277747, 0.0028881666598881053, -0.021148312451761117, 0.061259222701047576, 0.04283652141849446, -0.029739512341060242, 0.029757566274982897, -0.00727887324496708, 0.11797666959690337, 0.13865135835686818, 0.2158212376385631, 0.2494166155220955, 0.032998723398456324, -0.100839817759108, -0.25070274430509937, -0.10974260158537075, -0.019971003160738895, 0.10041225346225068, 0.03782766371237027, 0.08875855394267124, -0.1236597779494909, -0.06338081059235214, -0.09952420671541391, -0.058112247461761746, 0.0076161913289638705, 0.09105344829958294, 0.010503398267725627, 0.011772634558625615, 0.06455365551463124, 0.08970832215399965, 0.06643085854725449, -0.029071322366446575, -0.04321469972652243, 0.0006568354437388722, 0.04591208843696801, 0.1416758768926553, 0.13077585175117043, 0.30870400418203064, 0.35679524717848726, 0.023524932434981112, -0.06380559280092589, -0.13394293796655288, -0.22760672979676613, -0.3231831994398608, 0.2161609152836412, 0.16417046952247907, 0.07275667597033997, -0.07286024052107026, -0.09078868497481633, -0.1592545431524165, -0.02919332766446786, -0.040824750831264515, 0.10072222987669928, 0.08311699887757486, -0.012707734983263223, 0.09555119789652089, -0.028656461340838334, 0.04356006977972712, -0.0020585309259285715, 0.09685531335622338, -0.04748613858161877, -0.054876855790334085, 0.05510825347838238, 0.07106617465959338, 0.07543482883088445, 0.14721954193705267, 0.1963843769311112, 0.0643832724905856, -0.2858228314392461, -0.17274983161195903, -0.2646402873394722, -0.04088754640951197, 0.17971499032334792, 0.07972235168424684, 0.11047523001007431, -0.17485202341753522, -0.022479283023989258, 0.0676132088159359, 0.03198429291773375, 0.14319737077331865, -0.012327140879445012, -0.024697783430639362, 0.0024964622089741545, 0.06538009280580209, 0.09466158321351037, -0.02330699155387921, -0.01676245520784461, -0.021806483190070544, -0.06103629076017828, -0.1475473555526457, 0.1166963165679505, 0.001547491168871835, 0.1971898051016589, 0.36979312153672855, 0.4224030880346566, 0.02383169749363363, -0.22352640654858424, -0.2141704683296489, 0.015227614657066717, 0.07932921415011784, 0.0760139856536456, 1.1730742545400408e-05, -0.034117153992279776, -0.1643714376800014, -0.28029710803254204, 0.2022648566152783, 0.21860990295182936, 0.011946154538773273, -0.0630303996084544, -0.03975731067291462, 0.0938041585107225, -0.012229510169958786, -0.026925154811895235, 0.10509265380279247, -0.02618169330894272, 0.06016616934041851, 0.07609553408088121, 0.08422106843471117, -0.039363141162968664, 0.05051675510625781, 0.3080075173842274, 0.3152934412956133, 0.22940093408788392, -0.015126425387041969, -0.15803214498036725, -0.18304347866258813, -0.08179924525307664, -0.13766780661583228, 0.14659214950863006, 0.0445820534685288, -0.11814082911069894, -0.17416419502522418, -0.21838108895475486, 0.04483804571180787, -0.02375474733576305, -0.21367604049562688, -0.10014599902041305, -0.03655466675456497, -0.0355861896717949, -0.04346743220021514, 0.06938333131917784, 0.10709548954185409, 0.107978527479867, -0.01111536613837676, 0.00927696520043848, 0.0905533340631934, 0.01971900709399515, -0.010429576146137378, 0.12112243127495702, 0.1826171462716514, 0.33474784868906343, 0.1521573063123866, -0.11926929942219121, -0.15101893109529066, -0.14251741436243662, -0.04304439699007992, 0.04780465428656212, -0.037381872239863397, -0.14735013311019993, -0.21357829175945825, -0.07865387233797844, 0.04195512557513404, 0.02954561694580661, -0.03367824545585034, -0.08745052480597935, -0.05338081548542258, 0.04500854180178731, -0.019458901339033597, 0.031276875643024386, -0.03306435574045271, 0.0301130351949045, 0.09043053946834753, 0.029852234689311613, -0.03815870561821151, 0.10948209029171678, -0.009549666924901107, 0.16083330760089778, 0.2848968497825986, 0.19359180659272565, 0.15812543787970604, -0.08026494120263063, -0.31512632250392053, -0.17968706107576082, -0.006711237070849597, 0.15815417243485083, 0.1486768433813858, -0.1291518007319849, -0.04052062060703911, -0.11809709720514135, -0.03705957635958354, 0.07288139164700803, 0.041214373712038614, -0.07281916981796609, -0.010911966123998232, 0.07874984994021138, 0.058601611570636945, -0.01722885886089519, 0.08934794041048609, 0.09382763849279106, 0.03969206564693364, 0.00944066859050184, 0.03809464011399775, -0.026646451439159093, 0.08877750614075589, 0.22826050922537708, 0.2742387168440098, 0.11876205394502519, 0.011193060530287294, -0.2578336863996888, -0.42842904839012785, -0.18519878257905095, 0.05023091565422775, 0.2792967751675209, 0.16560099942389425, -0.06361218131340411, -0.20967812295911026, -0.10871257012178136, -0.16059218524664493, -0.08966429414215667, -0.010903176859895235, 0.05756474975266559, 0.03450126621672495, 0.05226756864513178, 0.020201023698453772, 0.059147316274003436, -0.019299962406949568, 0.02012036289454052, 0.08627580130657339, -0.02379771116082861, -0.06166390182470532, 0.05214386657974958, 0.12418370325810445, 0.2329177401128281, 0.0981855239661773, 0.20101224972403467, -0.031069630896655924, -0.15614892831517305, -0.48790670819928034, -0.28129036651156153, -0.08269910055299477, 0.1635606232405441, -0.05114601378859369, -0.07354395573057648, -0.03263536982489466, -0.10790309250819352, -0.1154250894473732, 0.046758658421938416, 0.08747757433048252, -0.016343255581053158, -0.05688818349576686, -0.008755496968934106, -0.016131413146782233, 0.06866488715985195, 0.08713249051807272, 0.0100163896794497, 0.060143827593166305, 0.0042844665094849965, 0.13979234936960586, 0.01444744970843643, 0.1428368654623139, 0.055729001782929444, 0.08860341040234536, 0.13699280165144864, -0.26929545585193804, -0.25261822198414696, -0.2725697941236006, -0.40989558737503656, -0.16414516629187745, -0.05697065714978317, -0.05668518709156937, 0.10016860957151388, 0.14458316161198104, 0.06961728306913029, -0.11295082173551615, -0.13055137565075936, 0.13741314910464603, 0.046087570452499255, 0.08410940282466924, 0.04326816908626259, 0.07136440379815905, 0.01893255155349103, 0.023469542743101247, 0.04268593674250746, 0.04641012293898996, 0.05186200632030791, 0.0778167588317896, 0.0941702429998267, -0.060831390409169794, 0.13919487013803708, 0.19265429843873025, 0.10223823939091423, 0.12001966776648203, 0.1130044344168573, -0.10553995811132942, -0.28696291944406144, -0.0886382281287458, -0.04048954372168008, -0.045822331318630366, -0.04775567154424389, -0.11316107935738005, -0.027015567486431403, -0.15544977239094238, -0.02067031331543254, 0.12447753825805084, 0.12454158055017711, -0.04902685722601965, 0.03760565178433203, 0.0002472138772002186, 0.012855996281978484, -0.015795846939239286, 0.014625086269649595, -0.0052619563655077655, 0.020693247371261055, 0.053004249793834994, 0.09078611418413515, 0.043198629324295586, -0.028466923030345953, 0.2728207717537435, 0.20078961252715888, 0.12793471228793477, 0.10859936989221164, -0.06647615613925552, -0.21668717627203968, -0.04184758635007582, 0.17289459368223156, -0.0746432988289992, -0.11089226282364958, -0.08000120658462459, 0.142487042800732, 0.15799716098759045, 0.14623206119256424, 0.09104443389945993, 0.174406099439497, 0.10390744539317363, 0.0703398062209612, -0.0004519990077357299, -0.06241181812250231, 0.014524794584230217, 0.09466026346224014, -0.0016757000797579336, 0.04914718748738162, 0.037248113395729684, 0.0733949477774893, 0.06349100948974604, -0.11534943214221739, 0.09065440298404799, 0.16657507475586453, 0.20842261983887916, 0.19415898784906016, -0.07900183276388385, -0.1989062558124158, 0.09024884874287073, 0.07713629798809207, 0.050773050164483254, -0.05782293193668693, -0.06111489799789011, -0.13411960813854001, 0.16245345312956683, 0.18470057233575737, 0.2063130519884181, 0.10895619973432698, 0.004979850932458617, -0.0197662960201403, 0.07606061412607755, 0.06464967768307449, 0.04851254766531583, -0.016441854022715717, 0.0375112393796849, 0.04263205641619318, -0.00657596372692898, -0.038278945062566606, -0.05945903762437102, -0.04248460787624771, 0.08348018644656126, 0.06542647542781455, 0.020130657344369668, -0.042830454900141826, -0.29917317185345893, -0.19036717412806275, 0.19870555001600695, 0.07397543360949727, -0.03275382148302786, 0.06657544684113074, -0.07784849310143115, -0.18785716514586678, 0.09299571149710163, 0.22977962680173963, 0.11085461099510914, -0.07910099174857248, 0.089916229882958, -0.08135632849512776, 0.03770456383720301, 0.04710645225646761, -0.01187856193145159, 0.08427151250237037, -0.015920566125199397, 0.04588371706979835, -0.08314012397522241, -0.09651935972834494, -0.05364344278374811, -0.012549133459359912, 0.18397378269348924, 0.14576005083811572, 0.07325088538147048, -0.04111929586992161, -0.3434515343389009, -0.18700669555764288, 0.03310307917656319, 0.10814967789978767, -0.0890149171341383, -0.08624061243475108, -0.12535799800838138, -0.2003771735120201, 0.017365030338757144, 0.1846735972281345, 0.06442751415241198, -0.004500204517844017, 0.05047230324475318, 0.051114869354011556, 0.09137782935930984, -0.05300722456531371, 0.09327442537845403, 0.09642365501079221, -0.048499846291411325, -0.05224237827305261, 0.03964092187939573, -0.07213376137542088, 0.10846495297481724, -0.020031612658380684, 0.013130841385890383, 0.20148311481668713, 0.07884797480569095, -0.04949512415323722, -0.11197455262008496, -0.05242616910945639, -0.04157209940547949, 0.034751052499029475, 0.12410677176448885, 0.036973035121341605, -0.029475787802430282, -0.1988813251179259, -0.008370897459279453, 0.16554514938440004, -0.08034176938502664, 0.015687549205504796, 0.07823308096308035, 0.011420296817887107, 0.0040447770291182255, 0.04935923365277148, 0.015499403664583997, -0.04264861259322529, 0.028019472576884946, -0.0009329763433356621, 0.05890461974222031, 0.023631807605271806, 0.06301824764287993, -0.03818932555451318, 0.1405036181470005, 0.14362936805953308, 0.014397242189370867, -0.1678341831539911, -0.113118648972617, -0.046821083861913436, 0.19377667403830967, 0.22599663259711858, 0.10590742325443199, 0.07932034525432191, -0.13288160305089067, -0.09728657513471999, 0.003948215398181405, 0.10834835660296702, 0.0394336001116451, 0.08905260337832216, 0.022930450224374566, 0.10483159166383171, 0.007231614067054859, 0.08413425189809152, -0.04448280838872022, -0.014447430779949212, -0.009224487873367776, 0.00802666326552582, -0.02369579400135849, 0.08259578392458113, 0.058941766718084064, -0.03238087131499885, 0.006562687286864184, -0.10526149429213284, -0.08576706233153146, -0.27312176730324333, -0.17152077005119207, 0.06254961775268232, 0.1313833014418417, 0.1874115360767212, 0.22008216016131232, -0.04902828105769547, -0.05422155249435868, 0.16278575476896265, 0.07583008845678421, 0.11438374586974172, -0.027862115626883767, 0.053392918359234896, 0.00953728292299737, 0.010377078435359581, -0.021110682002046778, 0.04071653878118046, -0.012037363643435856, -0.03305909470082547, -0.04254460819164383, -0.05758760685602762, 0.08134260955856447, 0.031975554288305674, -0.06668810845682742, -0.08224424926933047, -0.05227087946442707, -0.09365773494948518, -0.09518979443069402, -0.18095028233485366, -0.072462179378741, 0.1184895301795897, 0.012352366237959222, 0.14863781611715957, 0.07319091600792886, -0.034739142806809495, -0.002702660236914216, 0.0812517532373556, 0.06394711403338926, -0.030715514356137133, -0.08741182012265417, -0.05719181805675188, 0.0833776309511725, -0.0046259389301251475, 0.09007751029650211, -0.005768800989991732, 0.013499851649844222, -0.0023318439554804392, -0.03283377912938064, 0.014942584743392516, 0.08871053505507993, 0.057793370657910514, 0.03185437332127554, -0.09812418790328173, -0.07976909337383187, -0.025502157135021936, -0.09943751122662155, -0.08099990164836675, 0.03418442080332459, 0.049272716211890256, -0.04813371052510285, 0.03141758333337925, -0.02891261518756926, 0.1317734452573127, 0.010670049055060837, 0.09554984560229372, 0.07121160390186654, 0.0575074401914471, -0.0021930771949650813, -0.05913602659797739, -0.03227251225292568, 0.10282485139697069, 0.07208331826555335, 0.02585827818525517, -0.0025069500457856816, 0.0358627598998749, 0.009682869239015483, 0.015084697087935913, 0.020918639333422712, -0.024560748272217613, -0.004858387888238762, -0.035944032791374696, 0.05195797540484297, -0.06026485767956055, -0.012954345341288013, -0.1098281730127333, 0.02438814468101031, -0.029550193722702373, -0.03961290570307532, 7.411544086920107e-06, 0.085030983567788, 0.09503289650807054, 0.07963523895043993, -0.014113831165033, 0.04574586805186361, 0.0407611589673905, 0.09722250435322292, -0.021621181801191595, -0.03832703504490837, 0.05544229037400192, 0.0124144528373545, -0.030032275318650825, 0.08611312380433545, 0.09970474561025577, 0.043815779583753586, 0.08844405603755877, -0.02461612228408236, -0.047796439751507803, -0.02998719229896834, 0.06088052196249391, 0.028043281578509254, 0.004759960637796023, -0.06399328761199467, 0.08873394916030601, 0.05416003151843685, 0.01720104242671101, -0.1505138055851679, -0.13012476485597418, -0.048548804873171154, -0.01033150837328943, 0.05683955226038609, -0.006914759783714812, -0.009244586313353911, -0.03920066966494969, 0.04774673810929999, 0.030915332345117872, -0.05069157980183016, 0.05341294657452304, -0.011975143292214982, 0.016152002845520225, -0.005199358534357576, 0.07178756286795089, 0.092086932397329, 0.04174811332796961, -0.03896561734183664, 0.028123133676575672, -0.021741572958170027, -0.005232786365954336, -0.016592387756034613, -0.014119400448210917, 0.017907444889732494, -0.049395781460366016, 0.11032020758963187, 0.07412019389723166, 0.07989305627657435, -0.024334577773623967, 0.09994507687275517, -0.002249137730305086, -0.006878366994569494, -0.021637627742810916, 0.11643642717432981, -0.04223488936752445, 0.08610691840589516, 0.0072568443461134445, 0.058560103663421174, 0.08001740460607319, 0.10115540457727619, 0.05933140269898325], [0.025983098159072612, 0.02915362522336254, -0.0616116855414439, -0.02620469644748795, -0.04288243968325979, -0.008799021550477142, 0.0241369219620205, -0.007890887346520057, 0.0052027112498937095, 0.06368859721524248, 0.05606364519513749, -0.0286925531339239, -0.029182620370802232, 0.018809690014827164, 0.05356147654142526, -0.023461184685175194, -0.009746272306502964, 0.04495485494349116, 0.07354322840932412, -0.07767035055088214, 0.05657856351674759, 0.0647985758966271, 0.07460970868977601, 0.009594608670742912, -0.07427079815292664, -0.03320394295990038, -0.021768956014992687, -0.04729850059894697, -0.04989316847207164, -0.03506420304405696, 0.026152497887490113, -0.01130910885891184, -0.05209754688189972, 0.032145447054655565, 0.038826175100253955, 0.02805047899162703, 0.007196253024833397, 0.010041170648551315, -0.062115926570285494, 0.006734921474190892, 0.0015582182097143135, -0.07518451526839791, 0.0020303494738362253, -0.026278661714481743, 0.0038737336362780414, -0.05663593535427942, 0.05057975130854461, 0.025952806392478617, -0.08408484173104577, -0.02946653212656531, -0.06601150428508303, -0.05709164842947597, 0.04086532704326533, -0.06640737553036637, -0.06007055814107232, -0.0012496825178789758, -0.003182161966978174, 0.04877086726669167, -0.013235143655525054, -0.016350146249406793, 0.05888880639700096, -0.0009204013154691852, 0.053155160707705665, -0.056386274317257956, 0.0005915300792984735, -0.025884587735063684, 0.002730702652238979, -0.09481305627786904, -0.02933311709008612, 0.04623844490520633, -0.06599021450489201, -0.10523460886420881, -0.09881627219841613, -0.025263421621284077, -0.008903467807143727, -0.09537515488682828, -0.024600189135807166, -0.011677262080288, 0.04694531875859335, -0.007528926757669105, -0.033305231159589846, 0.013517613378599592, 0.05862049753244407, -0.0627261968090798, -0.048652600535321826, 0.046323835356054326, -0.026015403960061818, -0.029284180112454428, 0.005816793482239181, -0.05584009680888275, -0.03452057132524642, -0.04054921883780895, -0.1119722238568614, 0.011434889569120369, -0.13595528128911083, 0.008910156596040773, 0.06570042919604445, 0.04711585570912289, -0.024839336093574246, -0.16510597570595406, -0.009607999174640763, -0.14149737499759252, -0.0916122347838404, -0.0739844326713692, -0.12019886560748891, -0.08062146979727351, 0.05830070396084782, -0.014739998784537285, -0.04277325613366886, -0.04407250949987032, -0.06696443498404435, 0.0645262627696228, 0.04941390520598585, -0.019140592107053166, 0.015936406191291188, 0.0008325800242783411, -0.07847633894469909, -0.06890102168380775, -0.012876642697428003, -0.017301230657653002, -0.007251297570525489, -0.08613926376563763, -0.08433428719434748, -0.014327076887592551, 0.013481080988046006, 0.07092904049192601, -0.05066128109190916, -0.10382337574148404, -0.07939927795666704, 0.027191638160112254, 0.01690430768453259, -0.045512189314847226, -0.04099616202507441, -0.04365162966398642, 0.039352605606707815, 0.019793424469325447, -0.006337034134303588, 0.022541690290530422, -0.0460797575536561, -0.013234143761144141, -0.04281500130496991, -0.015219189994539585, 0.062489474164298044, -0.057001564856805936, -0.04208942398942191, -0.02553184073044014, 0.058650337338662595, 0.05477273291273145, -0.0187909073102675, -0.1268531367799243, -0.06191659870530072, 0.03270084793256895, -0.09847717002190769, -0.07740651492057694, -0.1929538517228898, -0.10823482360190781, -0.09523892931519437, -0.027798746833086207, 0.06676033461462563, -0.06818659630338768, -0.0864918673535203, -0.06409351519955284, -0.14247053889617756, -0.13895219943796777, -0.023248995882790186, -0.030122694689475857, -0.08070957458996625, 0.058171599374831504, -0.001218888606914685, -0.028795091206701158, 0.05572785187534495, -0.05597624991669442, -0.04567699615082861, 0.11380622833168878, 0.05740861283305271, -0.018010381982499282, -0.015434605402331077, -0.04229463187559623, 0.027059617316711443, 0.10577511986533025, 0.07227529736618016, -0.20298044811463703, -0.03255306822098881, -0.046862785634422095, -0.08129850359505661, 0.021074086302126028, -0.01939000185385765, -0.13616818637276892, -0.008150285890893881, -0.18573198348689196, -0.14995349476097017, -0.1838998038723777, -0.13851561943493995, -0.024901736516337546, -0.047421812806331974, -0.010058384211646083, -0.01027933384723815, 0.013012818301012783, -0.036402603390467504, 0.08061422033564809, 0.08028119002374907, 0.056785391884887446, 0.14051429996321768, -0.07440948340074743, -0.23508781143620167, -0.1377401570362474, 0.022986378974796606, 0.022087946210664264, 0.10145422195634486, -0.018042904271778164, -0.18159366393776072, 0.0012316377768423173, 0.008291612563171288, 0.068005378218815, 0.07822257636288074, 0.040367007379055096, 0.09897800951356706, 0.08868109484854393, -0.0831925332535349, -0.12972177727370246, 0.009899065574905743, 0.00657449532979828, -0.0620806512868604, 0.03203642619124177, 0.06748727018889912, 0.05036593781487959, 0.08924779426424609, -0.0634890673592733, -0.036936282606489935, 0.033802465707657915, 0.003437481251757779, -0.08745715877958588, -0.17404375903379954, -0.05535930829583069, 0.23571301609426146, 0.17240556550159392, 0.000495261450529166, -0.14340775240994122, -0.10824984506577302, -0.1269490198306839, -0.00993174533313879, 0.006563510154654118, 0.027444061194584788, -0.06358300473693398, -0.07784149381364328, 0.04447127020285839, -0.2782196448793505, -0.08792093086641901, 0.026639762940764818, 0.03611751210954167, 0.0006795929762852445, 0.018858089217365773, -0.07688889371217981, -0.027580097466136527, -0.032851240762903675, -0.010056325923256207, -0.04081305495493747, 0.004570188074086726, -0.05191929361180329, -0.11124500871508092, -0.13864177252958473, 0.030561745867308077, 0.24534385967502836, 0.053069904060236824, -0.12401511376631545, -0.02662910325139012, -0.3396762355098484, -0.23465797678279474, 0.05261664094773555, 0.09473056874023546, 0.10942815401621747, 0.023592874965621284, 0.00910419671725301, -0.08996629271028944, -0.37834919625289865, -0.19041907735249514, 0.022627395718952344, -0.008366176687306676, 0.013616558490236843, -0.0618808609154964, -0.08478961674705927, -0.033994531764979526, -0.010159461520242092, -0.009796272062925201, -0.0014310754017985957, 0.026955733583139643, -0.04470614314071237, -0.07918304503749143, 0.07821293858244699, 0.11044840012431467, 0.028392133711199065, 0.129305272950678, 0.03664364031517895, -0.13835620172239774, -0.34243252733961344, -0.5517252404079693, -0.09967095156962978, 0.3087229561331135, 0.2758735284319796, 0.21156336756535934, 0.10458976461968818, -0.05523586292991013, -0.31025151761531555, -0.15292745655023485, -0.17128998255904954, -0.13793842557271846, -0.09333389734225528, 0.05966601836274823, 0.04002864163464902, -0.05374511402730091, -0.06509797285255327, 0.0188281344094443, -0.16232273437055447, -0.015496367193668337, -0.052183416481862255, -0.09779693269079719, 0.031298927610243395, 0.22866613208033404, 0.0717831194305339, 0.004343204740997934, 0.2339986723117248, -0.18117901034310338, -0.19251947675005351, -0.4983535435297735, -0.14696315412503438, 0.1657617151224732, 0.17834667476867785, 0.46919529049497677, 0.21725783248763297, -0.03952183365626117, -0.15663984874937928, -0.14210562778510677, -0.05973291838734697, -0.0617674295840452, 0.024377090315681187, 0.047365394737758554, 0.021555021374928592, -0.07835823863684897, -0.042139929769980225, -0.05050375520155101, -0.18127299999236576, -0.01786080928649413, -0.07025813092442408, -0.13021784788121882, 0.005434362460991396, 0.0012914434768445393, 0.06597801063008386, 0.15936751226947213, 0.11659591960317024, 0.11103385236517226, -0.340867354398154, -0.5646827109497748, -0.18336140149650054, 0.13341160177487638, 0.1385392143815824, 0.40742667745078065, 0.1668522078277082, -0.028581206075819706, -0.0397001962809503, -0.21180017124175785, -0.062404019545947716, -0.12972595478572252, -0.001800900822839791, 0.021854903215092827, 0.0487656187316918, -0.0721831843314166, -0.06705071919723922, -0.042478706385349924, -0.05895064861684969, -0.07689201114643067, -0.10982055182135578, -0.04043671648341401, 0.06310859164998776, 0.11235102469293243, 0.06087087668104106, 0.04156325952218558, -0.040535261554242905, -0.21947636797023135, -0.469026179783005, -0.3947379208803541, -0.19865122668005447, 0.22518956961674602, 0.19945182814601067, 0.08671092768414665, 0.06973896970406541, 0.015779347318685924, -0.023347829939159674, -0.07704681775591078, -0.02528350035945405, -0.017511365638033724, -0.02425956590956584, -0.05750847856291957, 0.06421210702877635, 0.028163891460192523, -0.027826080673044852, 0.08520666138839181, 0.039165226109466246, -0.06344451493277146, -0.00023491247039259227, 0.12511284278706558, 0.15400451608913204, 0.1341233169313065, -0.14408770433953283, -0.019235505468925555, -0.13037628971704143, -0.04612645688059067, -0.2897490336822953, -0.2266239546234028, 0.13467212885552673, 0.3310071705886854, 0.163115792009611, 0.23317145771795228, 0.17656486398374965, -0.01604438742427659, -0.1608969753595196, -0.15341614983531668, -0.03318052843759086, -0.0174512918261172, 0.04770870935440435, 0.03512537898468826, -0.08326214083861237, -0.07227039332367888, -0.03571064323743765, -0.02624004025710576, 0.05437602427604646, -0.06530270545834618, 0.17040038685583128, 0.22969919312452636, 0.3030924912134448, 0.30759965319234417, 0.13397615903803498, -0.01983394928534815, -0.016026647524528214, -0.08093599807199385, -0.42553259021376466, -0.21380207736549078, 0.17193159918504525, 0.3559275478759148, 0.14654651073871708, 0.2001160241464498, 0.012536499969178912, -0.15097449115166567, -0.11127271223018517, -0.17313696385996186, -0.08987915532535226, 0.016431522169740923, 0.011423506015813422, -0.013972263057631596, -0.014737958282794023, 0.06121588668891978, 0.024191437507242227, -0.02879834464264807, 0.030081234638044924, -0.0010157649466682322, 0.15371355658792485, 0.09315911506892956, 0.14668460803772515, 0.06406747120573776, -0.00492798169242929, -0.053813360697081404, -0.1563958681259423, -0.2681084185985588, -0.29712430472789386, 0.001726843543590965, 0.33773732237566795, 0.36681622493043, 0.24599706525422835, -0.01679479008385206, -0.18967809753817882, 0.04510170329175865, 0.011482544274138261, -0.042210782402209046, -0.011833175534229443, 0.0742466947251954, 0.07643640575683483, 0.029387779682084864, -0.03270541763899383, -0.03635839966823813, -0.012634361080015588, -0.10673253152279179, 0.01671353350589936, 0.06755205477960657, 0.10482225017137534, 0.17225807265398732, 0.058818369736007195, 0.0937459318640586, 0.09106787952231135, -0.22817429479939735, -0.21663598702496106, -0.2013355404516722, 0.14626296217172077, 0.22741514914878097, 0.43188066556437193, 0.3220966462006114, 0.16352635305464355, -0.2540935685744072, -0.11057065183231705, 0.038897314832320805, -0.062321031797816916, -0.05051017137440443, 0.011774839131855452, 0.0836626544657939, -0.07720230302673182, -0.07671372510205646, -0.07936997186126273, -0.06910008017153488, -0.03539024429732319, 0.02121592559133949, -0.005389421443565505, 0.08809947306694574, 0.0544174957231796, 0.20799496877872492, 0.11968724777614421, -0.05809816842567012, -0.10087286426429991, -0.31563396679118705, -0.2446632550232127, -0.06998359237107957, 0.14162693909800647, 0.14774460324696523, 0.3460201732275178, 0.25893957068969764, 0.11675412448644146, -0.00961126690853378, -0.046311045862481234, 0.08866706699707459, -0.00247119743587336, 0.0634182985579623, 0.04465537887768328, 0.09649589834302012, 0.018317221335019934, 0.07374517159251873, 0.07102656192658531, -0.02995539427711461, 0.02122686222662028, -0.03151168776665112, 0.06050490955818869, 0.043788603224749395, 0.06963070933023448, 0.10782306594280466, 0.1387398706234205, -0.035178594316366094, -0.08486965939349801, -0.13633683929469262, -0.2237548021393646, 0.1481581842284577, 0.13521275392493937, 0.19705646085632966, 0.03787518427884283, 0.128012921738478, 0.03833841156733253, 0.0743374735096033, 0.10386994640563085, 0.2855317799705944, 0.1909342578804682, 0.048097667898382435, -0.016961425934829615, -0.07203857693992703, -0.05783304855226502, -0.0831686392907258, 0.022297012933002805, 0.0541429373541139, -0.04323725065209377, 0.06969467782419525, -0.011386910866884025, 0.014155251467560187, 0.09481421169700309, -0.023902520158681988, -0.03856401287303117, -0.038054396235548946, -0.1632954142510304, -0.009489752242945428, -0.02042469841085773, 0.023627233263941748, -0.16096186436264798, -0.14225955301379328, 0.02984066754852567, 0.06630200333130556, 0.17283527690098208, 0.23330378869704682, 0.1726588439813518, 0.020281105989724258, 0.1580817475503341, 0.011411179049694723, 0.06328769079905545, 0.012315137707183814, 0.012035943067220839, -0.018880285568767023, 0.0007788376536503015, -0.06877580159079903, 0.053891828759835406, -0.0162995701344071, -0.05216425226790664, 0.09126814004963309, -0.17379047190441863, -0.24302781122908768, -0.18864411911603562, -0.15819841694672365, -0.04567699629572492, 0.07519682124858248, 0.2418394706949345, 0.09080605702449607, -0.21125884093784159, 0.047055628848888635, 0.1446495028927308, -0.03123778662389523, -0.00218623190040473, -0.029287423396246005, 0.1185551317620756, 0.13396040462012979, 0.10647471993361031, 0.04911573560959451, -0.008200926062365381, -0.0055602716682414365, -0.017243886703601097, 0.012290473400085298, -0.03142615649455403, -0.012770334228099946, -0.03440714056879534, 0.0028564322229877714, -0.0688638659748743, -0.04161892875860263, -0.1077230582393817, -0.21019798267174114, -0.18979739918517535, -0.06681099168102628, -0.007891904241404643, 0.09021889401598844, 0.07030339919527046, -0.14299269336281054, -0.19578996807216228, -0.034962201788853085, 0.08270134455237332, -0.17986212869574303, -0.16280359572502548, -0.11229865986837019, -0.05305810014659216, 0.05946657722509788, 0.05337858378900729, 0.024395718293459236, -0.05683731108057937, -0.05130521539428825, -0.0608544489559613, 0.0336542325816364, -0.08004084848828201, -0.026809703654956864, 0.025887824854548467, -0.08613164015919808, -0.04420125997567493, -0.1466233678261587, -0.09491014267751247, -0.07882704037733033, -0.020122433500083206, -0.009021191220234752, 0.03881337825390248, -0.061583261517651394, -0.03684890014402745, -0.19368073192316865, 0.1236101670866838, -0.14395892688494413, -0.2641235596384737, -0.2593945241505607, -0.08196212098522598, 0.020894909454437487, -0.04875788485787292, 0.03428769373638481, 0.003733791553754482, 0.025492747524992417, -0.06457340096864461, 0.059639996974382, 0.028560063883686992, -0.05756599185470392, -0.06881239881868874, 0.07125191568351924, -0.07878097262484936, -0.003840092948729371, -0.06767184332007159, -0.13709374048381734, -0.15470616373520465, -0.09148477926715749, -0.00848344549205065, 0.11778416678414268, 0.049721249261213275, 0.04171941358104514, -0.027006970121034778, -0.1496821357404182, -0.023545464470961786, -0.15346863050987766, -0.12194666556639104, -0.07137239378571204, -0.08427613992612377, -0.1551490081142816, -0.02978024671515846, -0.028825115165305157, -0.055592332772530346, 0.04158336989380317, 0.034203761482480166, 0.057461219319653194, -0.04792817150254196, 0.04441880551698155, 0.0036168968927554174, -0.057118466474363305, 0.05366373483896692, -0.01916067983788604, 0.08148248843715292, 0.02978772214848137, 0.03238499993343477, -0.16774546072212182, -0.12334252827662781, -0.11567642077444378, -0.05436743748079458, 0.01910777769385939, -0.08823465598756938, -0.06877167169902233, 0.0022352628492147125, 0.14030349369184694, 0.06923995142838789, -0.00040291059202147116, -0.00564543015504062, -0.13765265855564907, -0.04289479963375072, 0.014490638983731534, -0.023580370380271144, -0.06429232297816051, 0.029949584694994067, 0.003924323434637409, -0.04280104212637408, 0.0009298751122789415, -0.06681997477225465, 0.05283931871143545, -0.053064455167158915, -0.04459559834554888, -0.049206880396414694, 0.13141585303780345, 0.06904423666378805, 0.04743566946718397, 0.0978721649129381, 0.09133774808705006, -0.0861672661984214, -0.07344608247471583, -0.09022142387884469, -0.1061988701422638, -0.06568796452914638, 0.00881343347681383, 0.03295968962073044, -0.08869957874645112, -0.10578013070633863, -0.0731482142907316, 0.06387363126831139, -0.06001414046913056, -0.03982873981647634, -0.07843501840667616, -0.06123822015067578, 0.028632867873753028, 0.0699986313900251, 0.03287612737835316, 0.009378712363713506, -0.026945729377419778, 0.07443569946228853, -0.03660582251523594, -0.0606778172935798, 0.07540498278675468, 0.005650103407597091, 0.014952530447734024, 0.05507579574408494, -0.018599540821828776, 0.014049160437871966, 0.01651733455599576, -0.060503843425014726, 0.06712455966798536, -0.0771715913648314, -0.024038115987354895, 0.0682381403481265, 0.0016931493485736351, 0.05016147835694124, 0.01788672376812103, -0.04848657851035315, 0.05445556337685662, -0.03813469175150143, -0.0063508723632083736, 0.0261332470851713, -0.04609230781646374, -0.08359585944516067, -0.02190144666059613], [0.04790774502213461, -0.06796335326625327, -0.06976233498664908, 0.012974791110605548, -0.057468930396147366, 0.014571716575000124, 0.06584928793993323, 0.005524950590979357, 0.05659410896498408, 0.06298736885799795, -0.060812574334925304, -0.041934920582475346, -0.05074408759324394, -0.06806619135359587, 0.07019370280728943, 0.04694151100006406, -0.07358779513598933, -0.04678291544185657, -0.08332059458740552, 0.0016073203475317436, 0.06482067083370477, -0.07299208953520754, 0.05167013637591852, 0.0391881031901449, -0.07555153959905755, -0.05846457565559731, 0.02059644492488362, -0.0654940836444523, -0.014412815987832115, -0.0360430749248009, -0.062241607629991466, -0.02161116268469954, -0.07136011929583867, 0.0028137674756853644, -0.02652593165140891, 0.017467892490094863, 0.03543958831273238, -0.07059204699383552, 0.051480988591481036, 0.007285449854825624, 0.028766172859741538, 0.015059614504442728, -0.02636298782137915, -0.07288236247441682, 0.04842088904803056, -0.00436816054828854, -0.08629739149711238, -0.07974646605586803, 0.050805068405270465, 0.015928696895181334, -0.00800858824900923, 0.02660591141256856, 0.010419144885554964, -0.04722649217685846, -0.03316043740503598, 0.004453593657328912, 0.00658498724655579, -0.06268097103321578, -0.08314202610626277, -0.0023934752676144366, -0.026381627587008776, 0.04323109002729173, -0.03813439797291966, -0.0014710091488816608, 0.02334067762253894, -0.014089318699876797, -0.03471381336793981, -0.04252035041406264, 0.015769549322276213, -0.07421077222423084, -0.03522660639874827, -0.13245706133854496, -0.1345630431830497, -0.06325255752490228, -0.07307695332129238, -0.10883001044953067, 0.04449528570510473, -0.08871495806279207, 0.05999039637623947, 0.02861118505066666, 0.017053677673198795, -0.07600059177063978, -0.05795743586558629, -0.07008517787877447, 0.04277635422099427, 0.038828495410034754, 0.02432411381217349, 0.050746795206423674, -0.05964334304250081, -0.028722404960150758, -0.055894245829220555, 0.020385663902861464, 0.0025326882162516827, -0.031125318873624543, 0.01565705268452322, 0.1340768193903777, 0.11718384331381385, 0.20771364004772483, 0.24766658882223486, -0.0344396724622014, -0.11887472450247559, -0.06994433603822416, -0.17835720851879058, -0.14644381126328312, 0.04098215265970753, -0.05371738342388945, -0.09983102277669574, -0.08687163819041434, 0.05053679004125385, 0.019729462486519446, -0.026749574003832818, 0.041735764799519105, 0.009149373608311025, 0.05243989410730701, 0.017839405830324315, 0.033979516949596014, 0.0742187891458215, -0.04473935987047257, -0.02839828366450388, -0.02961279872426632, 0.08841691976048308, 0.026192357607627326, 0.14691505166085633, 0.24241482217926208, 0.18907437660676418, 0.13999250278007028, 0.03292599122908231, 0.10079783981019416, -0.032241684231637376, 0.05164635259438816, 0.06919233653052612, -0.009182468978210439, -0.05626691881873663, -0.09384594702648097, -0.06810547524556727, -0.04787606700270309, -0.06798910698328496, 0.05368171180591601, 0.03288474683121349, -0.0285230752267286, -0.04309621358969755, -0.08742952725491103, 0.05444133409167418, 0.04113475996374278, 0.0623241300717717, -0.027670316508265014, 0.0489747299891636, 0.0466447927575765, 0.0220786966964169, -0.13462866640509846, 0.05408863624886541, -0.05198597721892808, -0.08628923388907604, 0.12317027308734967, 0.15144028060640416, 0.10951898885298185, 0.2313952788735007, 0.20139018957435875, 0.0796055046160448, -0.060935093735136156, -0.01794770999775143, 0.0008971772021986085, -0.00956520471593869, -0.06350989466758954, 0.014605599832034626, 0.04408209106256536, 0.009332034401784327, -0.08555781355730081, -0.013996844773383848, 0.04897207271999478, 0.02587189373534703, 0.04507657215359349, 0.027311620160656407, 0.06459961938654099, 0.04687986867390657, -0.10178922537666339, 0.0007120488867395853, -0.08160568056884644, -0.07007853821882681, -0.09597622977744777, 0.023602681633499267, -0.04570122849446442, 0.18238156944912662, 0.1343534276270948, 0.1310259544253544, 0.2094680482532864, 0.09322896422812739, -0.0352006151686609, -0.12438138661174243, 0.009693399141826946, -0.006709876800579665, 0.004473180774862965, 0.0029567523651722405, -0.004222785077238319, 0.030564790122273897, -0.038306654079727276, 0.02372401051529453, 0.03480663571409415, 0.03455349497829234, 0.03794812035874144, 0.051311319556358786, 0.14929110932271064, 0.10184836853403306, -0.002516802581397447, -0.024766243791532104, -0.009829481182530493, -0.040764044825612744, 0.026748336342798322, 0.05472358027138408, 0.12674778767084752, -0.058600750716176625, 0.004135691030254823, -0.027985161245549544, 0.16345534135929451, 0.21036916361002986, -0.022739536157098967, -0.07923637844405892, 0.015459503920558108, -0.02209757393311386, -0.055772052444783095, -0.07377874104260876, -0.0358622682362211, 0.003617031127389357, -0.09065009981742142, -0.07652902115483086, 0.06305447469712694, -0.05563553676184676, -0.0283174655637635, 0.15740084342832877, 0.08895885133460281, 0.046579108647850705, 0.008501847611829389, 0.0027647005439011335, 0.08932441307680533, 0.06550842844876821, 0.005514604715934427, 0.10207805769484, 0.047970168608842526, 0.13629256914096016, -0.10014080900363108, 0.05236641902904146, 0.10081345848383012, 0.1419872542119584, 0.023937782151212575, -0.01008609332434975, -0.03617519703674902, 0.03538204676706261, -0.06690344597346984, 0.011848704362452347, -0.02630043126976558, -0.07015109489491674, -0.07568667675204764, 0.0010529964775022557, 0.06841187573414188, 0.01374550365713279, -0.025955502717495145, -0.022468498438773923, -0.06926905190613986, 0.04025408489638115, 0.0014555539599307194, -0.010457145718910295, -0.06848104642897646, 0.16060209602397946, -0.26475131367908955, -0.005869526327697035, 0.02324508252272327, -0.13383326131194398, -0.13737204054608304, 0.07037355504322339, 0.029248491109300216, 0.07340875072441178, -0.1024424168507306, -0.005304698108099313, 0.0018682755441176769, 0.10342327336943034, -0.008594071375119115, 0.03354150824720303, 0.06439618007370054, -0.055261958347271815, 0.06614880779121611, -0.000762796254892248, 0.06381018713745733, 0.06459331146564354, -0.0038432838663503836, -0.03988851827344184, -0.09075542069080461, -0.04318031692242478, -0.005450539021829897, -0.018546199700445954, -0.05810986642505279, -0.027365575864565332, -0.20843701637591666, -0.016398806009022843, 0.03888791975998831, -0.05895338090517847, -0.02384476376380428, 0.1930606431669631, 0.05108473061559058, 0.09680654164099725, -0.0891297590066363, 0.05554622207859016, 0.06188681672983743, 0.03471677348159735, -0.020863184592019482, 0.08476556439718373, 0.08315980764371697, 0.02708761187829455, -0.08822874897921273, 0.008527416808512076, 0.006626049658613541, -0.016748280002246773, -0.05564095252461419, -0.04073500175548295, -0.19961510265177837, -0.150772155609962, -0.14966016380833003, -0.04645397905525783, -0.06412993002693831, 0.03161118961147878, 0.12283092554481694, 0.16029553249867196, 0.1573256603219147, 0.04207042318869011, -0.013075387851685587, 0.03676675742850586, 0.07054850607295315, 0.21023259520767523, -0.07431920090344597, 0.061330717496219836, -0.028021695002362828, -0.08031579186449542, -0.07196951006451424, -0.008654265071556692, -0.028983907215693508, -0.03852603334883957, -0.09030786793626061, -0.049646586719163305, -0.03259605535468234, -0.013435045262617285, 0.013781505101041154, -0.07595029274138537, -0.22135615216445517, -0.08663643499559553, 0.028839263768515026, -0.01310832485381725, 0.059589516520053454, 0.08727773431017159, 0.2193878105897, 0.14651060950207104, 0.09310317749832636, 0.019600589389493436, -0.23441158237257095, -0.20679734148865575, 0.02920278898521705, 0.07589376116323697, -0.08553029991171496, -0.08716446399545054, -0.10617912240025423, -0.03695330322322352, 0.03194593907359155, -0.010250776784389007, -0.019101534171004804, 0.013970991463327835, -0.02212296433887616, 0.021800319606872502, -0.011813608325414452, -0.048337857975209855, 0.05100426829545581, -0.06788761683499528, -0.061097681482271876, -0.05505876874783261, 0.00925508620690505, 0.0073136001492655105, 0.1266811280769553, -0.02714290342578626, -0.03846636998638389, 0.017521548094897445, -0.08326048179372274, -0.018938969856772344, -0.23113034988239595, -0.33711095713153266, -0.078503743090459, 0.06266597087841441, -0.018498200366772133, -0.04347317358984729, -0.08019428465799583, -0.07727562240611999, -0.0714055158821851, -0.05428818856275844, -0.042634117335217644, 0.036020519227375786, -0.03443958322035866, 0.014937490383482665, 0.03827445551934935, -0.0501308516519856, -0.017397981876567693, 0.05977804638725652, 0.00396601332846062, -0.017254903097998917, 0.11070460789929801, -0.07271823082127189, -0.11970513097680648, -0.12229342222759394, -0.10544242093640209, 0.004522839893842688, -0.09436448565896446, -0.021938228119727045, -0.0014065065757576185, -0.29331990872882463, -0.1481228803488503, -0.13058468749385846, -0.14956652502397383, 0.044430647864315054, -0.0715984458886502, -0.024198932044299293, 0.1389996645819502, -0.007196386597427916, -0.00960542153645256, 0.03915421798488322, 0.047064827835754074, -0.0665402956879226, -0.027700332783758795, -0.08350633346129699, 0.05949271903839569, 0.09560362751022021, 0.037534435666693816, 0.05821290532364921, -0.0360163695905394, -0.23322358829882714, -0.11889328583680593, -0.14041405992269576, -0.20723288833812462, 0.045260385961942554, -0.15382495040006253, 0.051277407720316685, -0.189366954168177, -0.10396424556428471, -0.15091188764609662, -0.10697098218578095, -0.08644905428474778, 0.07114205187037635, 0.11476324029956639, 0.10464206737834653, 0.06186190088688032, 0.15957058503558255, -0.03139975549653484, -0.039701313977442074, 0.03159791276551474, 0.013169063866453126, -0.025258156147621193, 0.0013613211930930662, 0.017026382393857117, 0.03417174194814628, -0.02495323786996303, -0.10079820767965679, -0.09919056681983053, -0.23984885292831704, -0.19771051572248963, -0.1818320575860666, -0.04050574579133717, 0.14390965611930218, 0.09612165127893445, -0.06310110056701654, -0.28099272797731545, -0.06945128215875718, 0.014820111561824618, -0.11687363521686517, 0.04912386716300388, 0.15580713636938762, 0.17140014215631058, 0.14803179525238058, 0.17464072137621559, 0.09111789834861528, -0.006012448208702628, 0.06509061589528234, 0.011510566283900979, -0.07181856622088544, -0.07485324328495202, 0.003374395890430419, 0.14166177042728473, 0.04006678479396693, -0.014462596192573814, -0.09738412036555272, -0.10493814779539948, -0.04731453454024552, -0.09995575470107565, -0.20346658827138106, -0.11329529755017065, -0.08456077395802228, -0.08493840230146227, -0.27036213408982973, -0.36147211827444475, -0.11461601057046918, 0.13111810771820248, 0.10810130307500472, 0.1431425611934417, 0.05360094807888408, 0.25819244907856165, 0.14708756778728443, 0.050529843237054, 0.015308564570595736, -0.0676577252062661, -0.03412877150894403, -0.023815541315349725, 0.019539138203343593, 0.03398804740574154, 0.03120108080770577, 0.07302970577812912, 0.009795195821659889, -0.0776609039496778, -0.03754499877451165, 0.04476564030383055, 0.073320282364339, -0.09698890341802811, -0.027737728665430277, -0.08303027061392322, -0.24676383287206186, -0.40949345545131166, -0.4634995478798979, -0.1895417660134513, 0.13426799283848836, 0.1435308099521915, 0.1679384238236949, 0.03885621325922413, -0.08511927957063967, 0.16574401211022124, 0.09821604225975133, 0.08512188417294517, 0.0004994969436023189, 0.003921766028922399, -0.03480527868120154, 0.05356514059621439, 0.05961516135073758, -0.03905875845905455, 0.07158221660381861, -0.02365228355984714, 0.04102627628843807, 0.06616476017470557, 0.06490410898796985, -0.02804321713612662, -0.08891818429016915, -0.23838221769062756, -0.07688001995078858, -0.10080465757056224, -0.11263754271330434, -0.22539874416104203, -0.1810242462238148, -0.05135180153340408, 0.17436931249980053, 0.19552233534029043, 0.16374044931283943, -0.058880691934713764, 0.04260505965357725, 0.26477759585969035, 0.060338913052718914, 0.133001288793701, 0.03321269528357006, 0.06389783096283008, 0.03936035079731024, -0.028747992679082, 0.066308803471388, 0.015115060946195418, -0.03634209021591545, 0.09285539710999174, -0.05144254788017757, 0.017967887571851367, -0.07536908889912954, -0.018762718581296467, 0.07168361025096197, 0.03756702306072943, -0.14917274345876055, -0.08182187288130156, 0.005062128329725387, 0.20594307780380916, 0.09116992557729006, 0.17170054742950108, 0.25860224169714113, 0.3207783935866533, 0.0358002541999111, -0.03963446230146413, 0.13351383087086818, 0.0430170611953112, 0.010910161268533527, -0.03009746627797908, 0.010511333524391516, 0.010362588859486141, 0.005799692855649183, 0.010679705696114424, 0.05438200253442486, -0.08812464353280801, -0.050966901037552644, 0.004703143933886866, 0.01662817193000523, -0.08663299244173878, -0.056514657374325136, 0.09451408727114946, 0.07684903440181753, 0.018558076652555152, -0.16766752317798508, -0.015505932410211651, -0.004597146379287396, 0.2788027957378497, 0.3136747932158064, 0.33552305125641885, 0.3191090929980559, 0.11360730778955813, -0.04345650964666077, 0.12756634477046846, 0.07471184392732519, -0.015122156170664565, 0.05905753661185122, 0.08287615472663853, -0.10629354851131093, 0.010579301253970361, -0.07468923017190071, 0.06109295474062506, 0.054800669496586484, -0.01859656005449118, 0.057892813871397185, -0.0420402567027806, -0.0010189745638364215, 0.04318710915932997, 0.0669337385160365, 0.01718872075323758, 0.05588933139042822, 0.050112365374272626, 0.11358548460560207, 0.31105283722210164, 0.37131677524340995, 0.38227644034577735, 0.21908149962815143, 0.21151979293985257, 0.07465742700891903, -0.06683406806926571, -0.13716343767315106, 0.015183273032047038, 0.036015946344968235, -0.07450109685290111, 0.1069353321559353, 0.02845303122789446, 0.0014551234166469747, -0.014083708685776708, 0.05283149134488308, -0.009156612577462928, -0.07291251128325303, -0.038407541290448696, -0.06849386006023757, 0.0805280885140588, 0.016969199243138458, 0.08675789236531209, 0.20080404505876245, 0.17221465893080568, 0.21828918052837862, 0.20260288304781218, 0.45464481885602415, 0.4946025768834983, 0.3404494905573156, 0.16050189748971497, 0.22720274250595862, 0.11814224983475717, 0.017872152098138822, 0.06243341269018996, -0.04538292634257519, -0.10736387509776885, -0.03408175456207313, -0.03333203028650188, -0.012422480304249197, -0.010055347350877604, 0.007616214966587015, -0.0549604822875497, 0.03430917570774956, -0.012177425294594342, -0.029134661137511016, -0.06544032316789869, 0.04507893716083935, -0.02046784371242478, -0.042923876745845635, 0.08759744461603887, 0.20465238459075213, 0.19738715635341467, 0.23043388064626322, 0.3164535299322068, -0.021572865398010507, 0.09078526749340847, 0.05821807304885684, 0.16124536503778517, 0.22619923825186036, 0.0687514578980618, -0.10030622971232916, 0.05145878195018285, 0.10111999236601006, -0.09305769243342503, -0.01119538936083663, -0.011940512532262137, -0.036523661873873334, 0.06818581616685039, 0.0681643942969046, -0.005763642492978185, 0.06120303447110375, -0.02912493195811715, 0.0026407958118519342, -0.02376237957493121, -0.08827818162955005, -0.08797067007966887, 0.049154624656290856, -0.03292645272265753, -0.010368135517248092, 0.11825053507579057, -0.03231288532843692, 0.02879713498998033, 0.1292840519993946, -0.14761185514027944, -0.04723949776165432, -0.1687945264721253, -0.1916671813740407, -0.0629783384733713, -0.14942616897036526, -0.1112183479557431, -0.01464636398432423, 0.05263739537386062, 0.07843243740055358, -0.03244404711393007, 0.035618221772925104, -0.0927201343888134, -0.01870973592487938, -0.022590649191721806, 0.02464617868796222, -0.0720265433613395, -0.03635144297322678, 0.03981292511221806, -0.08694231097115906, 0.0027685523395624433, -0.05553054966366822, -0.03753459129243113, 0.030035418940020066, -0.10840910224828146, -0.11332835169539572, -0.07329367007781509, 0.03924884441607457, 0.08540573032998656, -0.0028687367780798768, -0.047243419752366976, -0.042259710367195204, -0.13057650557282832, -0.03318456529375522, 0.044371567485277444, 0.022695984765699603, -0.005599926749363932, -0.02928819936903084, -0.0727046151891868, -0.08851980520378093, -0.028627454559440244, -0.0800331402505761, -0.0225579900467165, -0.08268881540028332, -0.07076772882377323, -0.03010671471133612, 0.030285667937448798, 0.02046314564974874, -0.08386677683399693, -0.07395554871929068, -0.06847757355265623, -0.06474930007336141, -0.0010897753836780959, -0.029369774326129194, -0.06556173540084403, -0.09884001347155033, -0.05527366591103033, -0.05761262467285691, -0.0765540387712463, 0.019579071000872025, 0.02377292547875834, -0.060970600248140404, -0.07223770671291675, -0.06691827428657601, -0.012368826808102824, -0.09064361710329619, -0.047007897301966126, 0.005753263307538819, 0.01991839630645201, -0.060515534657918764, 0.022505794281536977, 0.05443423568528637, 0.03495930863862887], [-0.07122521723770374, -0.07756138356079541, -0.03545152240755641, 0.015266340898403022, 0.041106501749647244, 0.06527381689980259, -0.02984731310235072, 0.03437216200156498, 0.05608407362177871, -0.015216484874259466, -0.06118888458014949, -0.017344579435881722, 0.03254587749446296, -0.022346973313809932, 0.030428921643751106, 0.02713959165104679, 0.0627330481007278, -0.0017214902465108857, -0.0778770643468077, 0.040661116576377256, 0.030954855538324746, -0.05980216652092096, 0.0026959014157078693, -0.028904350018294486, 0.0018163759444898035, -0.04462799825116054, -0.021993147757535584, -0.04699188110171703, -0.016968555153816362, 0.05392577739683454, 0.07364710866061158, -0.05943419115729088, -0.013172740508073662, 0.04994409142937523, -0.06128219947153623, 0.0747771883267101, 0.07755198553428941, 0.012799712077437561, 0.020851633364205605, -0.03888925434206868, -0.024632460936923874, 0.005318063486433857, 0.021449354122461822, 0.047930263391825705, 0.020709815572526963, -0.012435317048333039, 0.0362528812565342, 0.05625986900595135, 0.06813468903918428, 0.019598596245568513, 0.05857959078621469, -0.006437947894357164, -0.06356021357918122, 0.0668628410750385, 0.06127114379958814, 0.029361150810530652, 0.06750528590689847, -0.03894110350925468, -0.05210248321035987, -0.004603379477751793, 0.003962605466942524, 0.05192866221264377, 0.040678429523980986, -0.04190710944137387, 0.07909412338775304, -0.07782191424470669, 0.009901306509025931, 0.027802898019862438, 0.01490344813400022, -0.08702399720457749, -0.031222135349898737, 0.08714265723910512, -0.03599388654771849, 0.032091535209358715, 0.019405921210415487, 0.016743503375060156, -0.013875775842407706, 0.023248512498043352, -0.0004648875371937176, -0.03606339001867079, -0.006441664050536883, -0.04709853201525336, 0.026439293167566925, 0.06999759362031313, -0.05684822652170663, 0.04919340918702088, -0.02826454406811047, -0.06264300797160705, 0.06412904655587669, 0.01481098993997883, -0.028402987171277684, 0.007962015143176196, 0.03225265052664684, 0.04011346169181251, -0.0032304481492463548, -0.13874320269047424, -0.01313319734293035, -0.031798111786453837, -0.02704231451298858, 0.052192853187630305, -0.11841678679225986, 0.15733337554102966, 0.2684244533648824, 0.16415557941275188, 0.0673083524826721, 0.19129392899363193, 0.02117068506112999, -0.01998111123856205, -0.00351999360797707, -0.06216425855180572, 0.048529713021537524, -0.007085248994074078, 0.0378739325373788, 0.013450282857783385, -0.04490691247282021, -0.01943397675074828, 0.05603594947051944, -0.06799314169418458, -0.01288810027850631, -0.031093848263251844, -0.03996558939711764, -0.08207322182467279, -0.04257952297646284, -0.21333380981165748, -0.26426765096609844, -0.2638088824684902, -0.11875242333328877, -0.09523698144648257, -0.08346123475726508, 0.015348912041188208, 0.06671024067991492, -0.10798565484949019, 0.0828799927207628, 0.21378703725593856, 0.023317956857678644, 0.17737486632188704, -0.028316306488238296, 0.09610797894667131, 0.012499849748915746, -0.08124725216231732, 0.055765737463569526, 0.05123429625333203, 0.012774634510417415, -0.0671729322964234, 0.050892664341698785, 0.018165328721990077, -0.012010575918787222, -0.10118318845358425, -0.12768132337610408, -0.15257480675467272, -0.202815917781565, -0.03693011119217594, -0.08346418822245194, -0.052479535027061555, -0.07056883157778605, -0.030731115327060833, 0.1228345310861, 0.060660980190337686, 0.05201963818590831, 0.025948369227939572, 0.02896382728031889, 0.053113869586120875, -0.05499543106724903, 0.15283043375270108, 0.09964419994138556, -0.009126063927517367, 0.04244258504746474, -0.07102325149989132, -0.07946287105542929, 0.0736661158785254, -0.06577862131250642, -0.028058017705502012, 0.06913425777817156, -0.0005000283711929619, -0.07442476027275566, -0.18001640749668552, -0.17621805507394067, -0.23115210566830072, -0.10774457979998231, -0.07474449292160219, 0.08856894951359934, 0.06418015677547086, 0.05672929772102539, 0.07047722232330261, 0.03766363076274135, 0.22700037951430138, 0.2982014582709959, 0.20078421191555318, 0.43592009751146976, 0.046710017226582516, 0.011693534459189914, 0.1147755657256053, 0.04557619751869162, 0.029619295145589496, -0.04703226164940125, -0.008942337258618132, 0.03263691680995868, 0.018397251012228062, -0.03012651965397783, 0.008483495852486797, 0.052739845548527606, -0.07216396886047881, -0.04243469349936187, -0.12885219341960494, -0.26453128505921175, -0.19598486072752633, -0.03402005355153563, -0.04254714531335851, 0.014588386093248631, -0.005214292166954841, 0.1860117436688315, 0.32169286609982156, 0.04155491748784018, 0.2735010189755706, 0.29871905290987516, 0.273519515648327, 0.4256042095477995, 0.19451627036057945, 0.14871972278224235, 0.013052915791386333, 0.009263945285379473, 0.01749281149751675, 0.07225281403416833, 0.07519974622148383, 0.05841188538361855, -0.0748047906588554, 0.05020757937849963, -0.06742039830865625, -0.06795025058071479, -0.03770954541451568, -0.1432389504144878, -0.1821621826682979, -0.1748482603760725, -0.13124055081723132, -0.15956931237499872, -0.15113312233354245, 0.025042711363279593, -0.016943087437623964, 0.10591396647259893, 0.013235746213419036, -0.03434568716349499, -0.16065334876055082, 0.059828462625626216, 0.03796879777452447, -0.05313841973637418, 0.053486233952925705, -0.028423994285785244, -0.031235394749345616, -0.02327548533546256, 0.048932537417371656, -0.02502404074544437, -0.03875233443647022, 0.07420594825030102, -0.03757770760632142, -0.059559895391830646, -0.043577255205811724, 0.035643163517203376, -0.02255578482910243, -0.07985780549356171, -0.3254263136419273, -0.24592764522676958, -0.1809875692064847, -0.17759851041161076, 0.013822557713473625, -0.0672179256200852, -0.0311506424162119, -0.11501131054625824, -0.1276768868523142, -0.369623196919566, -0.4617717568909639, -0.46750343717765763, -0.33151794082938985, -0.41682681590379567, -0.15152511764888343, -0.13617149309994264, -0.17166986978120827, 0.002424381689242891, 0.06895066165849026, -0.015833191896684334, 0.01643637332631276, -0.06971438461184508, -0.07452151143686583, -0.01809030344740571, -0.023400271451716963, -0.04394056645606529, -0.10749770567732386, -0.11699656696163738, -0.23622919742173232, -0.13312254013398217, 0.061560863778988555, 0.04410761255656244, 0.15117444468622349, 0.07836737971442008, -0.04714791552078854, -0.18804756285819946, -0.12356250223814978, -0.4189520145665127, -0.6947123584520257, -0.5288271318262221, -0.3906425012136431, -0.4636796688130051, -0.3318919091135128, -0.2831467426404957, -0.3052693816809997, -0.03397618199350572, -0.018129998264491038, -0.07871653913059506, -0.018431108157989654, -0.021785732062615106, 0.0495584584216604, -0.06349739651489536, 0.01634103930625455, -0.025571079521236908, -0.09770005175883661, -0.10775759821258911, -0.11842579834756818, -0.0443977613617968, 0.10342931224844477, 0.24665653409325947, 0.28656820870995237, 0.1955207622152688, -0.06160304912487612, -0.08897268315283133, 0.0826441165992505, -0.06322165074847734, -0.12677170547902336, -0.12900567262304052, -0.3373336472316934, -0.3679879189647567, -0.26147264606791554, -0.22329154542258078, -0.24851221268332094, -0.040217198631136014, 0.04337353492484845, -0.07129169657789976, -0.049454969482224644, 0.030822532295523432, 0.02078265846981268, 0.05085096971608553, -0.011208623295816596, 0.010548948769094846, -0.1072027197600866, -0.16203462868906388, -0.07956608046640178, -0.022976047928245834, 0.011989710083389296, 0.17176025817837853, 0.16964252351539064, 0.12209617420264114, -0.004917641914674164, -0.018801925091071134, 0.11427199512958375, -0.1388823397303322, 0.1471828177707952, 0.06928036087154786, -0.029093474719016157, -0.22171853896812027, -0.1893064730600903, -0.0917572908699952, -0.16464816363424736, -0.1443427729045097, -0.10940653334789853, 0.022868076157480724, -0.04711987749244416, 0.02422375898684135, 0.01793333252634922, 0.026668958561929964, 0.047321168681372296, 0.045480885314716966, -0.18180759808733837, -0.03440400863425666, -0.0690120242973323, -0.06521544991006113, -0.009838581842947811, 0.14769185927504683, 0.06928869237976909, 0.17204968672975907, -0.05506862703531307, 0.05713907027131816, 0.2584318853859668, 0.15175440602196955, -0.069970455195671, 0.05293024779070984, 0.05671339178091071, 0.06502022339850184, -0.012686798949398908, -0.15967431146087735, -0.13560689106826984, -0.10392679151201568, 0.004465576056959619, -0.02486316229595694, 0.015076611483727288, 0.07945187391916773, -0.050709775447852344, 0.0046368189576523324, 0.03804099530339507, -0.033529987333428324, -0.08551428976224583, -0.12479752642358694, -0.01769604831433024, -0.12132504396590452, -0.019678018487850623, 0.24014146651216017, 0.05553059473674508, 0.0002348628578013633, 0.03289745700683235, 0.09301929764084912, 0.03782148330323519, 0.10487105956424624, -0.054947813201286, 0.08170463484236878, 0.07920986381376753, 0.12306626216803576, -0.05768830498684337, -0.056842981157951986, -0.08091683628451199, -0.10021616963233906, 0.009357083402821879, -0.01248308143752445, -0.05038084558402609, -0.049939859311220254, -0.007995926643439621, -0.03367096003036885, -0.03624528903159246, 0.006805333905370224, -0.13713780823447594, -0.0045368872946225805, 0.031931122181641826, 0.10909149999308977, -0.008800025521538137, 0.1299624511464243, -0.10626987321105862, 0.06257736109344471, 0.005138810173625899, -0.16417749317972125, -0.0054406055698698, -0.032405982856793226, 0.054736554309054726, 0.17675962311107288, -0.05176862009179566, 0.13862020415811685, -0.07713328966570088, -0.0663295245671379, -0.08107361269626799, 0.026718447124643347, -0.029767926979327466, -0.01836242980974544, 0.06268228691254876, 0.025906237998691677, 0.010635271286934275, -0.010171648534406543, -0.015420658052429197, -0.09128444798964229, -0.054489539140248504, -0.001539705682555242, 0.11498294202161001, 0.04344856925028851, -0.14473603916399083, -0.003024398009448893, 0.028465457840900186, 0.11101203158027732, 0.051438015808754706, 0.10806666481134544, -0.049465515438040335, 0.05503422635454408, 0.19397733713466891, -0.003999477816951021, -0.037699802000533134, 0.11169979175271016, -0.09434840971161096, -0.05465832565984826, -0.15464091017273496, -0.04639682139093167, -0.036366551670024845, 0.008193198355405216, -0.08359647809112418, -0.04615017551585389, 0.04964503011220796, -0.0917172415583251, 0.026460665029602533, -0.04174361220915208, 0.043735379931010544, 0.07780026644630754, 0.11480504820827958, 0.06982601348708717, -0.032464665187512426, -0.06101621500035813, -0.19512385367985266, -0.10941851504738594, -0.10752304834397315, 0.09966586929207243, -0.017821834868875355, 0.09194995613236923, 0.1037238124215931, 0.07260160508812549, -0.04611325973913622, 0.21922652439503257, -0.047603946098590706, -0.039898207736246485, -0.006744680391490664, -0.09047703929071385, 0.026538082215358538, 0.0552121322458574, -0.07764509327411588, -0.044956746701124574, -0.055267358319301504, -0.05119811080017433, 0.02754784582995612, 0.012906925788611192, 0.14612779223211053, 0.16611268270913335, 0.13363510462760103, 0.05220623816767091, 0.06323110948107254, -0.1090534052677798, -0.17722951636517756, 0.09546503931747079, -0.05366117017220682, 0.1776249559391377, 0.10596268883025486, 0.14411908186341255, 0.06038268497425668, -0.11594485832086983, 0.03132830256469116, 0.052565164875684044, -0.010398791553878597, -0.12081970633711565, -0.10231975988259552, -0.03664506655562068, -0.09460489729311371, -0.07550187502401752, 0.008404001750232341, 0.07984292458203336, -0.07177578177097134, -0.03995356597913043, 0.019493744659509968, 0.016890235810126424, 0.03140105916837908, 0.07177681710616407, 0.08894091124073507, 0.15581934213580997, 0.05764714730048801, 0.06512356548994727, 0.10209383661495544, 0.20996511859317651, -0.12371143665897086, 0.003934379402290907, -0.09015570629041425, 0.0017598720993399829, -0.0507933861733549, 0.07642445901476379, 0.08788457620898939, 0.08581084366470695, -0.05808166291663953, -0.04334393086609998, -0.07181168864457994, -0.02765605526303846, 0.0695695791962277, -0.04635113983483688, -0.002503863654310539, 0.04835848222652297, -0.08324946884340882, -0.02864115054466179, -0.08666257340804268, 0.023458420899161253, 0.04164473490301649, 0.010735130705654568, -0.22701008350316795, -0.015590143539122633, 0.127873917257859, 0.11100438478703545, -0.1362018834091913, -0.2213290593263851, -0.14038914380633724, -0.1683159132059863, 0.004436657570882813, -0.1031812032491665, -0.02965001409236442, 0.030300390013232644, 0.18890259460053405, -0.11056635702176186, -0.1479856394918023, -0.007758583411676576, 0.014466285193172947, 0.06784717197877255, 0.0748944690521395, -0.038389425777701186, -0.07741499931869132, 0.029741980801198137, 0.03616558625254988, 0.03458058323307749, 0.022815890032969084, 0.0943309689982365, -0.06866208694443827, 0.057668956267290364, -0.16841343578686546, -0.09880663802484212, 0.02676958883849771, 0.07456194007092844, -0.08031489611379476, -0.0023265543101749246, 0.01575825233054191, 0.07557046656730304, 0.0003418168896388285, 0.0035562329354663666, 0.08673071562706955, 0.01909190090573017, -0.06725525410423103, -0.20057208225853523, -0.08179826329144439, 0.0004118968322990766, 0.0213004422046354, 0.054397187781222905, 0.08755703673114627, 0.0484169249593574, -0.04782193116123342, 0.03582818070751251, -0.07247621658234481, -0.043846984099359325, -0.06652942823215208, 0.08612901821347908, -0.07442311661810073, -0.15118691168623474, -0.09877005585168794, -0.07724547241023892, -0.06652264697126598, 0.115152639641283, 0.03699211594539855, 0.040298152990018744, -0.091394390417685, 0.027972275023464634, -0.1479310522520002, 0.09990921294496909, 0.0805266622337263, -0.057598975855445024, -0.18602080944677055, -0.1277495027895014, 0.01911730039412732, -0.060372252529168814, 0.02935819992812573, 0.08388505315715036, 0.014891329628531423, -0.0747796621837811, -0.04813449554162369, 0.010136098878067327, -0.056781228290181125, 0.04169233071044681, 0.0733578299664047, -0.02981300267606519, -0.01616137974877792, 0.12741360803663968, -0.06130187225061708, -0.013156943742418114, -0.018142504728808573, 0.017573502104333366, -0.005718801033762052, -0.06685942096422212, -0.11156780857734444, 0.07435960200541475, 0.10044733433682008, -0.034886364354151336, -0.10282533173243164, -0.16806384317671258, -0.0526053156422509, -0.014487355043648975, 0.025407039776898534, -0.042960334469524145, -0.0036250726270096543, -0.061187786753672695, -0.030811088844965636, 0.07498973482567693, 0.03439668449859991, -0.07979291427600545, -0.05675490638632212, -0.009738348292726934, 0.017041949975002628, 0.043354808219573084, -0.061874866478761864, -0.01144364492384527, 0.09953304347019493, 0.014619018254556485, -0.08005553748026396, -0.1887019773706135, -0.09729161247331927, 0.018709765461570466, 0.2025420675098097, 0.13705136566361215, 0.1391344616323623, 0.028846008035373898, -0.1108501641620717, -0.012332706245211218, -0.003624978096072766, 0.03505839799023686, 0.05066742977506731, 0.008301460321172651, 0.015417705632198079, 0.01742458552828477, 0.055371914981783246, 0.024679722194087674, -0.05223598462811738, 0.0673572903643024, -0.06427887036926698, -0.014311182259175504, 0.03453036033454262, -0.003198249649105652, 0.06420244531738262, -0.0009711901688084581, 0.01362824812148456, -0.0012620297678323886, -0.0908074246646464, 0.0013715062425723656, -0.03432931721075082, 0.028379877741524156, 0.07713400715443627, -0.10325748856118393, 0.022378556543912815, 0.08046101376504702, 0.12721278094893038, 0.11385618457786702, -0.021691298879989208, -0.032075424682787165, 0.061654785825272375, 0.031769121638169785, 0.06457466443529924, -0.03213537309819698, 0.0374611044724166, -0.03522427723609257, -0.049256174141452905, -0.03624159397432005, -0.026898815896757185, 0.022078090340854752, -0.07568114871057569, 0.015357211778652456, 0.07569239142100323, -0.021844729700474172, -0.04483922299185259, 0.05282254347954848, 0.04167976425498739, 0.0120500870570848, 0.004338673893704722, 0.09176387000144506, 0.08629475084644614, -0.014838023799491373, 0.056631342049444526, 0.08704212345427248, 0.010249542174942866, 0.03379137467013141, 0.032232238637881265, -0.04500142729657148, -0.038388756834240874, 0.03971893998321575, 0.017608558057315038, -0.03521189062822888, -0.046788642401517894, 0.013658189100223508, 0.01974198982068635, 0.03481125238253467, 0.044232340733995484, 0.04222264537084846, -0.013530749255407603, 0.03494151429036655, 0.06258422302584116, -0.04625129823629592, -0.04720022389269553, -0.012831590196162054, 0.004995125164071033, -0.015556524302011591, 0.01192399644549346, 0.07039945713589345, 0.04719112213661378, -0.07227830222325565, -0.07660875857670645, 0.019882903201750138, 0.03059678900686769, -0.006380527181667804, 0.01419696499118585, 0.03201723670412581, -0.05380282320242998, -0.023544396169800846, 0.030316605582135475, 0.02483674163157989, 0.07121601845732951, 0.042351545865657717, 0.023721501394871333], [-0.0765777590682091, 0.00926470647809638, 0.030396563594230104, 0.05771386428059188, 0.01182568743309835, -0.034401219946356025, -0.04601181613970022, 0.033186153037113475, 0.008876260671369613, -0.044651545754580725, 0.03593134453235332, 0.03753767028566409, -0.0001940264787331328, 0.06377509035567282, 0.01471230896236355, -0.018004318850679, 0.024607247650464306, 0.06807550760244778, 0.06498179676739345, -0.04813376322519503, -0.004924590098190712, -0.025618512254841953, 0.07126105541422967, -0.0018848316594283984, -0.010739332413021415, -0.02577485988432827, 0.07060515009809563, 0.06005027974929874, 0.010592663970693052, 0.07119032594075324, 0.023826703065509238, -0.012421570557724268, -0.004377860498771331, -0.07665653538680275, -0.045700040082477626, -0.04616309873670542, -0.025118216973870358, 0.05040866369115305, 0.04236587032700824, -0.015994584684251644, -0.029827798620652213, -0.01849064892376866, 0.04480301032617726, -0.02048909007461187, 0.05993125152248251, 0.009759810073063816, -0.019916913497426216, 0.026039725644377218, 0.03773405679102663, 0.016464090816872515, 0.020252957118891673, 0.03512655757410994, -0.01371368729857309, -0.011376894150743985, 0.05878841751166147, -0.07768492413756962, -0.025016408309180567, -0.015364725463567977, -0.04863881350474976, -0.025825316566201108, 0.06385642071240968, -0.050835654438392046, -0.04586728628912426, 0.05293703332125829, 0.010546737317364253, -0.010971654567835517, -0.0029741799241172094, -0.03680962405329662, 0.02547792955961265, -0.006435644830541195, -0.045425817382238366, -0.09790881196990674, 0.012703115150379404, -0.05281622423538573, 0.04642657455974265, -0.050426066847907354, 0.037840630351364354, 0.01346537691639287, 0.013812017976010468, 0.047819745297004994, -0.07348484816865232, -0.028605623063895004, 0.01958107905399333, -0.07563866653486492, 0.04083701034020828, -0.04727097166836107, -0.02462116091716003, -0.025993956950987714, -0.010275639406465174, 0.011137302321763645, 0.06746044508350443, -0.07290753072625225, 0.02296003017907504, 0.0038444005329061125, -0.0206120756144869, -0.08015846852972124, -0.08938169286108702, -0.09888387284932634, -0.03865001488799605, -0.04118157485840365, -0.03911198504764174, -0.08740463082754406, -0.12038268580765056, -0.09098012504752065, 0.038305552373723774, -0.04762276070228942, -0.07432379344755678, -0.04765504889496926, 0.047299183791185896, -0.05086766539559643, -0.05678230599753472, -0.04677758667355201, -0.06916867940780103, -0.04703966897031334, -0.009105968379323578, 0.04754202535450612, -0.07910441999348498, -0.08892333468876758, -0.018225726161933346, -0.07918895282498165, -0.06918454792312476, -0.11008198290181008, -0.0377117870478537, -0.13054884886064477, -0.05230409432598525, -0.041717076176384385, -0.07289142376966323, 0.018243775999933237, -0.0521894303140924, -0.09276068443323329, -0.03761995002859636, 0.01788173812289456, -0.01227159693428486, -0.04159571063097057, -0.018495879734508128, -0.02031162126950504, -0.06429407216227338, -0.010313073036709796, -0.04745714854381243, 0.015779484302714773, -0.05408687625636365, -0.05600473896173496, -0.06551399358132, -0.0168899862671837, 0.02973373050064326, 0.030891253415844085, -0.11064795506128845, -0.1382385061577775, -0.08733840274503092, -0.05982522149741168, -0.08936655741233615, -0.08970947906053187, 0.0278699247888788, -0.0656167790123074, 0.004010617657512932, -0.13211421180474114, -0.18355281847632837, -0.09499383783946799, -0.20830591688256267, -0.23639153380754166, -0.03898587724419339, 0.06369004459924708, 0.07901735655415136, -0.0429371768133574, 0.022126852529944143, -0.05034731950526798, 0.014376263102067705, -0.04462429309010476, 0.012372416513666967, 0.061589412831415155, 0.06382416225275939, -0.0769211361668211, -0.0995017259173246, 0.0557009560703773, 0.03672378215060601, -0.16056307028729994, -0.012704382753738069, -0.12898478626161186, -0.2765762435578093, -0.09665165330237753, -0.01958763405909637, 0.0782672904266282, 0.039324884941674396, -0.20224787112389842, -0.21739049417937897, -0.1358533292550193, -0.016499569018171026, -0.08136196837649766, -0.09365587589700554, 0.06532724556770612, 0.13445472210581694, 0.059052571881366256, 0.019384879039831746, 0.012908047361064021, -0.0035257139858975673, 0.007757002058233678, 0.06663529515663175, 0.02116763476310527, 0.028913495608882556, 0.10092822504797253, 0.06492682916748517, -0.04220109397341816, -0.02370071471221922, 0.05768738936785088, 0.019004443918646034, -0.007831545197322709, -0.049168309012101126, -0.0941661863810398, -0.03264786264532337, -0.010982761021556943, -0.058469286062553034, -0.19306846172442982, -0.05043327813406041, -0.28246153458099943, -0.2082942922726363, -0.2885527801127051, -0.21875245318700573, -0.0710700918404264, 0.1286755267617753, 0.04696739403420328, 0.014326207501121985, -0.035980278773839657, 0.055171746754555745, -0.006557001252850517, 0.07614954494526095, -0.06235942165929562, 0.08784518137515655, 0.024264088741294012, -0.0044842574038104765, -0.014241638776963056, -0.06552456018639988, -0.08507837559814395, 0.055945027104035976, -0.007907772346354648, -0.007813661844133695, 0.047523581225899565, 0.002127364437655512, -0.13404942732933928, -0.02494740711877102, 0.04219283962509701, 0.0006794902391010417, -0.21431516130984962, -0.23159662931580952, -0.11840741189903144, -0.12713364272421554, 0.035732369358349864, 0.030908879353580925, 0.14121911803803477, 0.09996353421027428, 0.07724949571054253, 0.022962276998290072, -0.054698908907548416, 0.022378481652310368, 0.012971796201160396, 0.0011936241609750305, 0.060071175209770754, 0.07775204215581534, -0.04490240494453904, -0.04802082168068658, 0.016152982326670427, 0.017561031585602165, 0.1084638829822203, -0.04749883317953388, 0.03984120308247281, 0.08578620436351736, 0.05489629555728551, 0.16089806867860476, 0.05269686135045474, 0.060606429864834915, 0.11691183219801111, 0.19929926086011435, -0.03714619661344306, 0.009875668426760367, 0.06172071666170999, 0.14988899938149805, 0.11043643369914977, 0.10999002747268163, 0.13216131204921377, 0.014426131805693243, -0.059514510504741804, 0.03151837527238842, 0.0721210185059039, -0.03514513604948825, -0.06517892853631005, -0.0004383687169299479, -0.06147915264881928, -0.06222192823298271, -0.132036160272503, -0.09132928196811611, -0.05313242945881827, 0.020624681964645928, 0.21688686109736627, 0.24139356506144055, 0.17545782424021994, 0.06722280662374873, -0.03239074484333277, -0.050711724230656154, 0.08991829188825148, 0.07760798406483728, 0.19229335204721454, 0.10497633646223466, 0.19760626572631684, 0.1354104113994328, -0.018165214988815643, 0.07861101626085357, 0.12489800717848727, -0.06909001637340813, -0.027165318303203276, -0.046675353182351526, -0.07252897770532776, 0.03023998541996655, 0.10088262525887429, -0.042089834271031044, 0.035530174354756534, -0.016233850256492786, -0.13595973850523682, -0.23349393416346517, 0.010273633815720887, -0.118823786503715, 0.23147979951741493, 0.29540072027951564, 0.11023226469259241, -0.07051882444824516, -0.060784883926525764, 0.0021895778324562466, 0.23950810497827354, 0.2288309496859378, 0.19698439543113516, -0.021121306504527648, -0.05385451835757066, 0.07258985266229835, 0.06668995524251867, 0.04571839006579607, -0.017405436317989836, 0.009440800342048233, 0.026571251124342214, 0.00430393403760779, -0.03526419808187387, 0.07777780578693073, 0.0491055913592492, 0.005223017332954197, 0.07134848911145307, -0.02217810108989454, 0.179306644330775, 0.05880356643732166, 0.07036682727884278, 0.08048239987810582, 0.4300337781501832, 0.3697388229577771, 0.21867529046284834, -0.0847740330657842, 0.004207764026130146, 0.07359209401074515, 0.07339256293762528, 0.07869585457416797, -0.00020864425901195743, -0.015018305495967494, -0.09693182759208702, 0.03147415985140933, 0.014708790463290667, 0.0351529719297524, 0.09784336027872192, 0.029625589276791386, -0.07608458750599106, 0.0007247241460261437, 0.018576472587319502, 0.039501722896400374, 0.002549363149354175, 0.02491754408020182, 0.028768723021636945, 0.16598340591592176, -0.008373047636053347, 0.18821400701568855, 0.1254646900360854, 0.2785125230129804, 0.48225534486794397, 0.17608014330055907, -0.14092745325327866, -0.1971484197684874, -0.07128443119277086, 0.11890144755892997, 0.18701719776871595, 0.026036130700754154, -0.1685522966691033, 0.104711093838168, -0.049040401962271954, 0.04696076365797073, -0.06306630989566443, -0.02702209114057527, 0.030445646222162302, -0.027992492456066883, 0.06758261035781374, -0.03928241293555205, 0.04048033573708804, -0.02106759639623173, -0.08550080854077294, -0.06427116225077517, 0.15325574203143938, 0.25066343617350745, 0.07569444369090385, 0.02293651846885391, 0.2138697561755257, 0.22622776985487467, 0.06002626791254869, -0.23531731698867348, -0.2972799501394627, -0.17930076133993625, -0.15255403170080245, -0.03173172570794893, 0.1981588387455895, 0.025943715532194, -0.029226553265493255, -0.09794790198549834, -0.11498012407108708, -0.11923337471976111, 0.039195900382554986, 0.10343237526276192, 0.03173648934208963, -0.06484132753140034, -0.03719299948696963, 0.03752511809862385, -0.020582471898028348, 0.046894168407708624, 0.0618213297601435, 0.03819593683151968, -0.04507005313719835, 0.05238635990805797, 0.09946084601885767, -0.03874451451379206, 0.08383036349613138, 0.045202960342550065, -0.16616506046546953, -0.2920665217204159, -0.4082754611487892, -0.17201597224779044, -0.14497342381386044, -0.09702418076244666, 0.06189935748655681, 0.00870634696797179, -0.0335434331159122, -0.07361382507809096, -0.02915192047453318, -0.04556205011713629, 0.04605181694706663, 0.0879763068875145, 0.0025234998244873493, -0.06986604612756488, 0.03043318148601389, -0.02672923129078411, -0.0265300106931378, -0.06304373753882372, 0.07904534625522582, 0.00040987754013066963, 0.02194311838667431, -0.11052171561948179, 0.042049756455193224, -0.023836652436038667, -0.16798332771534444, -0.018660806565904877, -0.24308144128303374, -0.32823267128449846, -0.30528451437755266, -0.08162470119404407, -0.027515899226657276, -0.049778556328295594, 0.029275403012149377, 0.17496687884757267, 0.0591618404017011, 0.04207046734174765, 0.14405670884689198, -0.05588484233012607, 0.061467838047155915, -0.02794379530097345, -0.016134386953015202, -0.06498756640755597, -0.017526562108387548, -0.04491538070978573, -0.01636661947335262, -0.04507823009657181, 0.00887822953005277, -0.003769524626471387, 0.016921150488058284, 0.07960037140925895, -0.07334319740766732, -0.16656664603704904, -0.23009402677937776, -0.0986031368427378, -0.20206077628020255, -0.21203587863714018, -0.07683213191835321, -0.06424929188352678, 0.09003506615613265, 0.029380517316442416, 0.0532509037098505, 0.18478334407467523, 0.08981102772258652, 0.093957725976775, -0.011784093882823156, 0.0485740673389646, 0.08706255600893506, -0.06008989573526548, -0.01231580309791434, -0.07928240906048363, 0.02422779800550517, -0.007708647276670373, -0.04591364951617889, -0.055199532558443294, -0.09416488844277776, -0.030132283033092393, -0.06096023024417471, 0.022024123489457124, -0.036651122407458325, -0.04541277387281445, -0.12692784143907643, -0.17196088114696093, -0.04916853410694719, -0.09273532692825476, 0.000519344344053952, -0.048773340196514914, 0.1425099386630264, 0.020563250277634768, 0.0793014746355332, 0.0729559454660824, 0.04713825734200808, 0.021424407583139213, -0.009299184953105397, 0.0007957920505103058, 0.00465674322390863, -0.07245160903854683, -0.07055886169211621, -0.05860158877063251, -0.04624065897214106, -0.042190780344815895, -0.03202892148560782, -0.052444258882070424, 0.016946992565557376, -0.013997160383643847, 0.0959466656543661, 0.07818609013547752, -0.009893110678643024, -0.005458799200018001, -0.21273160004065306, -0.344976480414326, -0.2659790931418301, -0.034668862834693524, 0.06207266750872609, -0.04203564121294271, -0.06745453929802842, -0.037278697346907586, 0.0012269656418580092, 0.09929137284941451, 0.06453929363891499, -0.009377483066195708, -0.13747521840975518, -0.1355891025447533, -0.12853629010508275, -0.01145256616499746, -0.0696380812427759, 0.03452715571170791, 0.06500000251402907, -0.016605802378654454, -0.05925662466582977, -0.0850568739912882, 0.028585294936982142, 0.003099907505863061, 0.06163634745626514, 0.0875544726733419, 0.03942250479975142, -0.07202547977914077, -0.16403410703583862, -0.11923437925845588, 0.052632797945112594, -0.04477451339656518, -0.14257519201836755, -0.06281365538232891, -0.22596077124199362, -0.08195960774569848, -0.08828608547913523, 0.03233822697308748, -0.026716288686971654, -0.11926303336573302, -0.1524752911541536, -0.10590218506329228, -0.041039861295140125, -0.020335579462061167, 0.06544797085041615, -0.07901640939794284, -0.06500610130607058, 0.03421077405604247, -0.009948140522289779, -0.0789851812700304, -0.029391313321840307, -0.0520934083955327, 0.02654989976169246, 0.058826532206215705, 0.0018868182824030423, 0.014902748162942963, -0.09526483272033828, -0.013626611412118607, 0.026510289728178715, -0.11792014549464573, -0.01912203304110758, -0.1988468879708099, -0.2894236502933689, -0.1029788741430976, -0.08405835526407467, 0.07497450194868016, -0.04233092494153606, -0.023930904099366036, -0.042975603214565956, -0.1070970877895318, 0.0020374815477642427, -0.039163327782036794, -0.03991548907702836, 0.011683474652386864, -0.018398359370536556, -0.05149897624874064, 0.07542438332650417, -0.016495302008345914, 0.03325759057787484, -0.06810181968994702, -0.04642840355233021, 0.02642352575835044, -0.05619161093114858, 0.13102067868754522, 0.176327157894462, 0.08863830811058084, 0.0002896289025176385, -0.16957428611216996, 0.002822369148579658, -0.1774250314821444, 0.001351467052257357, -0.14631340762602066, 0.05175607697444826, 0.07816410334422264, 0.1376083434587059, -0.013714107848003948, -0.05931206038715384, -0.09722545191657998, -0.013940306495486972, 0.022842759654107012, -0.04310612601615624, 0.0707823467651523, 0.01144750239621398, 0.05448226364101903, -0.013325663755082415, 0.043623951332448056, 0.029792459653571125, -0.0678050296513528, 0.014945311438359686, -0.06592065707338522, -0.056487880277626176, 0.05132820721472397, 0.24230879243474104, 0.22568438665293303, -0.11792570232077805, -0.09488553304713106, 0.03612314631391967, 0.01864454994770577, -0.02857752777708419, -0.05344897438558246, 0.0649124303040148, -0.03137825020509232, 0.14308991029275744, 0.004988103847206886, -0.06448895191335677, -0.06624542132345836, -0.006337067192588459, -0.016477578074328113, -0.004241145818970935, -0.009170071522065903, -0.0601404911639193, -0.041726211581080815, -0.03640751812835238, 0.06442228058333588, -0.021674168836921467, -0.02681401113860732, 0.01500973922390262, 0.014093674584035923, 0.025834386697741497, 0.02936321820805927, 0.08506121297566205, 0.1374933219847406, -0.12230914675553704, -0.14142511498146496, 0.12224368122326983, 