{"wji": [[0.03475301605626083, 0.08004215716380539, -0.007392819246993023, 0.06825399784065014, 0.0008499686680922261, 0.03869042007018088, -0.031935990833304034, 0.02471215548791763, 0.06513465328828569, -0.0890486753452137, -0.04390085995380392, 0.04457154108548613, -0.02452969286017565, -0.07738742829262665, -0.0884891145147607, -0.07558076094290264, -0.08247419986979747, -0.06783555650678948, -0.013298596998909472, -0.0013793574444603508, 0.09918181052485368, 0.0023267691354588926, 0.123080288314839, -0.014644952369980403, 0.05693130787758543, 0.08426071649224147, -0.011676027884683117, 0.007669572813969331, 0.010643452837669955, -0.00642688685007914, 0.05796562811568631, -0.029699635988385945, -0.019894897469837157, 0.036086087491912625, 0.09632011235934443, 0.04970340540600323, -0.05749816126888431, -0.08383628059204469, -0.15069763506338024, -0.01785368112726782, -0.07527904035839825, -0.0844814596776358, -0.10443351318808551, -0.06215788444190176, -0.013828382720746876, -0.07582080303644895, 0.00612232823332577, 0.027010986637383938, 0.04001135927189916, 0.09326638075272908, 0.019928537374669077, 0.015074720334734329, 0.05450257802107453, -0.005910471276222084, 0.07955965265580192, -0.06107327625811569, 0.010051299108270462, 0.0639600654210825, -0.03996632710462666, 0.015633504693531395, -0.0002743946672977183, 0.05798366281306073, 0.023302493999014077, -0.05089697208685003, -0.13243160606497828, -0.061958113540844795, -0.21935605918006024, -0.09384630888672316, -0.07283128966989662, -0.047269377598641346, -0.10856085913275772, 0.018685680646224483, -0.10961421324603786, -0.007633856143661237, 0.005665994167602512, -0.030185247965683268, -0.06393939679129086, -0.03976484076832512, 0.0831847579146606, 0.06261328806152665, 0.011896168414659588, 0.04369799762530023, 0.030987199726494465, 0.017600644439648445, -0.0848678801837993, 0.012940234178373883, -0.003203105664488785, -0.0001960036182976828, 0.061678615446429844, 0.06499189510673976, -0.05819421190271066, -0.03481826176114337, -0.03645586561617001, -0.16359236426948404, -0.2812549188566152, -0.20319532617742334, -0.01206681939074054, -0.010303807215410674, 0.008903917312128792, -0.030068528831768263, -8.675023562339889e-05, 0.03084519626859536, -0.053165847749361284, -0.02939448069587396, -0.06567328923808273, -0.030343811025409655, 0.06952876270235533, 0.028337657174123617, 0.07449382019558569, 0.05607769274753677, -0.04516333940322836, 0.025300616276121735, -0.01450503201902148, 0.036643018491639416, 0.07637974551637124, -0.015754596416148337, 0.04179310066142507, 0.0750492371492973, -0.06517260443141284, -0.04757510103559458, -0.06848748579926915, -0.28257115118163056, -0.21278019427266642, -0.21778602989644316, -0.04143673431153099, 0.037807999895490274, 0.11640781472152917, 0.04719292480036163, 0.04637955165974516, 0.053767026440050325, 0.007490665208858538, -0.05496098024059511, 0.004051469686554486, 0.017011265446871048, -0.02529849833917348, 0.05463540188389111, 0.014701168302690037, -0.05005770568194317, 0.014422122132198961, 0.004757833769766458, -0.0557203062089445, -0.03561044131019735, -0.049865531767863416, 0.05246906500254799, 0.04109892985417697, 0.06436842920127478, 0.021241930724760837, -0.02168341567693336, -0.20336184140934224, -0.20567099904038522, -0.36331820903185247, -0.15977016740413919, 0.08707904802439104, 0.11144957087786475, 0.044250027056697755, -0.021159586166130746, 0.09446560825601193, 0.057826520853370374, -0.033669908975826196, -0.07199689544266108, -0.0683544304856741, -0.05659175664079563, 0.017151944658235455, 0.09962144680161236, -0.04203622042417028, 0.06278070817818959, -0.0696221096463639, -0.054493057369501774, -0.03492191525032862, 0.023802544902578025, 0.04108763623383732, -0.012989634940560608, 0.020523830655746405, 0.07245207206033338, 0.07041403877255928, -0.031018733080566192, -0.224683259077353, -0.21715578315306117, -0.2209145523317468, -0.09618780408720917, 0.04997659240077171, 0.2032370466036992, -0.007023831109901612, -0.03492852669712713, -0.023339742695019594, 0.05489284571282292, -0.0174205335588356, -0.08414918204664894, -0.05400968943658633, 0.07550526790027155, -0.02128504104647994, 0.042347953031700775, -0.058683377659323646, -0.019401642130620747, -0.04820983378501338, 0.051471860892055146, 0.05378159413389545, 0.048675243816741175, 0.06892902804684584, 0.0657356163374139, 0.0959069298835789, -0.03074042454372309, 0.05206953458434624, -0.12939758865998152, -0.25840868606478, -0.20082540503012766, -0.1815308337887816, -0.05016823428787555, 0.18030259461335893, 0.19717546410145498, 0.014112403319194283, 0.13179340910037496, -0.01929569530169006, 0.08524840363185089, -0.053592301092461034, -0.03789037566769191, -0.08377451527745619, -0.06320868918902571, 0.07850322016233134, 0.007500478589266302, 0.01088965741981296, 0.04882656969322621, 0.013396573474067046, -0.017783632492996235, 0.09326743518081036, 0.04888517156724379, 0.035553701526016994, 0.055954013025013634, 0.044634003780933934, 0.009371968674631624, -0.04772529776371841, -0.06027676953960152, -0.11802093444665232, -0.20717797550323125, -0.19147585783011864, -0.03293148353068745, 0.04240947815684654, 0.19707575884061476, 0.06708494955577958, 0.06243245818732047, 0.033036134285810495, 0.02400412186345447, -0.03466441377730293, -0.16517837217856285, -0.07783194268913181, -0.012918651857138953, 0.05596458297079452, -0.011907117236504058, 0.053777740666142305, -0.011307510722461457, 0.0473528212259297, 0.06619731084874347, 0.06189159717247322, 0.039349573353053405, 0.09902994976818853, 0.09867719106829873, -0.0016240561024200852, 0.03374586020747121, 0.017989785593681442, -0.00990091295543722, -0.10730855783630724, -0.14315555744340305, -0.09079907985396585, -0.05090732790316089, 0.20416822291003603, 0.15966227832875388, 0.0884909617891121, 0.06615439204757206, 0.028406969108246916, -0.05514232097981813, -0.15393028168320558, -0.14473334847854494, -0.14715141193057937, -0.08038768136163152, -0.05807799194526623, -0.0515771736600426, -0.06395421872676783, 0.04041591518643866, 0.09109449841850738, -0.0270128065199085, -0.0018470240374037494, -0.037712706177924514, -0.03241862621363256, -0.01705692480555279, 0.007703731321806157, 0.008655818244605961, -0.07649171438900255, -0.10522812967667737, -0.07557262516555834, -0.15083812059241855, -0.047154350929735085, 0.0813081404733997, 0.12562976077945634, 0.12678126487408362, 0.18483417002321678, 0.11790852655829515, 0.06947450911418436, -0.013798718032624103, -0.1739929507576872, -0.19601005755845766, -0.21644356187129404, -0.03960209299118788, -0.12096604711015028, -0.015881313602759017, -0.009904217086197991, -0.0572974528936565, 0.0236174426346615, -0.023520525705410134, 0.04207373443392029, 0.03579053888423671, -0.06261316875974851, -0.04980328078341959, -0.036915931318143226, -0.02488533648636614, 0.06057018809740669, -0.10968560249195654, -0.062226567772138974, -0.060549144058934, -0.04492938551965187, -0.028025573893473838, 0.1231284620963682, 0.08104140405762697, 0.09441266375170175, 0.09853688236683884, -0.013882848517384224, 0.025642040601339924, -0.07372491729140845, -0.20064765929980025, -0.1233984517502595, -0.08621179752186174, -0.0012142358696746178, 0.04802407864353764, 0.0537959129361139, -0.001860875605573315, 0.07820204727044233, -0.042716301170669845, 0.0328632049900103, 0.0031751672290482175, 0.03553363523196521, -0.02645434272208463, -0.04195659864118946, -0.026669060715603043, 0.027773444736573255, -0.018314807542477503, -0.12370842732480339, -0.03866596477066835, -0.13458721028340312, 0.004025995023055276, 0.05692078073124482, 0.08106142288443997, -0.025907302957444717, -0.07460726447428172, -0.036444370931685205, -0.11442970975363116, -0.2003124143513558, -0.15949640181045985, -0.10309835138974316, -0.1448599495097388, -0.049593733040523044, -0.08570209093475113, 0.009482527426789348, 0.06259435711869235, -0.05854920550320789, -0.00856238654226517, 0.05986377550673561, -0.05185819114770056, -0.04623779438906358, 0.028495256165967462, 0.07789354404818771, 0.007692532535592507, 0.006290882714798352, -0.05477367164003948, -0.10574113686541473, -0.15594319526870706, -0.11466890704518813, -0.13108394777624902, 0.003609928912972001, -0.044414832597012316, -0.11699079316657941, -0.08473156224740755, -0.08220799829189046, -0.1393336572500953, -0.16547413112709838, -0.25507654879988895, -0.13192322343193658, -0.13153102812997614, -0.04329376237277079, 0.011101555920186459, 0.040129089703136854, 0.02512731703443834, 0.07492263142254632, 0.02215755168806395, 0.0012212055994342615, 0.02608193784323381, 0.046511674510614075, 0.023011282677363257, 0.002730452760524188, 0.04330747957535194, 0.05862776021189551, 0.010834461886618596, 0.011867790159724174, -0.04712524287936576, -0.15913723908274185, -0.11638148459668339, -0.041934995787260836, -0.05716318169572157, -0.1458646180381302, -0.18547366004207017, -0.11284717642547447, -0.13681991997477258, -0.21653824735978036, -0.09687237406013556, -0.11268979007583299, -0.08469095285406954, -0.1269717715800502, -0.03510581113068526, 0.020042565074316544, 0.0021125417418797806, 0.0161073800699456, -0.03514766247109549, 0.06431205684543054, 0.01489761406492296, 0.02789804574740901, 0.0008527949956323185, 0.10163484131146328, 0.13797312206232581, 0.05863941043173339, 0.05014207225186527, 0.08719095899864102, 0.008905678505986838, -0.07079161998927556, -0.07027715982323753, -0.0015304097479704132, -0.10124886889150346, -0.0824735280380495, -0.19382686821745818, -0.07528042593073249, -0.1399819425113721, -0.06687644939598071, -0.1122825612422882, -0.1495438322953876, -0.11050786407128327, 0.017535522540279947, 0.028029377709683223, -0.011842731063090275, 0.030719362152494194, 0.041566197804442456, 0.09701672521896351, 0.010855624411624775, 0.03238093609038314, -0.05635995508494535, 0.01499399443736031, -0.013528919396737497, -0.019181194959805782, 0.07032942076439311, 0.05725509820294339, 0.1133420161842155, 0.11599749292182095, 0.09290749543396255, 0.056058105440194184, 0.021670261221823615, 0.037701837415838456, -0.00843171346839059, -0.0997901833579457, 0.0026182348445737027, -0.06262554531321954, -0.03371635067499972, -0.10909675602476089, -0.14106200286619217, -0.05443490003039981, -0.1390621352291509, -0.018749473638889545, -0.01784865872175705, 0.032640274213761276, -0.059742667667129816, 0.09296296255755669, 0.04751733348678143, -0.049422741587219134, -0.07107059063484546, 0.033942311491952315, 0.05557931680679084, 0.09454030231780298, 0.14569042047863826, 0.08618635106305964, 0.14685506966078743, -0.017365924743074856, 0.012054232804123322, -0.015950563080847885, 0.11881492779585685, 0.030896393590500466, 0.06740113705013416, 0.005011605131418615, -0.023012800807241787, 0.03326435688170804, -0.07214852252625316, 0.043035844112100353, -0.055157129724515454, -0.09621814099587901, -0.12041987565994706, -0.012656932672272428, 0.017153567677289726, -0.060847882984096525, -0.060769120499679675, -0.04508080035211658, 0.026347930969026812, 0.04076045561360593, -0.09119711288009114, 0.007069638261576071, -0.00942967039007934, 0.07025702163796918, 0.08871041228919807, 0.03129394250753957, -0.0746378128374588, 0.02929563633457247, 0.038965529726973896, -0.017214461945340587, 0.06478018793279693, -0.01043439665398608, 0.11333836089452284, -0.010952876243578703, 0.11125095190396232, 0.09290312807834654, -0.0010512050290214252, -0.004948576080666192, -0.06792340123682822, -0.05718648317628984, -0.11201037974502039, -0.05321128604073571, -0.06053758017397632, 0.04220685569113326, 0.03996837082717862, 0.011120969472952814, 0.01878742149624013, -0.028317967874914512, -0.0833425947860676, -0.08147268982251775, 0.012999724911303615, 0.07518680067358421, -0.0025408927831396667, -0.02054815985095853, 0.04757355901709287, 0.030186813641311597, -0.03591477426704112, -0.08248266061144456, 0.059448313215784, 0.04094559753507203, 0.08075979281365588, 0.09207070786081167, 0.10156383508822968, 0.051433290499110766, 0.030729967585195632, 0.11263803317952652, 0.10303917587834226, -0.021278593667506705, -0.10807688815333827, -0.004320020573297637, -0.06662866730768909, 0.009046156274483921, -0.02856372627788662, 0.047593409734060656, -0.10593680678993266, -0.07013019048972402, -0.0209711311888187, 0.02876608964665613, -0.08010292201923334, -0.01150449393171732, -0.0401786143619523, -0.031229373607834707, -0.06468127953307647, -0.004103485660569001, -0.06020263266257828, 0.0023171581019745804, -0.00064005257832939, 0.046711644087224134, 0.08434309847842408, 0.06849754541325499, 0.08627242612918126, 0.09489335468761198, 0.11885973359914878, 0.09236479189125768, 0.020526597557222134, 0.06694598791244835, -0.0807478944883663, -0.05502047108974675, 0.0355656373886266, 0.035525177713388784, -0.049940039288818155, -0.0009395710819333487, -0.023390367173773585, -0.0004453222573080776, -0.05513237451425545, -0.043425972884262316, 0.032689551730632795, -0.040124486454554756, 0.010082474500815753, -0.07824409700667277, 0.004110800151820446, -0.0674693097595241, -0.0700600834337745, -0.030619540286999244, -0.021678263007885248, -0.0015634033631510844, 0.09679521485055659, 0.15596800564948887, 0.07180460171454164, 0.15240630914691689, 0.06907571232837681, 0.04801964195553759, 0.01909634563950715, -0.0029163723531904556, 0.027116970319600357, 0.03293720123391302, 0.00782756527636527, -0.08669060722596107, 0.06084770794556278, 0.0060373253174811495, 0.00372978018199436, -0.06260837440623929, -0.021089478096817514, 0.010723063994103194, 0.028715318154465447, 0.02229645050912246, -0.023025138299491304, -0.021688732225555448, -0.10555705902473778, -0.1422323429696944, -0.08441823844360977, -0.12534253565647466, -0.08885789858447096, -0.015709705147895048, -0.07492522327694418, -0.0018014971869401747, 0.013474889357252592, 0.08731805028352284, 0.08036354534605103, 0.12226454527199594, -0.006870673726849966, -0.018032200742379656, 0.0031717444252294773, -0.04786681587874704, 0.06587507269997116, -0.0206586167654966, 0.0029969828055112814, 0.042955177223178265, -0.040012202306568385, 0.07001187310021681, -0.046675380167138764, -0.0677601916801287, 0.06122900820989622, -0.039253871762543587, -0.10388897368130426, -0.052336975899096964, -0.16850207519937874, -0.11752994112448627, -0.09262973297195479, -0.07127493516183032, -0.05191717608808458, -0.10273244909209205, -0.012964310932972348, 0.08789879700084877, -0.011723660901957008, 0.1225217900345316, 0.026558126921761446, 0.12283168720055597, 0.10009418924430726, 0.019182811533649473, 0.014314484312288591, 0.04858580681377962, -0.03548776185418498, 0.004341342882968107, 0.0814797343247642, 0.02822600800662251, 0.07146289202612631, 0.04130617152891335, -0.0008115081928036187, -0.03009941299122358, 0.045026983416086526, 0.037107910830347236, 0.0310063596859681, -0.10299494014952446, -0.10148266819175453, -0.02209953141127896, -0.11786639487810587, -0.07955771984491089, -0.05531696095886039, -0.02866197302937513, -0.07850925279348389, -0.0030256902233686406, 0.03559359353545863, 0.11470673543778268, 0.03992557152273868, 0.10586276101447008, -0.007206605470737554, 0.05022983521587611, -0.012943670189458755, -0.02789601990881706, 0.09207950168972229, 0.0013346108927549713, -0.03571003308352562, 0.06504449473396016, -0.0731573362586167, 0.05383700489601878, -0.014878530922505063, 0.02423335669481325, 0.05810734548346326, 0.057934265926605236, -0.01662204667274333, -0.00925560757877677, -0.11178796148981589, -0.05754653395046425, -0.10585596837465172, 0.0018939347507300273, -0.062325517270074036, -0.03372877709715046, -0.04498406495675223, -0.042958055637988525, 0.013173856046504421, 0.055841205418913506, -0.028684992835264832, 0.030292246181733925, -0.023040450388766905, 0.03441344268406393, 0.018798977835861905, 0.0095463011421442, 0.05963860864113418, 0.055790736894529375, 0.00027873726935215607, 0.04939715512427017, 0.02458244044953369, 0.03010233888830778, -0.021399264713652725, 0.057414718011240505, 0.09673247138503199, 0.08826586030908679, -0.032262339048589536, 0.026442409849585274, 0.002446549265178182, -0.14977452443621886, -0.11427223080558606, -0.08569438901966092, -0.07927957037002714, -0.03924930775818305, -0.08760794848516826, -0.14419495591701373, -0.03463699502659119, -0.10807567619467268, -0.12165864013017466, 0.015990392554436128, -0.00022855231667510902, 0.0482947438496294, -0.011184644880250793, 0.12536854303269523, 0.0603737467636739, 0.05812298496130127, -0.05307790792794691, -0.003303457012770887, 0.03175543193788734, 0.032065935509631764, 0.022204840278946213, 0.12440703167160183, 0.05628023436206021, 0.10883095076955256, 0.051636235671924456, 0.009266036770145453, -0.07141440986509454, -0.03675557127978855, -0.08285477804394899, 0.008629914489598512, -0.04427938688519854, -0.09411753531229368, -0.12662196847335408, -0.135997486950647, -0.1448211555415173, -0.07280115137133748, -0.12287782772545919, -0.12897723167847105, 0.02891336904493778, 0.07335889413200933, -0.009340405304878792, 0.11462747316422112, 0.14877696253619524, 0.035797601887898975, 0.006457585720001398, 0.05754626725189158], [0.05031966546766626, 0.03049049727271579, -0.03764877129312033, 0.02136342933684424, 0.10099497851648273, 0.0029979366368424096, -0.044055679656566066, 0.02201459017796912, 0.05734528508383011, 0.019751802011734394, 0.03782171413291627, -0.031614879521322366, -0.06016239600277935, -0.06827118330661529, 0.07141897922773927, -0.0291751927612571, -0.06427872724100737, 0.0382854052680496, 0.026188248740340883, 0.012214031303150484, -0.07823580951403794, -0.012564279526240134, 0.05350376064421541, 0.03068465618834714, 0.0770325099500247, 0.0466421432514547, -0.050336378013316294, 0.011541350753017179, -0.0036892958499874697, -0.018786565329217634, 0.09502764941751206, -0.039639563518013336, -0.0036515702195683095, 0.013147911239024007, 0.01716297121735377, -0.05519488401880295, -0.05003552607007193, -0.00760221643782393, -0.0703524114010691, 0.037672156838058024, -0.027771409945464134, 0.03264433294405922, -0.04356656409338071, -0.08516178048261962, -0.07304204487643937, -0.021301166874514565, 0.011726637654872986, 0.014590508883660877, 0.041990441557200164, 0.03428443749786715, 0.030868644116158243, 0.0280310340833369, 0.005553441150848529, 0.024227254930538667, 0.03662873135179233, -0.014243575773470789, 0.08689178456686703, 0.012594454390654077, -0.012337683885699663, -0.011090334593554296, 0.02289153071667057, 0.0009173437850776282, 0.0025898784279389893, 0.01944972967326772, -0.007472947133634803, -0.03494920560790433, -0.044795380606451954, -0.004219145100139123, 0.014986398764894264, -0.0828417640109952, -0.07357241047229354, -0.005388507570832666, -0.07700731253582085, -0.041475538822448185, -0.04812684034883303, -0.039804903329821575, -0.036305478993079815, -0.016693938118444433, -0.04415808899308613, -0.007069729047906176, -0.006663635661700758, 0.013684088615989297, -0.023082861860721986, 0.012601532040972538, -0.011389694291645712, 0.05324711216518814, 0.06969457025780579, -0.048671790699943186, 0.007417161414114753, 0.02250252229894978, -0.007289810816147492, 0.02779451092508944, 0.0569141854186476, -0.0023932942280812906, 0.028259718817370404, -0.037030164056001895, 0.03194570150061752, -0.11134864507446528, -0.036498646482097746, -0.08137874597885111, -0.043767525482579374, -0.012502125758680068, 0.05872371844016635, 0.043598571115578535, -0.01701132808265173, 0.09176760822511988, 0.0540109860232359, -0.05220597733202459, -0.004555772584572588, 0.010775490966085736, -0.045005827417180296, -0.06286227981632085, 0.0012057859495268088, -0.05697386875896326, -0.08593071027373055, -0.00011664997155961768, -0.00854208711777186, -0.005022855525987429, 0.02077774188766186, 0.08789415470085006, 0.10970614652100687, 0.08564463238468192, 0.10068020712209458, 0.11240486194648426, 0.09332821672661998, 0.11994329720329197, 0.07511463579387725, 0.11220442801408269, 0.03416848382649876, 0.10582046387374953, 0.15068026743096377, 0.17355428037713758, 0.07696014991997299, 0.053201322542892185, 0.06946861335264415, -0.026096055797567536, -0.08936969759979409, -0.006185394450959191, -0.027801658393158044, -0.057389490257101314, -0.0014177693399700397, -0.06878858345392003, -0.06988702143235426, -0.11048380723201788, -0.09395104652451552, 0.007826897631649142, -0.020394846958328952, 0.06662002956201513, -0.0001834847968497264, 0.15538435274839968, 0.1766477651808612, 0.1602881258601224, 0.1486473560602845, 0.19922164552191757, 0.2940996533527273, 0.2914291989886023, 0.23967506396666274, 0.3008170705158558, 0.2932105139870664, 0.14853948715466267, 0.060752496135020206, 0.09794434459901398, -0.08306358774536164, -0.06392051186393166, -0.08355928315937487, -0.07734862674799338, -0.05363369406944014, -0.0976440561538548, -0.044247695633779865, 0.010267605641143356, 0.03018854007970023, -0.05822318216345753, 0.022126126083005956, -0.06677657053904024, 0.054367947743961885, -0.006245104181216837, -0.025945410090588095, -0.07909473109916333, -0.09463031680172693, -0.004885176344126361, 0.008985417650182419, 0.03259916145022003, -0.015936311664153237, 0.02972561087947737, 0.13026023928865027, 0.06819325002092265, 0.10158284489404677, 0.024179040182630587, -0.00766704358127329, 0.01907756254018848, -0.07139143765597533, -0.03438926629155976, -0.09510734975653688, -0.06562666565989882, 0.06960793925825447, 0.04848935718623931, -0.057420155252650984, -0.03204765459721384, 0.01994184474653272, -0.013686854109345125, 0.06355763607755882, -0.059421651885941305, -0.03167001546661632, -0.11238244116676388, -0.16856229506458675, -0.13862822418326104, -0.19181697282987967, -0.2014640496766658, -0.21714643149788093, -0.3118182736117963, -0.28347104485077296, -0.329622578882997, -0.2799533445756537, -0.32003783270214164, -0.35291420516004113, -0.31544245552203687, -0.2719154025613559, -0.17036270469232956, -0.22810053191944943, -0.034651364253275176, -0.0594272541255255, 0.03658251005554287, -0.007549529644613134, -0.024368927080482515, -0.06621795001899926, 0.06254993411428335, -0.00838560267499531, 0.030898094315529888, 0.06480962840957753, 0.07556914166846035, -0.00233069421776573, -0.021208374640744442, 0.0007442875173652461, -0.04058101985997728, -0.058035852604317394, -0.12994334091674228, -0.16685719456684214, -0.2072928142322502, -0.21419273026229566, -0.31250976416589366, -0.3389013356624728, -0.45858097474612675, -0.4187238614401365, -0.3759641947117045, -0.3591101077543967, -0.2414432199377619, -0.17557637378101537, -0.08846915531035725, 0.006649748131177051, -0.08055422045511473, 0.0963753158643913, 0.009378084194952539, -0.0493487688852466, 0.02583827411839382, -0.029458017051820978, 0.06086501832541035, 0.00553690687726125, 0.09106504962438072, 0.08794729964541631, 0.0004192501870943731, 0.04737093771186032, 0.12915970952552117, 0.1222998360473588, 0.041319881129371766, 0.08943113813535139, 0.0027923553089451076, 0.06947710248810936, 0.006143608084241345, -0.015233486861578667, -0.053281717925908446, -0.11706237385262484, -0.16983480908531345, -0.16487548417739625, -0.233329770952585, -0.14295813361346427, -0.017429320507435623, 0.02400556080306642, -0.02786507383327465, 0.06557245941554021, 0.06852795847609104, 0.05231081360440371, 0.05954387419869293, -0.07940260308647291, -0.06708593155909143, -0.045539065804282304, 0.0048735840946348636, 0.07771771865919952, 0.13055873474220944, 0.04868039862274316, 0.09541253614288489, 0.1362161178093098, 0.11276831622936151, 0.08553657975036782, 0.11128659783408301, 0.173730576596009, 0.08870514809342386, 0.08380647780525632, 0.03921317245263442, 0.05918435582179901, 0.04349974851466195, 0.04347815658380881, 0.010464539318707349, 0.0025771296258421776, -0.06480571156670252, -0.004120241428944073, -0.03415367774906176, 0.046666236570811974, 0.009115793051814565, -0.09736134768200487, -0.05234415744095468, -0.012939673002477324, 0.00015050575295153396, -0.09487392965243878, 0.03997472448012278, -0.054818603588442205, 0.03340378681882919, 0.003125676074216552, 0.01337108863924376, 0.020124593878410466, 0.02338077085539098, 0.06688509794456195, 0.07140285984460087, 0.14828139616372352, 0.06439129551145642, 0.09464830848719155, 0.17347596916212515, 0.20110040139693555, 0.15847136959261232, 0.10851151157124507, 0.107383948216626, -0.023331809228063882, -0.013834795217743117, -0.015332082187474508, -0.014877486873736785, -0.09149959543262312, -0.10582854856613343, 0.005424875715621703, -0.03168146488656325, -0.0083374775747331, 0.020187657789387116, -0.0464559362486538, 0.04785112898737997, -0.05747259204051453, 0.029938537692817336, 0.02594101746457295, 0.015900836635689745, 0.024543336526330367, 0.08652568526430314, 0.05116099867815746, 0.055811068729409254, 0.11192147995844065, 0.08907774389188189, 0.19152091521697961, 0.22338302739401134, 0.18881861872835443, 0.12448160015814745, 0.16809192061141223, 0.07684559433400359, -0.010143842398488903, 0.02882559297698997, -0.019521483408198002, -0.06930553923315262, -0.024679863280489656, -0.03653055917920719, 0.04827603448177331, 0.07088784319478969, 0.02708487922355965, 0.023452295288785726, 0.024999339525318815, 0.04620838156226753, -0.019561034724359, -0.06160910653615155, -0.02509453303721289, -0.13451125380747295, -0.12762118672722267, -0.12225550018332486, -0.1852630789127108, -0.17978941388018638, -0.12576062651417924, -0.16787320376689066, -0.14172407734484566, -0.032075772528878034, -0.10961634261147266, -0.05908867339303043, -0.0037838746351833833, -0.0673138182158028, -0.022261190529016785, 0.062920087365751, 0.002301854528776151, -0.049052533895907295, 0.05438754581543338, 0.046504693897736045, 0.03590020408260608, 0.06124700606593565, 0.07345418696513883, 0.04171892718407883, 0.08990085776720538, -0.043483548242296256, -0.015203436805827666, -0.03673082049271671, 0.0006818833352588927, -0.1619786839435533, -0.1830872007339189, -0.1964632594265747, -0.23842293047144414, -0.2645547084855432, -0.4247367232044596, -0.37061046270910164, -0.38462915899346223, -0.39861199163408373, -0.2673225497959209, -0.2769371205095845, -0.2078953935988463, -0.08171483318990294, 0.0022047176156388677, 0.07399364108543899, -0.030879554234469458, 0.08618838626105824, 0.008439719655857722, 0.07072785158442592, 0.06448003351543062, 0.07472634318018727, -0.0004348768893803175, 0.006205126249849489, -0.03995828448458731, 0.06882259681116444, -0.027303187127220466, 0.06387657118296436, 0.07690722896739842, 0.11329840149994247, 0.04747215230003754, -0.009201706279478809, 0.012666321188475174, -0.03770087024524578, -0.054205910082108066, -0.11229909410751837, -0.1218561044186981, -0.28026006974064616, -0.2690141998613827, -0.2425742428450676, -0.15568569660649864, -0.08974619965230456, -0.10658328490026965, -0.007124251572593559, -0.06584547345246819, 0.06511233118052404, 0.014300237647730994, -0.032057484681115474, 0.05166713319516086, -0.038531258342250053, -0.035671420834653196, 0.057340108763415616, -0.06749396182629407, 0.05796452643928354, -0.001261970469672036, -0.05276523690508313, -0.07564525380835008, -0.008768519700995608, 0.08004277034335885, 0.07403980904055722, 0.11302571714218665, 0.06557669711510333, 0.07808568024516674, 0.11633492357510464, 0.02843628067704, -0.0012702787446396177, -0.06241552696168169, -0.022608382807440774, -0.11319129717587634, -0.13947119207358852, -0.05553678696616732, -0.08977281253236839, 0.06214841618688662, 0.053151169582792576, 0.05913209425429954, -0.023667261531225562, -0.045525191120577506, -0.02655285731885439, -0.02798591989381301, 0.021931895703012932, -0.1006738753784034, -0.05824554602672378, -0.0790280910183228, 0.03814135011311939, -0.042661871616005397, -0.02012338026188987, -0.01894394941859222, -0.07399210085996041, 0.0033857679179728614, -0.009534206129787138, 0.11351037514236255, 0.050784395009383365, 0.13701915301187012, 0.18632757638496042, 0.12653894762717452, 0.025890339490750522, 0.0293078525776561, -0.053490382460596814, -0.0736154949973335, 0.01586589526433678, -0.06108106845095891, 0.034712589051152105, 0.06526143216164162, -0.014984124029389917, 0.06171961279065557, 0.008586529397666165, 0.0233266139192992, -0.038695525501306144, 0.019285377081104893, 0.023263667521838623, 0.014213869762705299, -0.0330493403869516, 0.02810074376138372, 0.004455736101517021, 0.04010512810431234, -0.013285067436234426, 0.03226013778287592, 0.015415566254659277, 0.07111681786683738, 0.044408426044583296, 0.07259907301852478, 0.08260063425839187, 0.1757801698355872, 0.040593079619984325, 0.05451053196144914, 0.0333520710176305, -0.028246384354443273, -0.03830076263521848, 0.04101227369576796, -0.055062387794272756, -0.047866519362539384, 0.07090649140285882, 0.015982157670411473, 0.038615415784699764, -0.014774097422487914, 0.07361279209958939, 0.06933949199181526, -0.021861366589826913, -0.0678551496230698, 0.05899820994228346, 0.03175160290237681, 0.012651367099094174, 0.046408801286889415, -0.021736312868123445, 0.045967670523597244, 0.03225233276388232, -0.05501676047094694, 0.024678919478140975, 0.053817703936224724, 0.06122671198316144, -0.0008185060393937009, 0.11595852811959163, 0.06462228665949042, 0.010832091420953196, 0.09484186578632146, -0.004008483286823047, 0.05237741879431876, 0.07777496184135337, -0.029734302188023743, 0.03231615125884675, 0.04988049108193708, -0.010820534723284897, 0.05179703308232162, -0.03100735276788976, -0.03605796654278421, -0.05657742942560606, 0.05811579054999162, -0.005147827043869452, 0.03167747724262781, 0.020604818501895245, 0.04754771997720485, 0.06542704192726224, 0.022778285131399942, -0.01907458058171934, 0.023443412820315764, 0.009326066697335884, 0.01855270039272354, -0.05182665684373494, 0.08795297843033421, -0.036291313312288166, 0.08318057640178951, 0.07256295855637732, 0.024778217716538098, -0.019503200518396182, 0.021481004053333544, -0.05680178516737055, 0.03616990754087296, 0.08417086642010706, -0.038679171831701234, -0.0007771143641998976, -0.019985862953977186, -0.000987462908016067, -0.02536933632543972, 0.0031924885700695804, -0.04551057479055771, -0.00674511713257281, 0.061124789956360184, 0.013068502193313564, 0.0052375226835243436, 0.06660823033244484, 0.010859258624008593, 0.00644820109132829, 0.0985042899840292, -0.07244187871492594, 0.022416869942198565, -0.058482706344280884, 0.0062562842868779485, -0.02146265452488527, 0.05083896181604903, -0.034522327922807815, 0.04691817341678155, -0.04160933749950062, 0.03450034022347087, -0.004944383737983206, -0.05592172800852321, -0.07673294107197655, 0.08613615970314134, 0.04965072031641561, -0.01819575417773793, 0.05383893826587661, 0.030966520990264833, -0.000952555539018042, -0.017804441592157442, -0.05875681392389075, 0.045314248928994695, 0.010951581832790694, 0.0806311683179951, 0.07038997804859015, 0.03672307715460876, -0.010408920402085626, 0.04790073275897998, -0.0070945185359837315, 0.021949636193142216, 0.023389536180855514, 0.02157968901381416, 0.01770888841421871, 0.046286800525892444, 0.07056315976007238, 0.043415897433069575, 0.028210293974380126, -0.04313741201643996, 0.08352958115449458, 0.047388987580914116, -0.00659079226536244, 0.016169549029597774, 0.03336435713615391, -0.004523028853269715, 0.05780010224779224, 0.032237153506252454, 0.03562581029390764, 0.00010639884597566514, -0.04076161187204664, -0.019730484582090986, 0.03463939670660751, -0.039553290582861465, -0.01890220178690455, -0.02424007657969466, 0.09660081749133302, 0.03944232782246757, 0.03591385015602505, 0.053303249195263185, -0.03710250012793703, 0.04654200013644358, -0.022866461092271324, -0.031566822167744014, -0.06014030916869224, -0.04119788996587774, 0.07142181707547736, 0.036956311113676005, -0.03655681240296929, 0.017324359124630713, 0.056654055716620876, -0.0725781786954139, 0.026883641035003247, -0.02700131202577107, 0.012254172249929722, -0.02917403281137682, 0.03709336845390523, -0.00962217791251796, 0.00822566229842613, -0.019181604332252307, -0.039754169904907356, 0.005470847585201945, -0.03740098273708523, -0.06795521384618518, -0.0679174697659759, 0.03258571685299258, -0.038207814915184886, -0.025362612833047263, 0.037159039382144134, -0.02043164422952311, -0.02069836627855685, -0.025853791215519513, -0.008784480144175917, 0.05654082887914621, 0.08236299248450002, 0.011312587496702215, 0.023182754421884423, 0.05171269109544384, -0.03206548981875416, 0.0041805289204282425, -0.03419221981856013, -0.038915192381765044, 0.09140270757537908, -0.012517052421728032, -0.031753682428575784, 0.033393491956097344, -0.003558792265700677, -0.06251358628583593, 0.03272251007022161, -0.04318016408616819, 0.010866524428980352, -0.0013355865584402727, -0.024260813229519524, -0.05820025115445726, 0.028404020348725068, -0.04305293495434502, -0.009334551843168212, -0.03690534971379585, -0.02972434756542759, -0.05901300710665355, -0.05012207824716484, 0.08510460378975598, 0.06393243505071908, 0.023423149824970502, 0.07476708802473635, 0.046238824251100666, -0.057283888986892476, -0.05831429554941673, -0.012170895740331355, -0.0071777915873815655, 0.0735197587832219, -0.04333790669512925, -0.04338303962287625, 0.04263229914984443, -0.09520650787716844, -0.06515605153932885, -0.05292666162369891, -0.008178765195333636, -0.06333106286321864, 0.00837450337758839, 0.02268324923713419, -0.006358445244295834, -0.058077279750426425, -0.03728968895613973, -0.030646046019295763, -0.017807371088966743, -0.06139474182007784, 0.008059357010029928, 0.05679718101413941, -0.0049400026449745536, -0.014668572622413808, 0.021168744885489244, 0.0686784734757012, -0.020012664290884677, 0.05472340137126572, 0.004212956160112071, -0.019653241346496694, 0.031157470957754348, -0.013722455783173174, 0.026338610996436213, -0.0012868281077129471, 0.009428574126729967, 0.009744624088824426, 0.011045880702613881, -0.015003247276180498, -0.02171975407849148, 0.028534590550218984, 0.0403673125592043, 0.07714282136265524, -0.030545645119418707, 0.05857119013360867, -0.013274065643057819, -0.001500589877498335, 0.004003099312373219, 0.005947263322114253, -0.08987972247235677, -0.011096543073987136, 0.0370568380231852, 0.07845249787669377, -0.03337396610881981, 0.07484225253232726, -0.06066528272427182, -0.069878745793565], [0.07959461337104416, -0.026657237714208932, 0.00883091653629636, 0.007420610029857106, -0.06331323624534385, 0.0699198672747094, 0.08115417708387257, -0.05813043598380458, 0.0087391250175893, 0.02636715945549998, 0.07892344048631562, 0.04647349897148162, -0.031135397299900863, 0.01108030529915347, -0.06624894969207042, -0.00582316948632337, -0.07134361538987916, -0.03892894632036387, -0.04858095111960124, -0.04084983275443497, 0.05259634835497378, 0.0003916231766438718, 0.010361331059339285, 0.09501372112839891, 0.041844552397452967, -0.03308966218255981, 0.009096190636261192, 0.045199844028902154, -0.019021569864700265, -0.006169505484174802, 0.07587302441897063, 0.055820956603329426, 0.06992994508469734, 0.01213743864349195, -0.01291115039710092, 0.10133953135191627, 0.05604875951102921, -0.03674144075551239, 0.0620346778283536, 0.039540206054099115, -0.09588237973289367, -0.07860541044324258, -0.02411026205610703, 0.0187900008368589, -0.01632222312640431, 0.03898761137116399, 0.054407935590824734, -0.003474470026008576, 0.03521175009142196, 0.03246327737582663, 0.08931504438032743, 0.04178710666005313, -0.04475873231202665, -0.024319068450880495, 0.1013067043192459, -0.018606905164762634, -0.024826295029866666, 0.0431219121847215, 0.04410157859849293, 0.030941242747526753, 0.019824111660931176, 0.03638226459987764, 0.08539671210833182, -0.031573186396634596, -0.04311945759582341, -0.013201932220643645, -0.0775261820725653, -0.0002880345416559347, -0.0008308234862181927, -0.11959013021338666, -0.08322987321354154, -0.030892399022577753, -0.08643443520071546, -0.009903072033221584, 0.006816290554708571, -0.06802536693832216, 0.009844582476260088, -0.025014884454342967, 0.007879122137398218, 0.007426781454724316, 0.03816080934208611, 0.056727850364413385, -0.040586518275282056, -0.041433092294783376, -0.040981049988865446, 0.05240884968671923, -0.04250056875688407, 0.045738457638309894, 0.07970515412411766, 0.07032459303500645, -0.053066491788373645, 0.08729883808818022, 0.0012144675556958844, -0.03125245679134046, 0.017884569616162565, -0.06361354332263078, -0.051984108508806824, -0.08936137849922435, -0.0930529649151941, -0.026114766955389883, -0.04102678677616803, -0.01877566898669898, -0.04333177199245941, -0.03450320999698455, -0.02765312131820747, -0.07480120339127394, 0.04185750397602191, 0.00029290900058421274, 0.07588451535249972, 0.05328781772269854, -0.0516232629562056, 0.09594926143008772, -0.0384234150116837, -0.05912438078608399, 0.0364517020545954, 0.005184918177590874, 0.04712686607545533, -0.07229297872245233, -0.03274119713254321, -0.047788344915704155, -0.08028997149694751, -0.07058751570768909, -0.08922298111008072, -0.02217972955748589, -0.12053077166905565, -0.09833675758278126, -0.12195337733338467, -0.12972868927719455, -0.10908200507527942, -0.051318424146399, -0.08847570237281872, -0.03370479959902089, -0.1155184892275903, 0.03449036378382052, -0.03286263510352164, -0.005337353493976803, -0.08169739994948047, -0.005983608757644213, 0.06474350541498232, -0.005142049581272938, 0.014813760551754202, -0.021276112030934824, 0.032337237550714354, 0.0002727904165683424, -0.06715540052664185, -0.07791463765348935, 0.05064656163817074, -0.04483731370973897, 0.0015678811684330305, -0.08016070885370946, -0.08467492566589993, -0.08665307349890838, -0.15978897636819497, -0.1542833732404319, -0.1547027658067685, -0.08498643769088986, -0.12161669401314566, -0.03902130827152364, -0.0466783337746042, -0.08539767997058223, -0.07617082851371193, -0.11424907761529786, -0.005201892388606122, 0.056720077725759994, 0.043258573867722715, 0.07690711806851275, -0.04313076964482754, -0.034681239435878926, 0.08927912669930778, -0.03197939504645952, 0.0850655423183572, -0.04566800866621155, -0.01752544035659649, -0.044850851677413164, 0.01223362298603513, -0.06853730859767322, -0.024874580154274496, -0.12438874118582452, -0.05714939518725917, -0.04617228934872475, -0.01843827228347805, -0.022960482546897188, -0.09199500594694784, -0.05726244898288099, -0.043937773553923996, -0.1551920935960571, -0.10230293218504498, -0.04279523141852319, -0.10280879879363429, 0.014452135834511859, -0.04255754041091996, -0.0888062884168203, -0.013591366787196024, -0.03751183423321204, 0.00661116932188163, 0.08181218010400168, -0.012087906504352331, 0.04104876630689616, 0.026954550386600693, 0.029973030667416037, -0.042177446106548784, 0.005416717677054575, -0.02417222835748293, -0.09882951936496119, -0.1267155387653714, -0.04648997748285177, -0.14956753801558284, -0.13294488180506533, -0.021765592452823782, -0.09282608647530663, -0.011618157193677195, -0.03022479155651424, -0.02099383184996129, -0.0014047179145357093, -0.06572515156790472, 0.04896832078383131, -0.06234516298185491, 0.031246684191284128, 0.0454629616063652, -0.01929897649142066, 0.03590046107735423, 0.03968799904544308, 0.0605444025353251, 0.0740019793155033, 0.06632836687972869, 0.027474766202851872, 0.07060505539216451, 0.039188102915029305, 0.0069823596303919214, -0.06815247040838808, 0.029734778872290785, 0.012147793239014779, -0.12960949008701095, -0.05245140223202504, -0.02209347412481531, -0.03020918128622396, -0.013707398253686014, 0.06633725405061633, 0.051086833315154866, 0.011935313068871143, -0.02990461255339779, 0.01630847694547985, 0.013911635043969741, 0.10826122891759263, 0.14922942294900013, 0.01750514743837495, 0.04510695380987299, 0.009500612830617521, 0.011751106270395146, 0.12150508349205208, 0.053767356140240065, 0.10123162796301495, 0.0846529087550919, 0.02053065823761595, 0.01863573406749707, -0.06239628785296876, 0.015929993489329008, -0.06618260600958642, -0.10212412385309788, -0.18681741338632818, -0.12712685128168114, -0.1486184079080234, -0.07943584856546289, -0.0940264915455874, 0.01127471976845323, -0.043431613784618024, 0.06320289913838907, -0.04577453793656884, 0.05908152152697799, 0.13376299045834386, 0.12066823020516386, 0.11552607378705933, 0.06513921405661692, 0.061501087693520556, 0.06388515224084607, 0.10049111646374313, 0.026186973949102868, -0.011421754963385187, 0.019813211724538902, 0.035139568217892755, 0.04906886823571018, 0.07547413752591468, -0.029682324154998545, 0.04399492842741606, -0.07193735496020591, -0.045615087841652475, -0.16436855735338782, -0.07255950192777702, -0.15266030504758163, -0.100330785628301, -0.1130799041202789, 0.0013989372739462852, 0.06656556810236035, -0.03362175015350466, -0.017313236587887363, -0.0024623855555747517, 0.09690817486145757, 0.11772897199344101, 0.0721711032866788, 0.13854271813648034, 0.07263152750833753, 0.085024092726772, 0.07267212281804479, 0.09124124555034242, 0.039446590124031046, 0.045994560236085856, 0.10624173930345977, -0.0032816737702150317, 0.03753411031181731, 0.05363931455605078, -0.041955558812871586, -0.04712580668247278, -0.08587592452645161, -0.10503252789066542, -0.11850751733571806, -0.10294381523181972, -0.18593055859470484, -0.10178026662357442, -0.04119802713239897, -0.026808266947352593, -0.08115272591377938, -0.01254887445391122, 0.061615754208028964, 0.1436071854071116, 0.1691713904455975, 0.12593729927261732, 0.07938850416622567, -0.037680106061773355, -0.06361522770629902, -0.07542217702518943, -0.05219128198488458, -0.09685961437406451, -0.06261855808749749, 0.1042196830258085, -0.019874720933696906, -0.004088933493821329, 0.024671014086987957, -0.012374610857638576, 0.012657822681630354, -0.024775192048622507, -0.01971510370069389, -0.13986179776354882, -0.19946949782800172, -0.1979789311745859, -0.0716485854421671, -0.08588989351363159, 0.002681428457399511, 0.044112677848073385, 0.01826933560696781, 0.03698596954859305, 0.12303785440956438, -0.002717682111865317, -0.05353808619093555, -0.16507609789365754, -0.17040398577585675, -0.22887486097889603, -0.20117223417528213, -0.2565363182565034, -0.1608383119448204, -0.06550356618111303, 0.008972694450687012, 0.01664050227916133, 0.059854981802071355, 0.051787554512238855, 0.023952520642692134, -0.037505804993506246, 0.049018170974349996, 0.0075188492171990706, -0.09459129968718513, -0.04969259418438169, -0.19264950830323296, -0.11469681415731277, -0.10693558454628073, 0.0264602744412419, 0.01024177065734228, 0.01854143530328896, 0.03637651835242019, -0.018337329859232143, -0.026651300026010637, -0.11675080238951491, -0.1904891455830111, -0.2830777772768299, -0.22243825189230246, -0.28447010407161094, -0.35369880551681615, -0.20939083241993278, -0.17777223655449845, -0.16186574102007292, -0.06516773414058852, 0.04422673141606307, 0.09103965654973578, -0.04431551220241767, 0.03452132738940049, 0.024629547095030208, -0.058392691407692446, -0.04363670776877639, 0.029225809069764366, -0.04019523464069463, -0.028655578513325782, -0.008339257899713308, 0.06027851903780114, 0.042860438306059935, 0.015474396573632173, -0.08597818116266738, -0.06731513254769564, -0.08030376111658442, -0.165955459035857, -0.22018088804599817, -0.2859915184168829, -0.24078479142489967, -0.2141883415729952, -0.2396212910613308, -0.2438879477614862, -0.23207581600309732, -0.167857986533819, -0.1041961098610411, -0.05078366987943037, 0.055221999062010106, 0.04972971510483229, -0.013297014611342091, 0.03717250266739781, -0.06806000477619444, 0.0016063031375585762, 0.0002906829245139117, -0.056246118961324705, 0.020565944735340787, -0.072406745779847, 0.11084807501277094, 0.12528979743661325, 0.008676614512724595, 0.04222810775327509, 0.007938620912573446, -0.0074795679839652005, -0.07596478749913763, -0.1361298800488167, -0.16803887664790673, -0.15932727369134955, -0.09371377074151638, -0.09129005383792242, 0.04582431004435213, -0.07199499930890435, -0.04328661935715336, -0.07888703993647492, 0.023484992897919433, -0.06614452241684779, -0.03893070381907257, -0.03067424013318392, 0.006191613967206981, 0.03770964903722128, 0.02514869394832669, -0.08978504215361968, -0.12164979207306888, 0.0071699624790021845, -0.051997094770130176, -0.002673081398581148, 0.1750209677006508, 0.07086084606373874, 0.13729295554455098, 0.0446813925492675, 0.024884462356963705, 0.012613085099926827, -0.08241979885991124, -0.017785750694941704, -0.056366130735286825, -0.008495586108197551, 0.07718956455951051, 0.09585515246323043, 0.21795632672209386, 0.16135729745351854, 0.14169374536120766, 0.0458546442267772, -0.07259521129526338, -0.03848250693713419, 0.018584895348430445, -0.05626727764593407, -0.09805449164908388, -0.08849110511594345, -0.07017669958563688, -0.056083094846999464, -0.07735352073128544, 0.04047570698334247, -0.052751131993897034, -0.004315850490580561, 0.09709111148898353, 0.12254415566498077, 0.048293643742659764, 0.0738563140547483, 0.04701734064344454, 0.029637912161568903, 0.0371277898596493, 0.0032192195348234075, 0.12965217083144936, 0.03728288136236507, 0.11316387747382596, 0.09774727817509916, 0.18688515077353116, 0.1087952403025536, 0.11873571899594774, 0.09335386017465765, 0.030129135016446554, 0.016477408836311887, -0.10721823280834612, -0.05508339452269342, -0.06151507387752124, -0.08227078557671058, -0.03316743698808149, -0.061483546646849914, 0.026226451971520282, 0.022739773657144014, 0.04742065860804979, 0.05578418582636037, 0.11978632676280265, 0.016579991647960195, 0.057776303932195634, 0.041427341556138614, 0.044610918615478785, -0.013878084279337486, -0.013410952528863202, 0.0974793211152838, 0.028533220516724456, 0.0797614246216222, 0.05172770644866617, 0.09584616169891846, 0.15262695948980518, 0.08597598275815846, 0.07295688171575862, -0.005917266176254756, -0.022077085230279403, -0.08399042974461, -0.06584792224205542, -0.06876016018479353, -0.08247803152348646, -0.06456084592709031, 0.04597380527544878, -0.018894311738141784, 0.0377406398624718, 0.08804328548628433, 0.1047541376693993, 0.02976463929160106, 0.04401673557615462, 0.057566937622986515, 0.02273703152862521, -0.02701866938928154, 0.01192147700212027, 0.03779903452090981, -0.041465489237130844, 0.09057111709119561, 0.05822165852940221, 0.08636722827395991, 0.09429179261573256, 0.13281441339753097, 0.10392002385155175, 0.13536849419059002, 0.056390029247394176, -0.04688590545940518, -0.07343839343082734, -0.000889002552296131, 0.036535064766990324, -0.05863058498995019, 0.0006561336049587212, -0.028984095311900278, 0.0508023935509718, -0.07756197922633186, -0.06776781380568372, 0.07582838128987641, 0.06483638610243388, -0.026459087631482112, 0.07219900095301028, -0.016655264860592996, 0.0029305110308187245, 0.027573605613197695, -0.060662618510338676, 0.012864235971833185, -0.00999460499614074, 0.08995704964103797, 0.07983504350741456, 0.07894685965013896, 0.13542310055480974, 0.07307254992154344, 0.018116706746819165, 0.056613602593203916, 0.04940049715662462, -0.05255906920256541, -0.06704086200588187, -0.07985151341646492, -0.01631110970350536, -0.05652482707193126, 0.0606602149400275, -0.035174930538369134, -0.010822842177092108, -0.0003900510040175615, 0.041951213053274684, 0.047830585516041156, 0.002683588030807129, 0.07464814647215277, 0.041385684914533934, 0.06886098039574054, -0.06996443975930515, -0.024355302056154285, -0.004959153876258896, 0.09620673386269703, 0.053231942563472814, 0.03897485085514249, 0.07385049461146308, 0.09062968527765741, 0.1592943257197733, 0.11457344008747015, 0.005607183578288125, -0.0013437652751012987, -0.10300818990386465, -0.01613389807331314, 0.020010976570419944, -0.029748189285172758, -0.06419689460042491, -0.012989962832024226, -0.016409789425569844, -0.028127612677247758, 0.014938316168088725, 0.00555305919142639, 0.01847834852659695, 0.06488941454390325, 0.054118358061118976, 0.009572449256459779, -0.03166368092330656, -0.049274122272570026, 0.008469031432156637, 0.03817188609318807, 0.06586032022484903, 0.005323827585501102, 0.09939022816350637, 0.0036006830620200557, 0.07582515102014432, 0.0535699216655645, 0.00132469068411909, 0.06405109032362673, 0.12421706469488705, -0.03584980995259604, -0.07502970001765512, -0.037420774790930734, -0.11814782190438027, 0.034630922370434324, 0.004323521847388208, 0.08306731150148526, -0.044220397969221115, -0.008385127843421472, -0.07327522082068098, 0.04662545902085913, 0.0674829517085784, 0.07335578796814216, 0.01532446716843595, -0.001147566741940223, 0.06392482729657403, 0.004627913382569569, -0.03677528370851968, 0.040943798864305186, -0.041981713180524606, -0.008049429270261603, 0.015033256613695032, -0.03338383692335857, 0.000487173936442848, 0.01159488863197569, 0.04534885187352113, -0.007316405547799317, 0.0022583201113968603, -0.00790686164484934, -0.09682175774026386, -0.08663020754892217, -0.026380370098897026, -0.08073073482438943, -0.029634942550201486, 0.008739619800932212, 0.06777048617458784, 0.051505140840963325, 0.03559988464280973, 0.024802284343109014, -0.03022626332631083, 0.05473762727307017, -0.018892202691028273, 0.07543191252508342, -0.06111870962885983, 0.03719175818376684, -0.004047083193193468, 0.0007780891984290718, 0.04769740045671739, 0.024499128288019874, 0.06149548582943713, 0.004806592622413689, -0.034676035116698305, -0.06967017222624099, -0.014539477366782572, -0.041418600561564496, -0.02196610282200807, -0.05188299964361619, -0.008804744570906213, -0.014550658071113255, -0.013795163622667844, -0.06597599561502465, -0.0190855482534923, 0.07595217378512582, 0.012283263179446847, 0.07551511319480644, 0.054684090184573125, -0.003067660966910329, 0.046915866631844536, 0.05477652913617234, -0.05729826738314459, -0.052923023751738414, 0.02705389459361091, 0.013862868835953574, -0.040874917198227244, 0.04074997317196424, -0.05881834395764013, -0.0025115009883592814, -0.021403415528222423, -0.019840544210129808, 0.028915911364807506, -0.08330402424848402, -0.027208384542568822, -0.059625118361338485, -0.049757669254886235, -0.01010419973167136, -0.07196292539458214, -0.10740288215163818, -0.05695225596910553, 0.03240631429171702, -0.04282724220530702, 0.00610240180332658, -0.03265246431616037, 0.06874733880374878, 0.02298395788746491, 0.04402623706262397, -0.038649816141941185, -0.037161114065180495, 0.03879917202292207, -0.06820839787935801, -0.05089383048074056, -0.04286332412001087, -0.007258212758714631, -0.03340595864634884, -0.025586567003080242, 0.04981495323584445, -0.043476632680943136, -0.05332069813453075, 0.07716047618140634, -0.040198469594594645, -0.0959818011854049, -0.07586480268298289, -0.10304077529519999, -0.09878242666444169, 0.0018652540178538102, -0.01572795455579076, -0.03730244082655733, 0.00955296177413736, 0.011449733357443346, -0.00021433026051411916, 0.0819128411896763, -0.02293628995630853, 0.012436646964680855, -0.050786392271625035, 0.057215851981369345, -0.0392805082709036, -0.013801852073289236, 0.06354562004679513, 0.08458110018946073, 0.01902775855158795, 0.01844392822469067, 0.057426807854931206, -0.04592179356729028, 0.04504388257931489, 0.004244833942831038, 0.013440991001940513, 0.08337643836583196, -0.048166856130329394, -0.07995562221497826, -0.11125679633796051, -0.14813256361501106, -0.1676850194519637, -0.007171507477844368, -0.0785717285756094, 0.0888265126289238, 0.005088203722758791, 0.12206580329512129, 0.10271594887807434, -0.026540451857578532], [-0.02566803513772008, 0.06728205658879599, 0.039152245557245106, -0.044936367466362315, 0.013066426177870448, -0.02299490207899873, 0.031214245107151005, -0.03372544281543224, -0.04696647020195578, 0.04208864390403595, 0.01760281528287844, -0.06291848058544817, 0.0068647088456667464, -0.04655538932986094, -0.049785020125831254, 0.005806360229865473, 0.09886479498913818, 0.0579447280958201, -0.013455908996512283, 0.09017183667461709, -0.05207168660143663, -0.034674063405385716, 0.004999429555469969, 0.01609650378425671, 0.06628463375047029, 0.05695760421868588, -0.033742156916513145, 0.07244676362159211, -0.03137788630787106, 0.031953507716579316, -0.035969949545688794, 0.07880723671874935, 0.05438175723849437, -0.04959455824466499, -0.005072189656405616, -0.03477786199381171, 0.0574298201967899, 0.05299816568863048, 0.034612201025320595, -0.08753374824671138, 0.06387174034852419, -0.06157891316159615, 0.04509356147843386, -0.029863104144528474, -0.018172544496972497, 0.051362003546585544, 0.059028209643717564, 0.04925685833613483, -0.047282493872686654, 0.0966822785544379, 0.05329428885694079, 0.05404397411230169, -0.03734959439111415, -0.003514058725182906, -0.03800923709516232, -0.049953911706926014, 0.052090766718624455, 0.06523646843560965, 0.04932251676831631, 0.014054702384976858, -0.024669749302752963, -0.06209280964497393, -0.031116301435397023, -0.00047673826564174063, 0.02828529411984321, 0.016144226067340946, -0.07875410374752971, -0.06503984768220837, -0.07091314006250894, 0.06845574619447396, -0.014539756716271075, 0.002420402514069226, 0.0015643343899631348, 0.05017387421980866, 0.06568708370264979, -0.004687512222774213, 0.032129671064037385, -0.010951400612220238, 0.026271991145462654, -0.0013373550484892657, 0.0037824659667355484, 0.0570771508823682, 0.0562130668099628, -0.037141303535444536, -0.05891553256253012, 0.011846143992649374, -0.07242281463065811, -0.07749390821387661, 0.01147441101532716, -0.06558883982507993, 0.07313473784084926, 0.052895153373290656, -0.05580241105790971, -0.02601344032271997, 0.0008618816789886433, -0.03808204279625827, 0.014585949622782998, 0.030664006222058934, 0.05299489677241695, 0.012358725217213377, 0.05061397998952351, 0.0002713849709126262, -0.06286872968305189, -0.005420959187249734, 0.027677072114878704, 0.06959746033841996, -0.020765114417933536, -0.023524623314589717, -0.021867558721964428, 0.03868604003147713, 0.02100513874885798, 0.06877518517399808, -0.07201345591351534, 0.04410280999539544, 0.005908638164573187, 0.030076142755186566, -0.048159492492809555, -0.07720437754532752, -0.035459248330551696, -0.0052247711961607305, 0.0300669703921746, 0.028241157663346235, 0.02197208051192234, 0.07100626749000724, 0.02874929330490137, 0.02692944963014898, -0.05617979501242252, 0.027943480091023543, 0.03322890695992561, 0.0745727356080208, -0.015887539282102587, -0.0038602967474969, -0.042270222707660406, 0.0047346190999970755, -0.08528551806766321, 0.013682125824538174, 0.009000186085145226, -0.08870281096754583, -0.021688716585619133, 0.0405721676433374, -0.07165548055961804, 0.0666190666964193, 0.015582219243034476, -0.07121608383114941, -0.05431810456548035, -0.02764739240522009, 0.05321127930061095, -0.01486748276752079, 0.05089503567888648, 0.02944231513783007, 0.06110062781867671, 0.03419195528468458, 0.07951287087071694, 0.07932306537721563, -0.04389664823634286, 0.06499167380168235, -0.03990266584143599, 0.0627750074319985, 0.01848199299748351, -0.13321245359750367, -0.007952179123048242, -0.03882564484497304, -0.08968591846542116, -0.050308166216495843, -0.006123807488392511, -0.06821504589040323, -0.09842248895560618, -0.06154327211276576, 0.05697654895495989, -0.03967813301958059, 0.00886446902189187, -0.05625832527920281, 0.04817598008411597, -0.06974252052565613, 0.023890770777694994, 0.05270135534957002, 0.013600148291348776, 0.00991668519146055, 0.04073586879669303, 0.08674137478000822, 0.1713974478939574, 0.16839811315459874, 0.08080464908598796, 0.13727887269105424, 0.06958195956175184, 0.13386964958508232, -0.017246726477482707, 0.023921450479405533, -0.020215251309992292, -0.06021918354591197, -0.00133081445994253, -0.01705542280518086, -0.0890104143437514, 0.011620001869909816, -0.03333288883755656, -0.046003599816929586, 0.05513233085762014, -0.020487165138797045, 0.06905951810023357, 0.0007794113783566205, 0.018537581520849743, -0.04781989805430041, -0.04626465526240328, -0.05299104033383253, -0.054844678946487646, 0.04353427171573116, -0.015083129721151726, 0.09237743004183224, 0.06435057218005746, 0.08050312479002147, 0.14914996355715976, 0.06398276448416251, 0.07336292824253583, -0.08566331627802742, -0.021320522345385874, -0.14410845709969428, -0.18127801582498537, -0.09257978629345077, -0.03883181426051443, -0.13628331380389389, -0.09398960397506372, -0.05957576858827628, -0.004547351393281767, -0.0756988295052305, 0.011278330780494901, 0.005409647689722811, 0.015011136758461538, -0.06443061830629779, -0.015226049536532511, -0.002858903905462545, -0.06991522100038182, -0.014783837436976206, -0.019139701729380506, -0.07003556475586332, -0.08548976113844663, -0.0987008951652622, -0.046350238701289626, -0.10534845850384696, -0.05218592877693965, -0.08684249438598714, -0.23102428018900847, -0.21086181399560627, -0.28780062054698674, -0.30893278863570167, -0.21051358280039892, -0.21059262058351794, -0.17213413702998495, -0.10169831349427604, -0.11201680774577923, -0.06930240894284516, -0.01677133319011784, 0.05439362846463097, 0.0137202008744295, -0.0013907436073823326, 0.03892348575424839, 0.05195761993021759, 0.01648498792579907, -0.043561636521532256, 0.03554492600492298, -0.03832352835967137, -0.10672325787985545, -0.12491760722559288, -0.13853064301115964, -0.07024498189909123, -0.09789650968638874, -0.06719676375688931, -0.12888720685925745, -0.17623692106688066, -0.15390544863491779, -0.2445027908920255, -0.2808798378417219, -0.25191715258192465, -0.20348566066995408, -0.18064320478465487, -0.15106937883420546, -0.12404235016698911, -0.010163115913534602, -0.05967963313279873, 0.009598016849300527, 0.044501845072084226, 0.014765925906252066, -0.004734863484164522, -0.06016104563363029, -0.03549797591183126, -0.016550832501795617, 0.011496156387802983, -0.046105531730332786, -0.04885880156342737, -0.09873174094869042, -0.04164093101057279, -0.04222649713477522, -0.035844724198187, -0.060873647583201906, -0.0034103864674876147, -0.005338748425536327, 0.025229088623731816, -0.07521492648067762, -0.003161369245585233, -0.08577417610027072, -0.057510690974313106, -0.06757010428957358, -0.1335216877544766, -0.1274585564169823, -0.11198339342515345, -0.011380571067836348, -0.02579378004003611, 0.0348586785810055, -0.06599611650882119, 0.04013814287976415, 0.07862572180700475, 0.06382634911952229, 0.020488664538687883, 0.03898014348932362, 0.018506341103362127, -0.016568007808762122, 0.0770012318558277, -0.0010080409649910692, -0.015410683868637311, 0.007164914750774771, 0.07089720949970184, 0.0898104599627643, 0.14545719470284404, 0.1720328045093682, 0.101409591669777, 0.058951757653723624, 0.04274810205617551, 0.045292799607308545, 0.010811656193526944, -0.09009975514790233, 0.03646865722964776, -0.07147514300535734, -0.06284810918676004, -0.00176470996223826, 0.027544376082248495, -0.03221846410289509, 0.07625659482949884, 0.07492162018698718, 0.012342819228676747, 0.0856206822094531, 0.09143789006435692, -0.009909382090722707, -0.03207377855541523, 0.016709212057970407, -0.02489255125707353, 0.0007021478633967445, 0.017487812927402594, 0.010567269915421429, 0.07674033396771955, 0.13199392398107299, 0.13140376630241468, 0.16285622134279126, 0.08023474216613032, 0.12067916846821158, 0.12116627903534499, 0.049534064941684476, 0.06593893177430617, 0.049234020689725023, -0.009388452694086327, 0.02827595253202605, 0.0645328893683553, 0.013359090381860195, 0.003738183619730535, 0.05343807281300302, -0.0049980373748448464, 0.009379499519366782, 0.04400932134130649, -0.0058968779760568005, -0.042442923254675996, -0.06180720900904681, -0.06035751673064241, -0.01509559565045593, -0.10286343112458032, -0.10758031945861776, -0.11938823251263019, -0.057824669415402305, -0.12312165007989043, 0.07349626908164635, 0.140286617322636, 0.078539358635598, 0.1661880375432896, 0.08415097578575614, 0.04597996660525083, 0.10066551830055687, 0.0526036323829611, 0.11165408973322682, 0.010303843645144124, 0.024382186345049166, 0.033303289656218024, 0.04192513187422315, 0.03759223020138757, 0.08537066911455893, 0.06271137022380598, 0.05563336614793859, -0.05819914358625561, 0.07640349383699775, 0.02876342528887262, -0.011160241536129281, -0.05381471135780406, -0.09119151423369103, -0.20269286802398118, -0.22963796334776454, -0.3106177589243649, -0.23695098269953568, -0.3279010315462073, -0.224917603681712, -0.14644259521754707, -0.03988601401088038, -0.05493628730450356, 0.015538942484440809, -0.006807371899838751, -0.011071541512479199, -0.0361707892638543, -0.013532051591542969, -0.05280651899788715, -0.030328199431340373, 0.04503424490323984, -0.0680658681414658, 0.07226598652939151, -0.0014950291178027336, 0.020747367354007572, -0.0017461353886724788, -0.0643017812615263, -0.014142936532587722, -0.033187075314675914, -0.0019333709480768005, -0.19158984398807496, -0.1373482879198796, -0.17285328583243056, -0.2487586235617238, -0.17806129824695643, -0.35654742899695174, -0.3272303158300049, -0.3226424643443366, -0.2758759871587301, -0.1531167710248003, -0.20962102304949232, -0.16530657056266856, -0.149478610308116, -0.09650139356881755, -0.09027630728698723, -0.053425584004317614, -0.15246169714238686, -0.09333268660340427, -0.07417951971834474, 0.047916523435299826, -0.05898276645280947, 0.0854342874585809, 0.05356155487654666, 0.017805487423983433, -0.06035481277819246, 0.06637303975893188, -0.03238276896015506, -0.11076370507504991, -0.05666936455088467, -0.1110013429344791, -0.0734288980213914, -0.11981700189474503, -0.062617006725634, -0.08650631854908715, -0.0790597061340552, -0.07102688305372998, -0.04582020350639616, -0.07534702108884786, -0.026696637234325728, -0.016805967414289243, -0.1312510043021605, -0.05786356622787996, -0.10411334102945431, -0.08319875273767739, -0.011505343705809823, -0.03724113113911049, -0.07351039313922855, -0.02221375505149785, -0.02847662079579179, -0.025985445741218024, -0.03923865807149019, -0.012684419114311155, -0.0501567789423924, -0.0209231368474638, 0.020448306170112274, 0.013582336319194404, -0.06193623012273578, 0.02048057516217437, 0.10570390795456251, 0.03601122030370968, 0.06143316395924041, 0.08200600928397557, 0.09008417796616246, 0.030537046232608774, 0.037170091947754315, 0.12375058784596561, 0.03478169165713197, 0.06861583632644638, -0.04271443739096772, 0.008783991601376042, 0.011520555912728919, -0.08034992165391874, -0.0019159555700213528, -0.020973025664020328, -0.002262703303852834, 0.04925053014906536, -0.07148897265947236, 0.026767905543496073, 0.09026692786650535, 0.07791393586629754, -0.0454757503103739, -0.08446302644829763, 0.011297448829222883, 0.06475596490805309, 0.06144621660598594, 0.06335230837999095, 0.09950454971270174, 0.14140477317464845, 0.09656083766486025, 0.028260043338085492, 0.09264224531185802, -0.10383540113334089, 0.011381490950839313, -0.004504079815321672, 0.1040489079248782, 0.02146397921982697, 0.057907770744606624, 0.029924868301851638, 0.07397706228519449, -0.027702767770899177, -0.005249142010263237, -0.016085154029083004, -0.08456439459512621, -0.03012046068784929, 0.012507084577466384, -0.0299606233465961, 0.03613698760825684, 0.06532388422012488, -0.06618919766950215, -0.009487155980308196, 0.08554986912571884, 0.0574584310138161, 0.071821533318321, 0.12306489802549175, 0.0609008293894052, 0.024507418575330557, 0.036506840434986754, -0.017525094462411173, -0.03594580999135967, -0.014331935289098612, -0.06578309600419013, 0.01139643016937964, 0.08411396927653968, 0.08679336741855709, 0.036771823024973116, 0.12134354910102713, 0.09177563079734907, 0.04531089622090804, -0.00867908019991679, 0.03091688923103558, -0.016179048927423556, -0.02086788245016511, -0.07346595740531052, -0.01233010969082126, 0.06408729015524366, -0.0007848664103002885, -0.04675402750480596, -0.007049331076364678, -0.04551627229451289, 0.022727434174011404, 0.015986232333778105, 0.09283002579184806, 0.03725648017869836, 0.06854161077019418, -0.06000718076376462, 0.010910100110478218, -0.023476727842654622, -0.030630661092978885, -0.059743429499356314, 0.010375603173579067, 0.04459838091492254, -0.012923991254347914, 0.0602353836757853, 0.00010270492105764043, 0.08190394519887238, 0.008351414298658868, -0.0388785350300802, 0.029381104790562027, -0.009249706918826928, -0.0885145954584281, -0.09107635182546363, 0.03888364542860391, 0.006087124556468781, -0.026209606897495834, 0.030916697782438766, -0.08649867915724341, -0.059984977383182564, -0.05458069502971834, -0.02239500333581464, 0.056717046570496456, 0.05767941214680294, -0.021202951317955476, 0.026827464506828585, -0.025177988115537835, -0.00901839722739678, -0.02615883360512887, 0.009052748934428161, 0.009063208165948154, -0.002382349013219473, 0.06013313985925411, 0.08744303292229223, 0.03480584282506068, -0.042846110535429575, 0.05263233636186098, 0.04143011641715057, -0.03211298366993514, -0.023761202182128748, 0.042964673377897555, 0.00917292069529219, 0.04250807733616118, -0.07118515464613068, -0.04352003660760904, -0.07762599310900517, -0.004210140321484098, 0.059357561514006625, 0.03708675314431253, 0.1078459832074474, 0.032094189043822205, -0.023612359121556487, -0.02202317638115009, 0.07535076158387671, -0.000672681772367706, 0.05487502237837239, 0.044241218417890485, 0.029881848778944807, -0.03345388694124663, 0.04453873178172735, 0.012143922709549388, 0.08052047457115535, 0.021036290148503275, 0.08207453027914685, -0.031291200800144525, 0.012283498305865302, -0.0028441387861717505, 0.015548830572240541, -0.04088577738748521, -0.034244884047099224, 0.024197707549665978, -0.07834888152398237, -0.08221691073484838, -0.09133239435350698, -0.061414879769861874, 0.027918099973193698, -0.029759244798903694, 0.010551173549937749, -0.023122560284015495, 0.0408682731778285, 0.039757720421904126, 0.025288409262136487, 0.04220437986933627, 0.027024040969053184, -0.0021575241337758004, 0.006068435198994482, 0.026593619130534377, -0.05621916468712056, 0.027472664686027222, 0.029408284654560392, 0.06724865255602461, 0.06132108106782024, -0.0034870411586512373, -0.03628440733040644, 0.07333414665648412, 0.03934766991195053, -0.0782036736966451, -0.007910952039335603, 0.021522932735764198, 0.055175442309428335, -0.026792922669167146, 0.023813248085681877, -0.03496896356592512, 0.05183136345515651, 0.06548899440132086, -0.015229913512788155, 0.07102279779492324, 0.02242541228451979, 0.05045368258941926, 0.048341164921294935, 0.012081684496030512, 0.08817161780663638, 0.0267610607275215, -0.046246762765435136, -0.010684078168671654, -0.05667638817984525, 0.02600655902126987, -0.05929628315236196, 0.08496705276695585, 0.05801040526571371, 0.0753762636094221, 0.005562298054620421, -0.004640878706802803, 0.00791043636077873, -0.028215785384434172, 0.07428134697406572, -0.05311338322016127, -0.038667645466545164, -0.06628611683523881, 0.0639458627540982, 0.028907691455348297, 0.07110407845822934, -0.0456946362857533, -0.044305641052797516, -0.002281899671327151, 0.0033070223149508785, 0.05771558307978593, 0.028440617035064494, 0.047473715974343605, 0.049926841762789324, -0.06581937475435118, -0.06992635828209523, -0.15592793852726342, -0.1499246172308308, -0.10008641668244501, -0.11124787164946351, -0.031119312635315727, -0.0005327291782707011, 0.012360364388437644, 0.030850014647931755, 0.015399382377818183, 0.11166596544766731, 0.04018830760520664, -0.03532716343414276, -0.00414938668036374, -0.013023483939967568, 0.05745764583930791, 0.039137434803395, -0.05030716603583225, -0.08508458105244254, 0.04113012595968538, 0.07934213819800422, 0.07531051231787204, 0.012015879009668266, -0.016624033041917338, 0.09064566099179695, -0.0348324006346418, -0.043898763431092676, -0.013189763512918017, -0.04644427541151349, -0.049349712190001616, -0.11013033922280044, -0.19259151590955453, -0.18318605010296712, -0.02146938386344257, -0.036223324526246076, -0.017864978720703015, 0.05146948340166853, 0.02160687619892652, 0.12054551534152963, 0.012828561654648874, -0.009486832102722921, -0.0031564073340311248, 0.06737040539427443, -0.04807429951157272, -0.04947913501408899, 0.034613787520394866, 0.021543395566331985, -0.007310279694408266, -0.013436432486700333, 0.034697311718466885, 0.04621557219948335, 0.07490928294032671, 0.012302774719208341, -0.03760219920670464, 0.036068929218595856, -0.055622559231002504, -0.009779190265323952, -0.11545580070996649, -0.05020593455180254, -0.08523161773560098, -0.20070240533547062, -0.1369465559622535, -0.00938764939048158, 0.08055859938113853, 0.10781407739146849, -0.002883802193712229, -0.0106086278443669, 0.02644875395329349, 0.0929245669163692, 0.041043463319356696, 0.0073438998656445015], [-0.09534063989045811, 0.008594190386291223, -0.05352227360267722, -0.06756550877677323, 0.01638494693081404, -0.06698680151106622, -0.008713822621656287, 0.09198018929117985, 0.04362988857787635, 0.07550782269340618, 0.06545830943291268, -0.004592342884334843, 0.08970910094602048, 0.059484621438329895, 0.03509516666853037, 0.03240848734804303, 0.05084959564154691, 0.004262020316159373, -0.06337806748152712, 0.0034524150431271996, 0.06678376759474909, 0.042662318988322276, -0.022236392081966212, 0.022207015431875803, 0.04425517742052626, 0.07364564873830186, -0.04686912058203889, -0.03544890660443838, -0.018646611680636766, -0.012193692303272208, 0.09325684803023514, -0.05211144186055649, 0.059030986519095115, 0.03642496068308349, -0.02755738245606961, 0.11324875254090053, 0.020366985978413223, -0.03674861647564895, 0.004599874730365141, 0.10104846006183618, 0.016305106077103584, -0.06255941708537653, 0.016619313953055274, -0.04722258280134408, 0.030352785862399787, 0.05802059181603774, -0.00168077900626342, -0.036010889654577355, 0.0474503872448644, 0.0014897512496849237, 0.015783765266609233, -0.053284944583197956, 0.057503471389727605, 0.016507343325175755, 0.02607967027453428, 0.05369600389628759, 0.0709347630792676, 0.06421350670940004, 0.03900871073197335, 0.04899179199820188, 0.007850864405534097, 0.0958465823590328, -0.0004275462851839198, -0.009271172901482693, 0.07446144116470182, -0.07162256368485961, -0.03767043825497144, 0.06465017370908398, 0.014468721567982243, 0.014473991611526503, 0.0028322872899351403, -0.041978636401740745, 0.05762575598193963, -0.03428418898519426, 0.01131633887474877, -0.02134436350692788, 0.07310647986120053, 0.016844902276041976, -0.007395119456711001, -0.03853757582408597, 0.021900050445843148, 0.0388067666215876, 0.0655735725585986, 0.040154952266321105, -0.032388920899643944, 0.026533547914293267, -0.07182509860185102, -0.05388994254909884, -0.004168870150641253, 0.02974691022052396, -0.07007290891726899, 0.0126886827487609, 0.07926584831582893, 0.0568879182851693, -0.06274067929562142, -0.024957410647217047, 0.0012813635523150602, -0.0460381604949044, 0.006023611845477365, -0.0036972708948934613, 0.0625222359080552, 0.0021508520050025977, 0.0281470000461514, -0.0018778402590394524, 0.032423287614524524, 0.03805603489021976, -0.007542198324965282, -0.061981100226808375, 0.005680637592972308, 0.0014245641942238188, -0.04371522198344562, -0.04715453742823448, 0.000517556667074591, -0.018838066177496, 0.06780407859896072, 0.05216632608716303, -0.054467132437417305, -0.04080467446821079, 0.025074893180049837, -0.039875430187645534, 0.022759965935338477, -0.01361518296842176, 0.054876850108384015, -0.031057706050392108, 0.11419408796258393, 0.07892679070291721, 0.027540286012176472, 0.02227781397722955, 0.09039335258666668, 0.02867808310754091, 0.05015896646879447, -0.0007522857258127533, -0.0032178786496028116, 0.025847620164583793, 0.02099842294820861, 0.04889908667092604, 0.07640931959587036, 0.083423016125105, -0.06157111845609938, 0.0310972916646412, 0.05897345259454521, 0.046953305851891, 0.010762799357957266, -0.025042644614585757, 0.07143773948923426, 0.02641780340323953, 0.07109027464814217, 0.06223825966333083, 0.020587420909853504, 0.057305336639360216, -0.019380514640601396, 0.07179466767414579, -0.01912731462941396, -0.02040549494396838, 0.09275858292656938, 0.10231491638439971, 0.040102814573170116, 0.054468505398810325, 0.032986046701869325, -0.018323410623312438, -0.007088724918484953, 0.019835727166533337, -0.007842173714896438, -0.010507031440247904, -0.03210158893904368, 0.09315932227724746, -0.02193094820798765, 0.061574998796323416, 0.02373218046738444, 0.012620552454941819, 0.012499096087241134, -0.009011375803103008, -0.05148307339691855, 0.09541482422611193, 0.011583658643799743, 0.050174469849414254, -0.006813504897092604, -0.05518810795277119, -0.0388421579406624, -0.04703945969605552, -0.037314930603237234, -0.05891086470654505, -0.05572898434159591, -0.06837920459443422, -0.06698437695183948, -0.11312970274656414, -0.01904874857764148, -0.05004138036300602, 0.03776908558384068, -0.09052019478663031, 0.002880989756842595, -0.014881421379591071, 0.055332814777086785, -0.0173346756618573, 0.09550909173708978, -0.015233816303285146, -0.025057843521859944, 0.07195150060397161, 0.08457774959696773, 0.043372983243485735, 0.11245292102928536, 0.09498149533244091, 0.06615970738757154, -0.0853241219405722, -0.01797701974874137, -0.11546380775643507, -0.10908872184368908, -0.0907764508648114, -0.14846336169634264, -0.11563635857664196, -0.16073984314157455, -0.18469661755336558, -0.10308211767696761, -0.1840497778167595, -0.13234249178944285, -0.15419966981064664, -0.10514272996520224, 0.006532096501753655, -0.01641318823601232, 0.0811071438995886, 0.0712172633730796, 0.09193315940849475, 0.027074110709398833, -0.028922801747010923, 0.08994878669207956, 0.07949191072790694, -0.008314630644340487, 0.12156858600659547, 0.1106136933462059, 0.00942200939470402, -0.014997952743523349, 0.021815273850462467, -0.11053216271997018, -0.03723363211817124, -0.07346952062987452, -0.11336180439186977, -0.11304407152386173, -0.17916738854016817, -0.0886660879444219, -0.023172365209072517, -0.12169342812511606, 0.01406548650046801, -0.09982626241186873, -0.07324425273508865, -0.018579960432839205, -0.075084910918353, 0.03202993215286473, -0.08031385064984009, -0.04116364635875089, 0.019716025828256174, 0.08551098296560573, 0.02101461800534197, 0.049024705366789996, 0.029584872854126344, 0.038902687632380174, -0.011095213610521756, 0.12480949746151189, 0.025482996891948828, -0.024680782514910377, 0.04677577421636482, 0.010194032361757702, -0.0570382913455941, -0.04075042221731428, -0.08463040932189995, -0.045711097217795746, 0.04347471629430796, -0.0052448089997433655, -0.004424509916616881, -0.010046345959353912, -0.041341825457747734, -0.053623705184101304, -0.051957175341841, -0.0008948705509645693, 0.007953156520597733, -0.056144850309071924, 0.02570233054228946, 0.057646034756345416, 0.028538010980568174, -0.017047752391536133, 0.038631891082094846, 0.08448448112721967, 0.08883677590276241, -0.02652051344551673, -0.027196540439206243, -0.027027983138092886, 0.0684290304389504, -0.08226106428487578, 0.01559201877650299, -0.01738480446288937, -0.004425335522395145, 0.019036886335349334, 0.08667948027765283, 0.03530457345562676, 0.029870979800665935, -0.01809005302065038, 0.06761241323454283, -0.02376196516517801, 0.05420647428962418, 0.001501577648301914, -0.011079766039947644, -0.034991866005799205, 0.022919373589567638, 0.036043682824864955, -0.03350017978777483, 0.006048528946100266, -0.03811929720605074, 0.04836800769039388, -0.035354303823364235, 0.020170783221691278, 0.08757586166697441, -0.020311499874733758, 0.018557664141626642, -0.010056051247598822, -0.007139570562698143, -0.010144345419813312, -0.02170209258188602, -0.04931439108282138, 0.005910807843213991, 0.06404991488715382, 0.05922212215231994, 0.041652253064281844, 0.021311949207225223, 0.041028072477912104, 0.08191985778304463, -0.003910331926504603, 0.03603238498396444, 0.08345128955305625, 0.06811436876025535, 0.04081416169883715, -0.0806390705781694, 0.0162326780856575, -0.06130823209907706, 0.01802776746423684, -0.0769663103630522, 7.691410798938203e-05, 0.037191765156455385, -0.03998008444540527, 0.03985132354914388, 0.09249488676004257, 0.07577984933280399, 0.011265970841093608, -0.06589435101704896, -0.13913926872786495, -0.15888736948231122, -0.10210000239431487, -0.08254541116974153, -0.12795614304544697, -0.04678842668637263, -0.08144251287790184, 0.006858911334985917, -0.025043563315160375, -0.05670241656276127, 0.009202323172073498, -0.006237033155992461, -0.002284552863104499, 0.04555161385750321, 0.027955827094683642, 0.06312935031350358, 0.051002652506161726, 0.04616832710912697, -0.04414509042708797, -0.054643141441055094, 0.017515722558430768, 0.12269883049541931, 0.048217966020322564, 0.04542563786111341, 0.09169064398623843, -0.022769276155264643, -0.10551217111186606, -0.08666576918833986, -0.08549313877611711, -0.07357856272839122, -0.17853086930128972, -0.1344528576316346, -0.14065302560353732, -0.14058854185559158, -0.07081536517503423, -0.11543372122797849, 0.0033314910622671843, 0.010270240030573238, 0.054579138110022234, 0.045111140155234083, 0.06537330639787113, 0.050703210924931554, 0.018058395414510205, -0.016460449212371765, -0.048378419924053506, 0.03401202501435376, 0.03657740878803277, 0.032832056235061954, 0.024763601922952985, 0.05549938180200132, -0.005242552469511753, -0.0018276704428456512, -0.04113577562738536, -0.09979891090511722, -0.05265733643085297, -0.010640785738364984, -0.08897641513455207, -0.023967200447991607, -0.059269637666634324, -0.04849059516340692, 0.03567925663282858, 0.008915013526516259, 0.10283337742429281, 0.06943281096564205, 0.05069472826291871, 0.024767730830634504, 0.028194131820069666, 0.04074093732791275, -0.016524057322774382, 0.013690172720348698, -0.0036554303836822846, -0.054142589426964594, -0.10215114012383453, -0.08914021108811203, -0.09307711123531028, 0.05707893558652443, -0.02000396524990733, 0.09861960160242797, 0.0014882827269304603, 0.041728608787225195, -0.05445609742834883, 0.02069153587056712, 0.023932896271347124, -0.09300679439109831, -0.061631932958258, -0.01712708781344222, -0.040351200455320965, 0.1085765848897489, 0.0889342257221559, 0.07400484667718585, 0.11597800236941183, 0.0349684929211916, 0.13941311417804453, 0.08759368685283743, 0.08829802506938035, 0.028264401593104917, 0.09891198147630272, -0.015419597724804971, -0.0647630896922281, -0.03216871454658922, -0.07889941643742271, -0.021088481584324647, 0.03672583780171419, 0.10611049997333453, -0.005610408690917269, 0.09646428067718656, 0.013554439911640653, -0.00688215423917763, 0.007332370456882544, 0.05131288048166242, -0.009998293982777582, 0.09578706762078901, -0.0008427830869560952, 0.04724113892244422, 0.09582019522598405, 0.07870728424156573, 0.07467371850056034, 0.15607092144378157, 0.15089535138413476, 0.06750282858996565, -0.03611090040442869, 0.0335758299083488, 8.189243271443371e-05, 0.01964436438748292, -0.006256544072043479, 0.017423692005402353, -0.13899809063860336, -0.10482138510301164, -0.11163529929648462, -0.051403459795466025, -0.01769301004828109, 0.11965913107400297, 0.0076052724443562035, -0.013269603936577059, -0.02349040948700651, 0.10750292284243546, 0.11544513741201974, 0.02032751075075184, 0.11141238058129364, 0.07985800615426393, 0.1124583399749554, 0.0031485562160672113, 0.13148790333492766, 0.06511115747851504, 0.04454499913217103, 0.10777763220237796, 0.0174670698280165, 0.04574851424454245, 0.0445777101137518, 0.038103322665110226, -0.005900891869450677, -0.07509175144626805, -0.15839378740588603, -0.1583536594737754, -0.06645371519352479, -0.12349236376837727, -0.12280403200743643, -0.012796169643787866, 0.08066928951224193, -0.0018071878072331137, 0.05425885206930337, 0.028027097106739042, 0.091160706613958, -0.0420052093072887, 0.029871181129034977, 0.0637453478455731, 0.014149604516775195, 0.11742197593356268, 0.11197661651983858, 0.01372615746830787, 0.037337703848064355, -0.013359322400644127, -0.04197375791804947, 0.045371782236018274, -0.0071992595255174485, 0.03551482001657219, -0.0020436097362214268, -0.0979274411135251, -0.08605160269613867, -0.16826287122532443, -0.11405650263078185, -0.18762820010307651, -0.09828661221930532, -0.13770978422741462, -0.07957005142793253, 0.07797401649225491, 0.10143447095373975, -0.009780675611927865, -0.009704766808485442, 0.04732404055065139, 0.03976881168293636, 0.024748087254134257, 0.04194292248034327, 0.03133671150746478, 0.11523505597607107, 0.051068655710350394, -0.034016010765317746, -0.04951796236407249, 0.0022153179531556174, -0.06885522564590721, -0.029610615822159705, -9.002356394678955e-05, -0.0666034252245821, -0.015958238946942028, -0.12238048178949745, -0.1306833665408211, -0.17357311208815907, -0.21014343455997914, -0.053514234378849106, -0.15661362329773978, -0.04396968472246335, 0.06203691992983358, 0.07728330861534244, 0.04755866111385569, -0.033189108317985105, -0.005750868318911139, 0.12229498028121179, -0.027796709601601133, 0.014153148413442257, -0.014986590180312802, -0.022392142199587652, 0.0073351507779229, -0.004689195191107983, -0.038252158281067705, 0.06256883113036697, -0.10332455137933443, -0.0748600143504636, -0.1454069878981426, -0.12084482916368203, -0.11916742972474245, -0.006918733254135478, -0.0785801867165696, -0.15067188287581887, -0.030197548673455987, -0.15869488141881255, -0.0962013343712782, -0.12627048756613934, 0.03641368553014955, -0.07243507825982373, 0.10511800000267728, 0.03844060610053632, 0.11978400839674236, 0.07678364962265868, 0.129037293892242, 0.03775273542163692, -0.009228852232911155, 0.08805244097378442, 0.011785674150409238, 0.03335736528883342, -0.04013713347591442, -0.0686758963974509, 0.04351855979547421, -0.003899919148592417, -0.05788809625405918, -0.15314056355515326, -0.11644639456306811, -0.14521374425797556, -0.18327603476578092, -0.1569850253652384, -0.10898803279988668, -0.048157747668244766, -0.11655327898931594, -0.011888717665678106, -0.008327488972833313, -0.07166458022396269, 0.04197595964406994, 0.12481621190953063, 0.10761497972917276, 0.09413880055859856, 0.04751999325134687, 0.03154173562834311, 0.07796506128580521, 0.10713195077920136, -0.015651003694942454, 0.03053413091036329, 0.010539939050237167, -0.055398678896093956, -0.016174290410372126, -0.0736704043698962, -0.08923927833164007, -0.025875865060465512, -0.08348451250494753, -0.10887448070517788, -0.11741934420605955, -0.1460305015692722, -0.08187866084902032, -0.05753159458537379, -0.11723791046618098, -0.05557858825621921, 0.018612509590626415, 0.04004091868162842, 0.08942680254867552, 0.045098463861593, 0.14516926410893885, 0.14604885425027017, 0.11805443551974916, 0.1345201971915537, 0.1335985767684752, 0.031814404441219774, 0.10931121527391736, 0.06207870391393964, 0.11398453904402917, 0.08107419354279526, -0.028699856757398466, 0.022300249584457543, -0.050109140311461416, -0.04175363449630406, -0.06662191922031997, -0.003915663920962606, 0.0017673031629145397, 0.05071934019970986, -0.09116419471838698, -0.03577048179430675, -0.11743343635173574, -0.09541428005683292, -0.08426974854164926, -0.05467549893850264, 0.07557508150579399, -0.0068178208604894085, 0.1620424531836734, 0.08665611088699095, 0.12645435426951215, 0.0745280153893706, 0.037292636414761306, 0.07738523525835289, 0.046556329973628886, -0.041336720442738326, -0.027699712375985935, 0.013848252330745141, 0.02802659425136824, -0.054734183278011536, -0.10640877470943853, 0.027016650962865613, 0.006020298401314586, -0.06914856363721426, -0.08676440101615031, -0.12398744945821003, 0.023055247718377442, 0.036130948340353464, -0.05414949101777534, 0.007950741683562019, -0.12407772823995043, -0.012608693198317637, 0.024592113810086132, -0.023748564711410465, 0.1323070377732112, 0.13971917854202806, 0.09721644790506383, 0.06811162786040867, 0.06003485664924289, 0.032205769419602605, -0.0009412040748546232, 0.11255087403194716, 0.07265593353772778, -0.053706877775442086, 0.04557851894851514, 0.06125909568471603, -0.04082681225325627, -0.011845819061006626, 0.06033372977874228, -0.053485133157903944, -0.09554851677925169, -0.03585677156981014, -0.006924065396623892, 0.015119094092186348, -0.0651156196131216, 0.047562567716511225, 0.032256606058308726, 0.033123946264288544, -0.03940413425630846, -0.054854131116424946, 0.08485513324271864, 0.08477245319669001, 0.010111199017481896, 0.07731427227651629, 0.031283086462461855, 0.04181580473456698, 0.023993346624531245, 0.044905115634099116, 0.06792185714908223, -0.02022360054210424, 0.04767127397486603, -0.031161200306088696, 0.041371650154962594, -0.03122887234422474, 0.02104668712976835, -0.05002347860927094, -0.0582772552408818, -0.0833480384173822, -0.0680672931638103, 0.0892439004166774, 0.07238872215353262, 0.04437135532644418, 0.1178126444954984, 0.06149412902476968, 0.041731842628605104, -0.005878231673817627, -0.011758996088250593, 0.08694068597904359, 0.06325653432446036, 0.031819865038261085, 0.07940380294901317, 0.0903708662970369, 0.06379177853063651, 0.08151780943100566, 0.0535311430179792, -0.006121085679154236, 0.04665975228118781, -0.028683492262304842, -0.07790223900380984, -0.07283940369690749, 0.061720977704690615, 0.032524309746799734, 0.006053350442540652, 0.03876977755752431, -0.0374114725692937, -0.06442016542821206, 0.04609771313716085, 0.06358435082537821, 0.15534402362488375, 0.168581343681746, 0.0686648775097352, 0.14913252710819072, 0.09524347650212656, 0.1475762697921312, 0.08939199126341889, 0.1216122564982419, 0.053725394896811836, 0.020266268563703903, 0.018524521237315003, 0.09061242924256906, 0.028592917802085158, 0.03551249982435057, 0.02051926785475432, 0.031345320498642006, -0.011391618179785588, 0.0036808361041853555, -0.09798349088589503, -0.04903169764058531, -0.04888824188947839, -0.10405754692323231, -0.0505162222455284], [-0.05712430769822515, 0.023823002710577537, 0.03275439252800185, -0.00042867303362915146, 0.07681735501177768, 0.01837959073073662, 0.11644057530525964, 0.053805776316126444, -0.049387916762071896, 0.057362488211742786, 0.0448398173411722, 0.0331136530124835, -0.08670040608736662, 0.01782144724744512, -0.03963927485593461, -0.02388714969527133, -0.06971178347700134, -0.03781999116213841, -0.028855885240185144, -0.02811246949974461, 0.009280577474013134, 0.09450341777494417, 0.006992987399369152, -0.0012400681500342623, -0.027427877560624973, -0.05318540524230302, 0.04539663967475311, 0.004799146818653128, -0.0389060511532871, -0.05478966536301308, 0.004741751593103731, -0.006424304098213687, 0.04089189025945544, 0.08440460904676726, 0.04397522437438019, 0.03153505677203712, -0.04831281636186224, -0.025602639296403926, -0.047071004281807195, -0.054228914790198736, -0.05418116122334721, 0.03191032351502909, -0.02653289613174387, -0.025267526782992537, -0.05618655622873806, -0.09355596867609288, -0.021531813953566577, -0.00013453529708150086, 0.018003348496249308, 0.01841215894813381, -0.007960609879582985, 0.05976460277946601, 0.06846216942438679, 0.04644441544992329, 0.08879179595219674, 0.049447530469947945, -0.057319858596271624, -0.02859953325135601, 0.025758288995449106, 0.04926602454674984, 0.05863479030449712, 0.0836645760954469, 0.02646366218336761, 0.05118050580689208, -0.010607023855865367, 0.018792754091114815, -0.0437050903126041, 0.008656436249614593, -0.04987710006257034, -0.01790854188170915, -0.025886396948696915, -0.03329325691918103, -0.0643821507621172, -0.022419635813991295, 0.006959738282699738, -0.06756981783651769, 0.07536498563531638, -0.030643726137328447, -0.021067455054060172, 0.06541085860306467, 0.022165576636022834, -0.04743595398170226, 0.02721325370129085, -0.010110912450127017, -0.07495679762300379, 0.08131778278126654, -0.04859275958711695, -0.022627461921622016, 0.08383927542227622, -0.008394121237244569, 0.08390390813506855, 0.0649960990504269, -0.01493460761456025, 0.02983018802692625, 0.040560230464087556, -0.11064451004676033, -0.030606714319531898, -0.08345696874857252, -0.053990507147849594, -0.10685099344463046, -0.07728569234081839, -0.03621648029136775, -0.07748655850589935, -0.0077254912776393994, -0.0038227819980889088, 0.07812242693642697, -0.03794604640681967, 0.08132892982913714, -0.025178114072429945, -0.0025724800274296326, 0.0887525623779906, 0.01686225837832888, 0.0021399576745204105, 0.030037797319911314, -0.029330174152058953, 0.022107021847213505, 0.025747520077301935, -0.011308300553836914, -0.045030140686359056, -0.061603309603599, -0.0440874408575611, 0.06331490234084677, -0.0702597655802026, 0.027589857300166814, 0.05806963128279302, 0.011499978291462059, -0.017430171447178094, -0.03814196952854464, -0.09292289983027562, -0.07549594264643242, 0.02260865578959736, 0.0400918124789367, 0.03807353375043128, -0.023609623461206142, -0.004011392609802897, 0.06259789909370726, -0.03855876526717016, 0.09740320092138421, 0.04618630121828787, -0.015560457098555653, 0.03827178590321505, 0.002747000052485209, -0.0165652179537095, -0.022161426077595258, 0.0675898033826456, 0.05276115639459254, 0.010442431462380832, -0.02632511819165895, -0.08017327833384864, -0.07482145736196034, 0.08450396134829777, -0.01626006742645239, 0.008940406269826276, -0.08668267236585256, 0.014912634147847548, -0.06991523045806636, -0.08471491813778859, 0.009418861546834134, -0.08368230814479671, -0.05800392313844424, 0.00867223861369189, 0.01162728305117836, 0.04643393881944582, 0.012839329087406398, 0.01951294096554411, -0.04961770936055615, 0.08284874645484584, 0.0582740962504276, 0.04009685812139859, -0.007277679411885307, 0.05175731673160168, -0.0004938176594816296, 0.0673161449097466, 0.023000254103677096, 0.04153472025399551, -0.0006796835541305775, 0.001968507122431315, -0.008606325773391153, -0.0031599144129670713, 0.08399287631352802, -0.06280959375726221, 0.06250876326638553, -0.013658484434100572, -0.04129478504635456, -0.06007695624498835, -0.031173790203277655, -0.023693334774016077, -0.01839850704876148, -0.002260467219509521, -0.009142154832855333, 0.07490444160608373, 0.0638914538358059, 0.01577046588731838, 0.11601387409244013, -0.023050929893123275, -0.03228051107549197, 0.039554254379713424, 0.06305770343637694, -0.07229248864877008, -0.051768158237085575, -0.015288915902960406, 0.035533854240024504, 0.052707801535794394, -0.0599300855925896, 0.029434742071478556, 0.008052418207284858, 0.09244775067642502, 0.028150306021196378, -0.0012518965354778623, 0.05821724176041407, -0.03256173489621198, -0.05015405636116726, -0.0040784670946601735, -0.04495231610036669, -0.056953576076024935, 0.018890150351975204, -0.04277137571949355, 0.0861447631746109, 0.041674048636645554, 0.0193688139395, 0.07606619650138129, -0.04689863788507762, -0.02556510594764437, 0.013594692633423982, 0.0161803929525165, 0.05764574251250505, 0.03235227475631011, 0.04547929015703974, -0.008179696989247, 0.058659235300437526, 0.0641297468225586, -0.023334572620372453, 0.06415734807483386, -0.004412367161834321, 0.042922817441105404, 0.04492220561585692, -0.009326003259154858, -0.023696589895437516, 0.02047338266098013, -0.044119925071349125, 0.01396809918127142, -0.047655061372440695, 0.0122443268227049, -0.02130034216009456, 0.05245097598606182, 0.022991095201134414, -0.06792068310855526, 0.00872746345922091, -0.011474566599954833, -0.036359231502291645, -0.03079569832538638, 0.018172128380003733, 0.02588094478320807, 0.09143871833639079, 0.04954823514634634, 0.07683538309710979, -0.007405871874652677, 0.05415062676010903, 0.049246081021554595, 0.05945224451057825, 0.10119237593575965, 0.07425735072986164, 0.08886146862609308, 0.1089367228386023, 0.060108861180018285, 0.07236835680415489, 0.048006398189533735, -0.049035222239086705, 0.03151895239801236, -0.022910063015336858, -0.05724247158716939, 0.03742574617568188, -0.04861532665321445, -0.02812570353182288, 0.054393403079990306, 0.06642480858874682, -0.01459328743881901, -0.04779141144306875, -0.019637568263832925, 0.025754100386946484, -0.04692539183479197, -0.009675834000996832, 0.04706570622679195, -0.03210026054596599, 0.010983975478567823, -0.05227804946817439, 0.037019405459557196, -0.004726234768999819, 0.0300736923547188, 0.038802870042924584, 0.06760950822141282, 0.07057860280558693, 0.11957254576819147, 0.06601828604645996, 0.11597476780428287, 0.03579789155700251, 0.02027004023377254, 0.043312807901723434, 0.051370909172984064, -0.008488308712120744, 0.028454267452363922, -0.007905035775019668, -0.0331870455119566, -0.09131778906739162, -0.037618374961483736, 0.014460463985644184, 0.03131482936690906, -0.05076847172167679, 0.017436927563560783, 0.01030279668035597, 0.04393221573934984, 0.020298134873586948, -0.05222310537000436, -0.0016487784361262185, -0.08409756016320843, 0.024024876247874836, -0.005653737358129168, 0.08688806780748158, 0.06465262324732646, 0.04462185223144568, 0.01499590538258997, 0.025434823579147742, 0.12333415472739208, 0.04894217398362277, 0.07500812678522764, -0.04743960481228081, -0.04385942312709147, -0.05914938567787643, 0.016599712793218344, 0.019905229511950985, -0.006582152293155981, -0.00889889877692839, 0.007553212455881135, -0.09568140772417384, 0.0003301372771870311, 0.022396357465720357, -0.018502845980525155, 0.07418451815616435, -0.031133115959666814, 0.04337885285168344, 0.07163396489191179, 0.017432448720128304, -0.0010616247438013015, 0.011432004653259184, 0.04995953864570014, 0.09136386128927539, 0.009043259573358775, 0.006448120908999148, 0.07619569010694778, 0.0015454496990336007, -0.025682276411796958, -0.02715956739140205, -0.010825207352263864, -0.01978027367150461, 0.03491698787437137, -0.06444001486239527, 0.002477592221434769, -0.09863898145231782, 0.028630942261584393, -0.056336050921251636, -0.04598089339332759, 0.004344545342818779, -0.01173503990278969, 0.10402584285047793, -0.05603124321409386, -0.01712541439828101, 0.12218665466750385, 0.025888620062531304, -0.044400362052486306, -0.08491452091652246, -0.03751449975473494, 0.021465065114744008, -0.0016287991187305035, -0.0691092169948844, 0.026252309463340225, 0.022197938434060385, -0.0004234956974445011, -0.021637609995890716, -0.002625624681094401, -0.09565065634494133, -0.04625860643922426, -0.06152096571554525, -0.05898119721147948, -0.057038754110366144, -0.09648472769842407, -0.007452875836117523, -0.00849160064077802, -0.10383842980460328, -0.04075643587156746, 0.03187028914630371, 0.06461937513386018, -0.014608590989778339, 0.0552919219507748, -0.04442176108554889, -0.015353705148857645, -0.004733835759029169, 0.04785817927110421, -0.027871869122301156, -0.06036359319683635, 0.0026737965536394715, -0.06832898642322564, -0.011154127547242522, 0.047123550629077804, -0.04316520841305635, -0.017848720216514596, -0.05764170356109548, -0.03699184599433263, -0.13904904282445205, -0.040842388929441156, -0.12757780205266703, -0.036272412054617315, -0.07469011829508172, -0.051764746581217214, -0.026275199689599835, -0.13465883541678145, -0.07702455836777557, -0.13629754944227315, 0.00413525465492843, -0.043759257814042295, 0.012977619962666425, 0.018336956256797935, -0.017946230329415794, 0.04512885462633853, 0.08277552859472001, -0.012832536553936666, -0.02432934738234676, -0.0892013298846136, -0.04100794360679504, -0.019570392870193874, -0.024026276489252964, -0.0017775612402594612, -0.02539850853302304, -0.014591518352829074, -0.04295889956576948, -0.09994613618996721, -0.09326936103104082, -0.12340584804591408, -0.11290976099226778, -0.007045496085084607, -0.07638933222925139, 0.002504618441167471, -0.04389832891514323, -0.021643282745598656, -0.07895142795323674, 0.07239560608113807, -0.03318529939569398, 0.06421117724412015, 0.10329594523984122, 0.06995987969952475, 0.04190220465435099, 0.0955381584358128, 0.02266594509018171, -0.008432295271754642, -0.014998677463950312, 0.02468524396395564, -0.10662775082634164, -0.07571533933224582, -0.1051613795749264, -0.06837880041743029, -0.04461914105207362, -0.031715695211138824, -0.04314507016577296, -0.15140464525033628, -0.07073022885501877, -0.14568073663029432, -0.07919861386078474, -0.045353788319782595, -0.004671173498923343, 0.01048302620865055, -0.028333720898164313, -0.005160693924421015, 0.05327979061039855, 0.07206632259133931, 0.1069098635542543, 0.05400203902935613, -0.030532131871524138, -0.031377437644343406, 0.07635953804127513, 0.0024279910557356314, 0.013614982683913967, 0.0015609509301625925, 0.01727645231137955, -0.1252375765887398, -0.2114675562208035, -0.15071250586103235, -0.13400171583434264, -0.12435531848654434, -0.08428272801859207, -0.05427422365830265, -0.06350787099580245, -0.07747053007981622, -0.17571638157474165, -0.06662029656319855, -0.07016933396313972, 0.01685750129448784, 0.08054999624943836, 0.06897266437797374, 0.08450795664818034, 0.10196956389948346, 0.0933658398537705, 0.08975842005709361, 0.13251938530283555, 0.04549547798786835, 0.07229580685824319, 0.07657083771176143, 0.12867415142741692, 0.06205662731758204, 0.0423471181500695, 0.06293486421686699, -0.03337163991341112, -0.17899260884542934, -0.28125775749355625, -0.33624873673925887, -0.2623151075793798, -0.27378774337910156, -0.11391287583763135, -0.0595892621839738, -0.05182652721052666, -0.1379955141284394, -0.14292731031451317, -0.039079786762013256, -0.00689145636998505, 0.03829879955116488, 0.046324013266986, 0.07180988273200686, 0.11452471995612815, 0.03332435274554451, 0.011194768477736731, 0.08105716172989443, 0.08216943151790619, 0.11165066476679295, 0.0006970316482168631, 0.041435812971837835, -0.01899883770296673, -0.03977026611913475, 0.05840852715907831, -0.0763946476001361, -0.10906251715152478, -0.11993755524154337, -0.258710911390928, -0.23624163923406633, -0.29857940580422515, -0.27280279470710783, -0.23370978533519027, -0.26954749299185066, -0.2951130588745131, -0.24710877727320824, -0.12142065618359607, -0.012408899232462859, 0.1114512196051235, 0.0890999832232709, 0.16534556468785555, 0.14584690854372384, 0.10014120076666153, 0.05238144929260038, -0.011416792071546425, 0.05918086105610537, 0.03741514230554974, -0.02928323237958783, 0.07235594455872843, 0.08826773968148781, -0.0420362585245643, 0.01297968843522671, 0.03585002612577095, 0.016997034960602002, -0.06905049023293632, -0.07047961998282501, -0.12800784632803877, -0.18793215935098523, -0.20514173642371997, -0.21649605801538993, -0.24821925124442792, -0.24840550929944127, -0.24478931984241248, -0.2033037121412662, 0.030864413584761007, 0.14989016349358888, 0.1535007125640082, 0.14820862364182172, 0.09513091175309646, 0.10822074577548457, 0.08648133743536783, 0.09047984779208247, 0.06474799854321103, -0.023833398630347676, 0.023098438889936807, 0.00042774849493028565, 0.00022288094328998907, 0.06919080199392807, -0.057325364163424264, 0.04287525461596503, -0.09265784954099517, -0.05441121051823744, -0.0616489829587552, -0.06468777018916679, 0.04451008097360826, 2.222346453443805e-05, -0.07674397467874801, -0.10178558924698258, -0.0965314469168436, -0.19520185394258552, -0.07819557773162027, 0.05808312369611532, 0.18026564813493706, 0.26471534449362094, 0.15150131244313722, 0.16269306493198707, 0.1263858550482491, 0.020842438119012194, 0.05740622974788134, 0.041003890356778774, 0.007966198250084747, -0.02037511203834499, 0.01398837053339108, 0.04699434136543292, -0.032397919570211806, -0.03463563234128764, 0.031514618742305496, -0.08301647754359268, -0.04287152737409784, 0.008171026399309089, -0.08630649912083216, -0.05918908143002929, 0.07724930614593828, 0.06430410614162228, 0.07943690105515117, -0.03159377158137187, 0.020315681280928005, 0.06536072778650504, 0.12078822787447419, 0.15999189588980545, 0.13893980526783314, 0.1624748330990545, 0.07492070728727698, 0.09817943593012289, 0.027176684233158412, 0.06805222689558911, 0.11377566591752407, 0.017705003046359347, 0.031532511349769685, -0.04146922639277563, -0.11303529368100455, -0.07738154975073235, 0.01787199001866278, 0.006113490502325861, -0.06986873402671168, -0.052932110760699924, -0.10193615929505204, -0.06701533549590519, 0.003141314524185026, -0.01781448657871794, 0.08464623867106086, -0.03353208966111947, 0.08492249302614165, 0.005586106062464594, 0.03142445348783095, 0.1119653881353322, 0.13142234871286965, 0.11783077135551838, 0.020152693562635954, 0.020230176558035315, 0.14812368343408097, 0.09759853081908537, 0.0465837125716519, 0.04529816299855021, 