{"wji": [[0.10145582894887072, 0.1100662447930623, 0.07754040323960312, 0.007170620393954212, -0.01949205006556618, 0.09051672471405914, 0.11582064178464437, 0.002853123065684424, -0.012397919315666741, -0.018174467014830182, 0.09266613625907574, 0.042902958888507786, -0.01609704825444266, 0.030720918703420443, 0.01354443980296708, 0.02512739996496068, 0.028493116136019275, 0.07599869668302413, 0.02681259133860835, 0.027430835439768195, 0.06397504102125391, -0.027037198540700323, 0.06438493068737322, -0.0444712597067357, -0.03487336981136088, 0.03162419256376822, -0.03496884017542337, 0.007534305438463942, -0.03259843276183166, 0.038479914999019586, 0.026130223388955397, 0.017777388522257895, -0.02917272133806149, -0.005466974606254685, 0.021551177835750692, 0.0017681890035082671, 0.043769544232860925, 0.021349323449057375, 0.0260014635201939, 0.07510348108079187, 0.013693572707726042, 0.06034553378475019, -0.034343611614938103, 0.0669249680800679, 0.08986185028411568, 0.07269533517314816, -0.021128785828456228, 0.022080379170750508, 0.023242591497097644, -0.011163357743640457, 0.026534362939016468, 0.020943079046615038, 0.10194820171964498, -0.01871628964900941, -0.013907345433227988, -0.019092404058202075, -0.03430072288624442, -0.019887569212068176, 0.07080073352281709, -0.0202155945684873, 0.08444075261649424, 0.07634375410789597, 0.061866525959813665, 0.05345984905638963, -0.05308908411342294, -0.029442194644341804, 0.06603934428576852, -0.049082113402543925, -0.0029546988827296567, 0.02165866254522969, -0.04865414446162876, -0.029832308812300444, -0.07782468382027422, -0.013986275722214423, -0.01411050404782689, -0.09445044826989982, -0.08924299663102035, -0.04325038842385003, 0.06373073017938018, -0.02329443025193189, -0.0011993104557328146, -0.007612616415457451, 0.06359490077677549, 0.05208671395877923, 0.07196871933373797, 0.07031170252486697, 0.0030418793995548605, -0.023421007373943765, 0.024101027007741176, 0.06889461757266933, 0.06568889878072777, -0.0366238845380817, -0.056060830113919644, 0.012317513629836121, -0.03250466061810028, -0.09760455448418602, -0.0035566272047045443, -0.10710776557667864, 0.0020367777282105856, 0.011506592920747336, -0.027110146327201424, -0.060895692788270485, -0.02543990355191358, -0.026343637165289913, -0.04009990805222611, 0.05909321861742447, -0.028996216954014598, -0.02794502987895718, -0.07128641529438023, 0.011934469539766292, -0.016540036458204975, 0.013784766123608008, 0.05038875258580058, -0.024684907729694474, 0.0217989407603705, -0.05142272485624904, -0.025138419765328258, -0.01342300826465915, -0.040125122327963315, -0.06823552714056044, -0.05781844360328547, 0.06424708748874795, 0.014139518717264883, 0.056092558139991436, 0.031095544306633728, -0.011580234830984807, -0.03641429764232913, 0.05272236927706595, 0.07505439332235415, 0.029856480375637342, 0.065352315625552, 0.008168079287834605, 0.03317813326674423, -0.000989631468603954, 0.007452559097217883, 0.025932404697670774, 0.014432048816774502, 0.016908011927633016, 0.01981627981420172, 0.06584723989017231, 0.008371193224163834, 0.07429778044023214, -0.04693721810254496, 0.03512534431186692, 0.03342825446638146, 0.01871793076166901, -0.00537136103491103, 0.047785497285827976, 0.048879213188247665, 0.037434758107714926, -0.040034546144229105, 0.05714184606930719, 0.005245779290633363, -0.00026725594614339853, -0.02177983564375405, -0.019238233543434145, 0.04367890199514581, 0.04434667797913449, 0.0022740689361409458, 0.012534096106721649, 0.05240556303566985, 0.018602576218421867, -0.05473316857385827, -0.06372502850814515, -0.06126930528742578, -0.006200315375015554, 0.008501119218863007, -0.03394366225754827, 0.01265468575485016, -0.003010879991283336, 0.07705032496136371, 0.06317964039097408, -0.004375992954149579, -0.056078052469400536, 0.04805356775721843, 0.06540116753485709, -0.03342615352619454, 0.03849108439853739, 0.015338987073256415, 0.019295076453979074, 0.059636831344370506, -0.054168923805479406, 0.06925581277069714, 0.012308094912315921, 0.05167398332322508, 0.053191793454424645, 0.08631691729663477, 0.07892847402164656, 0.00685091909071776, -0.014469195373309287, -0.05622345056149973, 0.020862365169210414, 0.03052117834738659, -0.012539820654738533, 0.000764996108041704, -0.04400329604495008, 0.023205818593200152, 0.08558017319891784, -0.016509318023196665, -0.0064515947238348035, -0.008264239866106955, 0.04427214517194693, 0.01297635821839305, 0.17158490314749514, 0.12849748582165024, 0.10135319928053368, 0.09952521804266026, 0.09078193873607754, 0.040245596623938944, 0.11924313108697764, 0.13092687780991252, 0.04214164370008393, 0.0714718392840285, 0.08865794881927881, 0.044546375125320246, 0.03616887064552632, -0.029532545120311192, -0.021184917321538856, 0.07352277947718142, -0.022709100702351583, -0.060010120552480166, -0.00031132871788175094, -0.08936067076246507, 0.0710756233743434, 0.09895262554354521, -0.013263219774070734, -0.01024998282841419, -0.06356089309423782, -0.01757264395379721, -0.00022940766275531942, 0.04318162522387719, 0.08385095604363442, 0.08006220197761121, 0.12038102727169375, 0.09380795688018684, 0.16481633263459655, 0.16603563398102647, 0.010385285594387847, 0.05214999138636593, 0.13268326825398313, 0.046282475040430156, 0.10278015490831902, 0.07809530008653684, -0.005759044585664589, 0.014467781623415422, -0.030344861778570154, 0.0027925339701825344, -0.10951247043036501, -0.0924693207982182, -0.0875784092867735, -0.06194167738443665, 0.016823153450938367, 0.0691975907982985, -0.04646389906294554, -0.08015959451337293, -0.03902479676802221, 0.012306919733424621, -0.005985048030346045, 0.1298621801781743, 0.1423851831557362, 0.10628002260934442, 0.1146293540734302, 0.06693411425302004, 0.0226231378653968, -0.14711383936284164, -0.25330232686616855, -0.2612929704323014, -0.07174824386601215, 0.05635185618594728, -0.031197848586445934, 0.032211560293160295, -0.015148626472072234, -0.0333153772173568, -0.05730019327265907, 0.03725867458997445, -0.04842402547620794, -0.012114640765843407, 0.007673175351707298, -0.07859384495262776, 0.05361929485944566, 0.022970353995799716, 0.049485224700741966, -0.060911005667860035, -0.1465680740170743, -0.08078628269644865, -0.06602511681203266, -0.07420262686269066, 0.006418648805096995, 0.007005550040819849, -0.23034116646185104, -0.3010532655366095, -0.5528473661766289, -0.5070125632268216, -0.5032847923482604, -0.2864648467952356, -0.1394215233205626, -0.04508658071156376, -0.04215357675877576, -0.08151212170145322, -0.0007127199289452528, -0.11683894952235434, -0.01806470504986605, 0.019481320048263456, -0.007457818098174015, -0.04805039214424353, -0.04457953766875492, -0.045968999021633754, -0.06592534981999199, -0.050798354525746506, -0.08228044083098449, -0.040028462377610145, -0.058013137390370444, -0.16271945620926803, -0.16757077931031245, -0.25768442740107317, -0.3428878932752175, -0.4786057696489385, -0.5146288014890379, -0.623362550773652, -0.5357093200707794, -0.20155169517326696, 0.057657711878641944, 0.059769993780675705, 0.03524604552333639, -0.058833025739075624, -0.006224617164703648, -0.03653241064523006, 0.011804981709346527, -0.05150989335854269, -0.111267264257989, -0.053423376821221794, -0.013500582354714788, 0.005986214292238885, 0.012942711024338678, -0.0017251005312673992, 0.05306344617321215, 0.07239508029513278, -0.02781077686596343, -0.1575720714200305, -0.18222366993624195, -0.2586614038239336, -0.3452696381593559, -0.36277872481599066, -0.5489709010284035, -0.4790628778395956, -0.5900279957974541, -0.17249637436321844, 0.041143473428936865, 0.14521837642950977, 0.15242057365179268, 0.033266560477354115, 0.049995408942586715, 0.028470972431015727, 0.0008035771459510064, -0.037415164800207776, -0.06511296508919173, 0.036405655829599204, -0.023569116309207615, -0.06717992238968397, -0.07137515906716728, 0.014233191863157689, -0.03777267112615358, -0.03207393190381469, 0.04825234235011999, 0.0655298122938452, -0.040431300907632216, -0.18258697401759696, -0.22252850981379438, -0.24413898365454834, -0.33428618130778337, -0.350861187684673, -0.32450819534569153, -0.1399729533859388, -0.08898514471308853, 0.14452055028233607, 0.1566356193658837, 0.08432913415037799, 0.04752065527345887, -0.039515626421619536, 0.04746691389597368, 0.10896080460960746, 0.01736272298749385, -0.04733916998019596, 0.037218426734714635, -0.047407151404709344, -0.07376513425715123, -0.0795249538002537, 0.03617252103754632, -0.05333523907247279, -0.04883897437778561, -0.02984318879260383, -0.08259752943326466, 0.07060286862779061, -0.0780871886243494, -0.16011337668465073, -0.1263466492817215, -0.10967353961008534, -0.12316691227777272, -0.06537140014849607, -0.0914073621853455, 0.07411579514352691, 0.0860768867654886, 0.11150072325112616, 0.07680131666371168, 0.018028443136080062, 0.08226948697459782, 0.10365088213685986, 0.058306222741039825, 0.06174705868366779, 0.053936713553256375, 0.033425930524229826, 0.022761227725028643, 0.02319767784620459, 0.0707853101154872, 0.03701976278799955, 0.025521462221345118, 0.029320902517263766, 0.011352416413491596, 0.05991863119225182, -0.036094111872214396, 0.05769045088608896, -0.0022397077907029606, -0.09146426700296709, -0.0522548504784321, -0.04499112236415396, 0.020133835363792613, 0.10999414089395498, 0.027694163500679363, -0.022102259538406974, 0.007836634761305833, -0.04538150953849066, 0.011131902598862585, -0.002401102961541586, 0.04328619356552464, -0.025630429103448777, -0.005322339009680544, -0.041595045238147305, 0.00023695859210489157, -0.08278041311967575, 0.02230049333397179, -0.058032908122340306, -0.00180627827091696, 0.010436570665146023, -0.032084392410772176, -0.02906771366688337, -0.07722194411401673, -0.049209284662342555, -0.017525337295579223, 0.023341628181051812, -0.07584375715248146, 0.008785729379327268, 0.04339582743592619, -0.016796045846835122, 0.1473237497345312, 0.06933914968024223, -0.006142062085658265, -0.1333530483013984, -0.02476129292355106, -0.10096666304298486, 0.06462285581499598, 0.059659086043949414, 0.05291123753677338, -0.0008730070353757233, 0.0006899900907569092, 0.049127650342474176, -0.03536647008139535, 0.0370073321867272, 0.05792489372858737, -0.004008016091612294, 0.07031938842956376, -0.008902594214467768, -0.046495847830168156, 0.10236836290742693, -0.0208063897031276, 0.07961107250331961, -0.021151461597835174, 0.08987186866621923, -0.03370147100650103, 0.045133980396243105, 0.03356426694340304, 0.026156660685495797, 0.0998649743572045, -0.1048636606157496, -0.13240017805251533, -0.06339924059032694, -0.0695720807360423, 0.0020332858482763295, -0.0010391486751725554, -0.04257005529325495, -0.07407938950562239, -0.008049277687113604, -0.017149733289934466, 0.004738604854115386, -0.05846324291119393, -0.0749994665002972, -0.01656678917097313, -0.07905104484925682, -0.06094909239298277, 0.026907808887433764, -0.022800117334272087, 0.08525692742670503, 0.030862335882004627, -0.04967487263707563, 0.032889206795134865, 0.06981787955217422, -0.0018628227942592186, 0.04746244478967534, -0.027496807870923318, 0.017606651554579893, 0.0006772270153279514, -0.022678065011650664, 0.03191292291873035, 0.019151122678671143, -0.05942040337373498, -0.01812394794501656, -0.12710607622136333, 0.02114413382645249, 0.020659703606530053, -0.01290216214085683, -0.00557026160621402, -0.03688812791736611, 0.05191300815225392, 0.04434988811295677, 0.01369756272227082, 0.008719595176289048, 0.05801822233076632, -0.006874590606855559, 0.012387450569486341, 0.032422137942584035, -0.013418639593672559, -0.028920522182487453, 0.04301162955501065, 0.0406783636928492, 0.05721331686615665, 0.010193253774332256, 0.008392730704874087, -0.07227905626302693, -0.08930710165324798, 0.06623729133123177, 0.043481019668885776, -0.039212049144302034, -0.001490274500198293, -0.05645915995781897, -0.005403279426698867, -0.12159654844655, 0.02298796157214541, -0.11225366516816955, 0.014274851020330142, -0.016380091325717563, -0.010316033886935168, -0.035142679849984024, -0.005092105987669406, 0.021408623009569965, 0.006522904617939028, -0.0028941362997060406, -0.015332523369557156, 0.02998046080921788, -0.022728235253456575, 0.10166722490926751, -0.04126663164369214, 0.017952782196849534, 0.08386476103382363, 0.09375765188176725, 0.07525608634930794, -0.09569746457333671, 0.011770209584391265, 0.037030336909154825, 0.0498612646782111, 0.04448062378604864, -0.009254089856868293, 0.0158598292094, 0.033862559411906225, 0.030758991090750094, -0.021683495398890702, 0.07681524119371809, -0.026958551349380147, -0.0727440340897171, 0.016634474659132373, -0.0018853807372525833, -0.03594305292824752, 0.002954573984226731, 0.0020730130139892627, -0.014918070197283622, -0.027284253282895517, 0.09721575720610415, 0.06468703250051362, -0.029760405521927834, 0.07420227570728158, 0.10398109195987046, 0.08518604135517321, -0.004831492703538857, 0.1021628039285717, -0.04475775343706206, -0.023412685193058756, 0.029941679230251685, 0.018309017558388346, -0.030728901038823277, -0.028119964151296476, 0.013604181933622889, -0.06972720197887207, 0.00171762871274782, 0.017118211176681972, -0.03340531596964623, 0.05436647088001913, -0.043388539834023965, -0.0286908530094356, 0.05808166307639245, -0.02575447233090363, 0.04656001773311895, 0.05892924396176969, 0.019492894229984466, 0.09667721190626313, -0.008090900863030912, 0.051293473820168994, 0.013454685513226207, -0.03337317022866582, 0.042275728273159084, 0.003275164658254065, 0.01735837832508084, -0.03835009743098544, -0.024763836056111127, 0.04985322291111088, -0.009837963846169735, -0.07350897626529859, 0.043919445668310915, 0.013589808541871464, -0.019292302355630578, -0.007932641184793403, -0.09953062800448191, 0.03645361780906248, 0.01432935106600308, -0.002087527554673686, 0.04653295332602433, 0.01442289118572211, -0.026027462824096546, -0.004221471171537928, -0.02588795095067121, -0.005049968725385316, -0.06424763123322144, 0.08553219720598744, 0.10308781620929806, 0.09288469757539632, 0.028078966636529624, 0.08798558447813615, 0.06789801684214025, -0.011070337103975978, 0.057014129023778656, 0.03696267095983737, 0.04363334601825915, 0.020891456958122535, 0.0662065645955068, 0.03219352222371215, -0.012461073781890026, -0.0029266019315960616, -0.010208314175312148, -0.009443056098329461, -0.034518644628708316, 0.009511813393142892, -0.061610138814762946, 0.0269995492002203, -0.04633278435865119, -0.06491486289534365, -0.058423168944478264, 0.053574378219958196, -0.08125204830432374, 0.05052246942418222, 0.05493908064475978, 0.0637180607023959, 0.08193657103544222, -0.042537687084561265, 0.055002708556934586, -0.004921355520097944, 0.05420109699349171, 0.07631913934981509, 0.01992497657125696, 0.042264179381263846, 0.018726093276343066, -0.014802562023514581, 0.02334955296992956, -0.029181179374470918, -0.001735660043220061, 0.09758439648510822, -0.02731283619570365, 0.021732150159858556, -0.10989570615945847, 0.011012656552677911, -0.022962920387320666, -0.012551328739406547, 0.019969893238091774, -0.03212065717665842, -0.01673309141292837, -0.018122816570107485, 0.00451693941678168, -0.06068578094447734, 0.0346383175911836, 0.06465436355946776, 0.012452613683095293, 0.10872708628302763, -0.030590580033944617, -0.008595458938155252, 0.05941293684457798, 0.024428000140595763, -0.030275346422731633, -0.029484621511706593, 0.09940788549883404, 0.050221477167144826, -0.04277287976623996, -0.027115555198293003, 0.06861609744512819, 0.08885046837377872, 0.008827619038544041, 0.006741072071909215, 0.10487986134644742, 0.004557234960741068, 0.03822710742902015, 0.02445640215786721, 0.057127831988254565, 0.008850334787319575, 0.014379403640608013, -0.07692438349725114, 0.07002412913662112, -0.08241651888400771, 0.00659326891946262, -0.05068114290838333, 0.048219665658727554, -0.013188732436292667, 0.0375415443641469, 0.007259864134021278, 0.10254101278642978, 0.09081678397706575, 0.10406892996626509, 0.06005798329616528, -0.014383727549946544, 0.017314079547596624, 0.036941356998038785, 0.06066518353380639, 0.07273666043347751, -0.0214083230408158, -0.0022928873474510627, -0.04642951465000219, -0.04094168302959724, 0.045243817333119926, -0.046273668451347776, -0.0052566467548527855, 0.04700359471968896, 0.011649010792653378, -0.014075525992615854, 0.06388140251830558, -0.04921657677868483, 0.005929880778830114, 0.06646302418423086, -0.017839330886319504, 0.013039424134045723, 0.08467154972285446, 0.013088818375338944, 0.05860743435707727, 0.00700885925279894, 0.08710631908196169, 0.0386464201658489, -0.03747341702285547, -0.04032527748032988, -0.02576160806018578, 0.036300139081957436, 0.006927958093072835, 0.016599989047527526, 0.04930456947344761, 0.057918452956141224, -0.04730335469548646, 0.06893235363157382, -0.029294065351467804, -0.002092658341978246, 0.007685340274358085, -0.04187160037997472, -0.023781790244304525, -0.007688103461193273, -0.054103479789249086, 0.019183967045047837, -0.03227553241354558, -0.037817332243318624, 0.033569825562273205, 0.04622635224745993, -0.017034813560249214, 0.02363687189476135, 0.10136092226429509], [0.07268943019040225, 0.059139958089735815, 0.06191130961299611, -0.030871067630772932, 0.0066209882968326335, -0.05862136306264399, -0.018894788848510077, 0.027246275489368168, -0.005090264782606175, -0.013747354696676572, 0.04038280292482798, 0.054965893877102795, 0.0068659840292284125, 0.006913885698602209, -0.0409876041748915, -0.05717423745775966, -0.0719546613169627, -0.01675037081797051, 0.055041866184862225, 0.018497136280851634, -0.06432912586062832, 0.03945110200908248, -0.026604488454634163, -0.037586759190597896, -0.019219520708892174, 0.09727650968733724, 0.019900382612432377, 0.05049611741679734, 0.09896036242241542, -0.05474797009501592, 0.06410769445037887, 0.046767037138185724, -0.056232052536470206, 0.026584784470464737, -0.04083312050804357, 0.042207305857301536, 0.052997144839919214, 0.05154486632802336, -0.061912481006762186, -0.0018114289785191346, -0.039634210649317866, 0.039109188900571704, 0.014113440922413038, -0.0921179956007175, -0.06732297288761219, -0.04218958802633267, -0.048854426160014064, 0.019139690033215556, -0.020307130480858693, 0.07246511808026168, 0.08191671482190607, -0.013444761497668118, 0.03557857907899411, 0.0163894766556329, -0.03577458221575865, -0.03238581440560552, 0.0821555834129049, -0.05350884919337628, 0.07164314271846892, 0.028437731999445038, -0.04235016391229981, 0.04360564228904106, -0.04371909565974681, 0.06479881029750863, -0.02484304277769392, -0.0015406208601697077, -0.06703792627496273, -0.07217701095805444, -0.07926216135287993, -0.07312386405626786, -0.11545604702241685, -0.13057958948315973, -0.15204656076259906, -0.070525133703446, -0.04846293023008913, -0.08881443436408899, -0.051814841910718244, 0.024791718457187306, -0.06584109843591233, 0.08718201119408718, 0.014313244487355638, -0.03864406357626415, 0.06407266365817718, 0.06219354121090984, 0.03990821974720746, -0.004382182727546726, 0.012691798090033452, -0.041048613358363274, 0.05745163372928845, 0.012972680846572245, -0.005598336928959292, 0.03387299186856375, -0.009579135035264147, 0.010670810858366627, -0.11576421574439003, -0.11458286301974607, -0.04210669839151584, -0.09230079042858738, -0.053710564838828696, -0.08600661654555615, -0.14107914423594167, -0.10123030516790929, 0.040216047739830854, -0.043128919867613615, -0.04318524338486908, -0.02583921382028754, 0.022858225614448436, 0.029091164250417294, 0.060334406373647495, -0.03554049791157584, -0.010549247201812495, 0.026996945284496775, 0.04108512329034862, -0.04650381606994076, 0.09571339396276626, 0.03511775653174417, 0.007400895490948693, 0.020173639869809173, -0.03516235022082971, -0.006920877959016664, -0.00045059125675716525, -0.008701147837022197, 0.058875855366343634, -0.010523860604847175, -0.03458171348589107, -0.13009005003241977, -0.09160068284668807, -0.07109896615801449, -0.16040415956412715, -0.11366631107843944, -0.0990700509541306, -0.01619840139188417, 0.017940785376775556, 0.025290616377252235, -0.05007922856782623, -0.017555928985419095, 0.028783866756256125, -0.04085159749120636, 0.027226584453684272, 0.03110586968952484, -0.04224277202701022, -0.01399727359567784, 0.05622195822248121, 0.08754046287093559, 0.043151362270666016, -0.04071866947339234, 0.0736398023107037, 0.01610663466238996, -0.026667564192225317, 0.008147322687486261, -0.01728240859159591, -0.05029310729436183, -0.0905178594672415, -0.07542607120534213, -0.11426891675013233, -0.19259345999855557, -0.09059013079088662, -0.12004318071400726, -0.04543006759523575, -0.07209074497255419, -0.027375723316887403, 0.0356934096995083, -0.056576614359843326, 0.10463180891222822, 0.015342705635776721, -0.056325231798764634, 0.0605223010704892, 0.01599260509805938, 0.014376375409983416, 0.08398118052422203, 0.08592262927348406, 0.0346998654381809, 0.04798637788930002, -0.05705514053083792, -0.08584708650586947, 0.03349752319158473, 0.01558949410215562, 0.027983395187403507, 0.08797765716632981, 0.005349053759852283, -0.013446001222994415, -0.018991961492532187, -0.09578852049243015, -0.023740745284681092, -0.11679508335194715, -0.10978057691513254, -0.006468504765091044, -0.03518805792183591, 0.018543875869437218, -0.010573322627844264, 0.023616102103669937, 0.09590301860350227, 0.0696942810261001, -0.023293204753837393, 0.05482957425020062, 0.08447916980414101, 0.010880768775681914, 0.015225489578689983, 0.060363614810042286, 0.04873248030539248, -0.043945496039826885, 0.014982551995166677, 0.019010495809449603, -0.02126383683118278, -0.010080167016205682, -0.10759991833172462, -0.04074433327051229, -0.0697043322606678, -0.0042830415476489145, 0.00023692143553448062, -0.0802249356360692, -0.07119963100905825, -0.05421033155754732, -0.12836702553666765, -0.008323133192140642, 0.03248991364586593, -0.05028566972027556, 0.015962030690544873, -0.00830926337523507, 0.08722514737699204, 0.021140232656496928, -0.06898089584218547, -0.06843752456803757, 0.03305988765621194, -0.056474679236109236, 0.062301230131716887, 0.041654662656554556, 0.00879632820720597, -0.0005786586796390059, -0.02507876016328453, 0.002281801472106739, -0.013257942439293806, 0.04115962329600104, -0.10680429148186932, -0.044379590679989235, 0.010332557890997678, 0.01628088993449769, -0.02442568497998327, 0.00271409355494023, -0.07595641466559865, -0.15589987876151376, -0.12469984584359636, -0.09729823817918674, 0.006595095068903433, 0.02669811295242819, 0.0724104559699346, 0.05648286977203631, 0.030580286048236233, 0.009948713314419867, 0.08356507279032578, -0.05760384661456599, 0.030913266452545676, -0.01566427895560592, 0.045822398373519764, 0.043800074500055665, -0.027775265409651004, 0.05396296855000712, 0.021124046288141435, -0.07965735861545509, -0.009412405143175562, -0.04869016472502669, -0.0027429256965861818, 0.015064751341862305, 0.027182415045670472, -0.02656321038963461, -0.032180048132132294, -0.028422993910128157, 0.003344066343823111, -0.09560953931850943, -0.1094037800327055, -0.011514089960259107, 0.050227161141676316, -0.015204395079776523, 0.0527386197134478, 0.07108006773627075, 0.07028017888185749, -0.02539996406408872, 0.017335397234667885, 0.030939577717945133, -0.006594504454134421, -0.016535843808546176, -0.03850004671509759, 0.0399351904125957, 0.043863678299649045, -0.06620534162908866, 0.024636789933812762, -0.05284657798006838, -0.07889975441688589, 0.019612455700753127, -0.05219775744091632, -0.014646828075265227, -0.03855002434191961, -0.003096652147165577, 0.08250657234812084, 0.027992157880047067, -0.16924192016181167, -0.21384479114309043, -0.09900696056176138, 0.06027753185145379, -0.024972788584587034, 0.0026070098949633365, 0.0953867623401097, 0.01575058202531086, -0.006879062217589952, 0.1261387354055644, -0.003494974340974523, -0.04391712388884124, 0.034175974327467225, 0.07966908781762552, -0.011347353552089358, -0.018891349634245706, 0.0708038855501152, -0.10223003990104097, -0.0042976883673789545, 0.04454888923624641, -0.11892580736652998, 0.003333221847324943, 0.05804306752470004, -0.031383082618915245, 0.026580176214524694, -0.025931874889093636, 0.0450190721992585, 0.005309490307253739, -0.11064438591743672, -0.25440396578254487, -0.059680337889282654, 0.08728940279123855, 0.029481134917550306, 0.059847416404814946, 0.04309394557946494, 0.0637432883760457, 0.08602511879509615, 0.032111749639092434, -0.002741649327822442, -0.052341062765016606, -0.019333384637287423, 0.08967687552708632, -0.03554956699085594, 0.03793653006040487, 0.0008700103201327978, -0.0739407347873107, 0.026008854164250413, -0.07654088710822339, -0.017764105570497537, 0.01253212235446144, -0.0689065137029188, 0.0065699637433541905, -0.07791224867896628, 0.01822464392778982, 0.03562188519571301, 0.014250736312617526, -0.28517117030726824, -0.2613129819299359, 0.008474686780328124, 0.012481368895965381, 0.01859669392041397, 0.04882400535971819, 0.04279755584885242, 0.07729351206957243, -0.03841501064595778, 0.10351645434063284, -0.010360452682087882, -0.05993754050244791, 0.053164593735666996, 0.09954297265172889, 0.03694568837533263, 0.05810975277319807, 0.03877312357825727, 0.05709903381705369, 0.07562284041029825, -0.05614868113433367, 0.08554022100714331, 0.03952352733623491, 0.027423834340296584, -0.05910176371978751, -0.07018345357303127, -0.034639154596234026, 0.056980007389060866, -0.12844531644081042, -0.3721484945657151, -0.1922127054363004, 0.12152587404453269, 0.1027080292232884, -0.010888644150509434, 0.002985763309201786, 0.12934056169776698, -0.019309683876923306, 0.08939401430872584, 0.13416083581338092, 0.036250558035859054, 0.0645010618357917, -0.050700151323213705, -0.05030358488052854, 0.003701780156692611, 0.029449413463865856, 0.008831115611417957, 0.07342329357044414, -0.03776136618242203, -0.03938292596200921, -0.02893418758559306, 0.09434619439789509, -0.04580091662954896, 0.054603249309868596, -0.0701773413318858, 0.056287411391691224, -0.059544382768140565, -0.24981294726937026, -0.3866243629824659, -0.00842327378719745, 0.17899209236256708, 0.027896368577357007, 0.1683874938503093, 0.04513964871181853, 0.08508269092528645, 0.045384742542757726, 0.029325881405408916, 0.012784981825480799, 0.14683231571137456, 0.1275653689885001, -0.008830579310736662, -0.04363165383098345, -0.03505021434924916, -0.03330919990178115, -0.007546127550125554, -0.033596662587377195, -0.02259479109517454, 0.025923492941659184, 0.02234016651031249, -0.11970526138825541, -0.0013807502721931196, 0.04448719060650221, 0.06049512024705214, -0.05846900267813288, -0.24604350473175868, -0.304750781043648, -0.176358677008746, 0.20895285799503063, 0.23667563135254624, 0.0874217758593944, 0.13187631636362168, 0.035030761134854004, 0.11326493304870389, 0.02213982346005089, -0.008008667983156035, 0.10047363518273855, 0.059560442541549415, -0.015846023726036596, 0.04728555484808343, 0.024902600188565327, -0.029573277582402382, 0.030996623241607624, -0.01932749974955411, -0.021108208118582265, 0.052184204542440916, 0.01141477296029141, -0.00827262649204672, -0.06662966416711459, 0.0006327812802855197, -0.008093095796731767, 0.041942587204256296, -0.18075393562811426, -0.29850152645674916, -0.22309829389233957, 0.013418969385535565, 0.1748381880611868, 0.19062283322926807, 0.06117689935066026, 0.08064397765376646, 0.022554257389024692, 0.11994085202278894, 0.09053997533390427, 0.025850679797733183, 0.10525087923112324, 0.02856131425550107, 0.0401649111992825, 0.05470123446322284, 0.08216028797228316, 0.047983514823508294, -0.09645894149163718, -0.06819052041188983, -0.014137308674571903, -0.04226246823342024, -0.07180006907904204, 0.03851141447438497, 0.03160723166005878, -0.052419836094321284, -0.08221726748476262, -0.14095891543553804, -0.24959068628497214, -0.34493740082915014, -0.0006200029883652481, 0.17329375138980616, 0.1899421276092381, 0.1388736574969754, 0.07745705316158238, 0.0693105851047528, 0.058363888425006345, 0.11298941467773711, -0.0041190429106708025, 0.0728268704026587, -0.04223161017214376, 0.026218282024927545, -0.016683041045945802, -0.014489313700619401, 0.02345937822788385, -0.03913821602121276, 0.02889586633102095, -0.07598352710589155, -0.08599843466801994, 0.028687598866747026, -0.009051232841664798, -0.014755802905553568, -0.06288920253690909, -0.10408543981345102, -0.14808830722137542, -0.21499101171850518, -0.2754164695863414, -0.13916327123379466, 0.1039283827327768, 0.12812756825466387, 0.1848683913334031, 0.05604406257671989, 0.08882893010365814, -0.02136750748576437, 0.06701891267546398, 0.007831201802870247, 0.034490424816520544, -0.014568999731567321, -0.040501275446693207, 0.06671692436153363, 0.06764022585459434, -0.011900044103335065, -0.009570977121069062, 0.010646925293541986, -0.10365632296973205, -0.10047738923411742, -0.0024166394049617633, -0.025501867711279876, -0.05308170877325654, -0.08018411933113491, -0.08914248845482287, -0.08745047386389031, -0.20185138229478453, -0.12373490337221407, -0.1069843348959492, -0.0266933951638749, 0.02881947217861638, 0.11274010429191285, 0.09005082226247316, 0.1314969284889515, 0.009857166369001464, 0.10329626096011957, -0.06334874860422693, 0.10665318553336292, 0.007563490513461009, 0.028553713267902764, 0.020577163823632505, -0.020891280690394427, -0.07409665557832712, 0.07863946258199388, -0.038232810114131585, -0.06319415270446468, -0.0715724272797741, -0.09958023529376848, -0.09235171617125947, -0.12702343677539638, -0.05800655446968722, -0.09457668685077265, -0.12759987049499005, -0.18118952137971928, -0.191352085754835, -0.13008584159692652, -0.10078719192477396, 0.02934540694573654, 0.04417048728894378, 0.09213275117528594, 0.13518193058629027, 0.09723005612940393, 0.13830892993144886, -0.00971261813043543, 0.030406153450683905, -0.0074707051734756984, -0.02861701109264508, -0.053605276013300764, -0.030930967960646795, 0.040236905077152905, 0.07687370463217817, 0.0061126478614092535, -0.01351647409592437, 0.012545673863029268, -0.04819115815003621, -0.10054249322978648, -0.0314497626009507, -0.10925749049497785, -0.14625928955811035, -0.05601576542866265, -0.14118988115947279, -0.12286472188945022, -0.12957662547275603, -0.05145130910001562, 0.05325211158537705, 0.09099645382144567, 0.04767344145541701, -0.015678083580617636, 0.16169899453199932, 0.09755160441919883, 0.1839609923906681, 0.049363843508523346, 0.07027131506947258, 0.06283833006421331, -0.01432844439692946, 0.03793460058381781, 0.03035397163276585, 0.0427417942161527, -0.009314779328387483, -0.051778687767113446, 0.06148735234553016, 0.05211020483887839, -0.0021572575805244515, -0.02337383904534848, -0.07840584605642152, -0.1798742697163913, -0.10322133894252565, -0.17685063344769372, -0.1103666759794846, -0.18491443867236473, -0.0018290454806339973, -0.023152823201172967, -0.015626169103113492, 0.011783550365369898, -0.04584585008212779, -0.0014256685554031637, 0.02854718600461325, 0.05658462210147653, 0.024885864691829244, 0.17762846198309076, 0.04315741402922848, -0.019268353641990445, 0.02469363264340825, 0.10270860224253203, -0.008879730916064595, -0.04607661938887363, 0.005480341374628715, 0.005164489462538745, -0.04225824061501016, -0.0802158635628052, 0.0023132100760879662, -0.07418152458340482, -0.160967152199299, -0.07552916162278552, -0.052645000687741576, -0.10991649533978178, -0.06543632718715556, -0.09655082815804757, -0.03407723233284146, -0.05935559983327063, -0.018945699755298615, 0.04568665070552825, -0.04148695582636316, 0.007185314983646737, 0.1311178025459052, 0.07929958950875005, 0.0808246326598709, 0.059275240160066404, 0.11827789074407175, 0.10658867149053294, 0.08459710777499418, 0.003384735710235927, 0.0034908046480850567, 0.10782556067592544, 0.07101333961869133, 0.03830669461856623, 0.0031201189112274913, -0.004687614554026315, -0.10162675923802537, 0.016280700369439016, -0.012790894163483564, -0.09878571730149664, -0.02125795579049184, -0.03105789470717177, -0.017548032367534307, 0.006459310894498178, 0.021134576160937064, 0.03248673782334712, 0.09912285192752686, -0.0012710752223256594, -0.05239206683336233, -0.06426412614170249, 0.13572077904525606, 0.019401439858396693, 0.012747832507864792, 0.1726863149921157, 0.10498232779666476, 0.03351398829066666, 0.060958480676929834, 0.1039580703540549, 0.11070552630078657, 0.025699274437472084, -0.05071611009897967, 0.07316200386881844, -0.03051247919908128, 0.08144981043521816, -0.026121973867926893, -0.08241169857264836, 0.009508653118728417, -0.05118741355876947, -0.04174135555420839, -0.10646710475685342, -0.057177034222081966, 0.051454747886928894, 0.03368870592564892, -0.0038006857016403346, 0.029036233685663975, -0.0616285668388347, 0.0038515691115876736, -0.04487865035976477, 0.010606256303083988, 0.024600353958727388, 0.03455587139922468, 0.012466861718235023, -0.003791273704975603, 0.0426755752869643, 0.041850051877457765, 0.07794526092043366, 0.1051082762789314, 0.07479799951380092, 0.10033509597526716, -0.01733435732784245, 0.0227509012084004, -0.009251555620552064, -0.05765759847439395, -0.047813625346021814, 0.0029169298213283807, -0.07700168190616594, 0.014751837472675023, -0.010061628954881394, 0.01843708184727915, -0.03404004833045936, 0.02201469302167451, 0.041441222127872566, 0.033789488409078604, -0.04320905791418706, 0.014446181466397243, -0.0064429761431223816, -0.06504844138723624, 0.044364602607353094, 0.02040094094242177, 0.021406457800442317, 0.09750467821887263, 0.08997303845187893, 0.10201840805336142, -0.009586886411062746, 0.026565830473081725, -0.015495635161644993, 0.11089636666582942, 0.1021758677778467, 0.08026232425324724, 0.07152035118805541, 0.029523988804126745, 0.0751636328416974, 0.014824667065201746, 0.020150358540244984, -0.0038876330900242495, 0.07497549793408957, -0.01673743107821725, 0.05333579864058183, -0.011287334464033804, 0.0034713362259757912, 0.0592655445293477, -0.029999591153124075, -0.06876636043037312, -0.005361886073314989, -0.0509613132673834, 0.04260525602645023, 0.06784427121955716, 0.07427372371425985, 0.01678235413468888, 0.07263663899651171, 0.014996843511092726, 0.09016111480574614, 0.11637821069464603, 0.07345605505987046, -0.04398819394242564, -0.025348085801566014], [0.06853553742350156, -0.07181963818080274, -0.04670883554085434, -0.04054085301183331, -0.06499617475020535, 0.014147750028984418, -0.03238051996746236, 0.04154179389224743, -0.09449024552523141, 0.012433553259152014, 0.03817610799632997, -0.08450460146309378, -0.09157824940406165, -0.06425937116400558, -0.03721925847752958, 0.022744975805930163, 0.027648979483878428, -0.024848661985932326, -0.07113811883071472, 0.03987422752310547, -0.04702184814574015, 0.007419335516228803, 0.05206785953910994, 0.03372655264689839, -0.0037080594367191843, -0.015307666753289083, 0.01933446952640943, 0.06459328593669644, -0.061999182716747606, -0.0028321153779829727, 0.06517124554749817, 0.05734636177286555, 0.03947404747744406, 0.02979090545091005, -0.040946957261439834, -0.08632042962841847, -0.08847824075984943, -0.10807112784725628, -0.058297190892676, -0.15508666550021907, -0.03489772202616102, -0.09850315582433085, -0.10455415340833542, 0.0052830569587016055, -0.06979618550558034, 0.06042853283238974, 0.06632211587842664, -0.06379994624760316, -0.01748225198153627, -0.0597607347601311, 0.062421886936438825, -0.06096921502720577, 0.06019781772077581, 0.055309899648499077, 0.034675841181964165, 0.03827952905150286, 0.07609636428397988, 0.07677745441342204, 0.040931641684652575, 0.08499869922816417, -0.030170914150104616, -0.04538410109416766, -0.03042456298958017, 0.02815606669308118, -0.046413629789198024, -0.05795880769891709, -0.1161656009045982, -0.08203193912689476, -0.12306743791595044, -0.10690784706127984, -0.17782740894067747, -0.18718630086663873, -0.09844348929270205, -0.16084122079615545, -0.055432287060333395, -0.11805235486831181, 0.0065438051527016445, 0.06104437558549399, -0.03537072474611101, -0.006248124107718696, 0.030092566165477924, -0.015975153249622783, -0.06684874292658102, 0.05356349114467046, 0.05980534808666385, 0.04807921358234783, -0.011670988020563733, 0.00790265433667258, -0.009470481359578339, 0.09149020824691957, 0.08057404207018713, -0.008990818863219872, -0.07484346869733645, -0.0845216300681921, -0.03599843689378855, -0.08493590586185222, -0.16101134201869277, -0.18011963410475293, -0.16909803097377069, -0.2651188777627501, -0.22509034173448464, -0.2383846985836816, -0.17829149955745874, -0.0878681734401621, -0.01059550437017436, -0.0977927507205248, -0.004240568929330379, -0.013244122647590109, -0.07007084710594054, 0.06856058905587827, 0.03271892893540389, -0.07032598200621444, -0.025453037869075323, -0.053234277433075856, 0.01364567626963949, 0.02745723007340904, 0.010434151181924482, 0.07351673658890216, 0.12102456893782923, 0.11344997937071377, 0.04158897754579535, 0.0473007587138573, -0.10245486988887377, -0.04775511016394299, -0.05687117710616595, -0.03351827827404436, -0.11333914779951682, -0.06035190526665854, -0.08797619334546378, 0.009797307893143556, -0.06970049447812138, -0.1401706526081912, -0.0950999181099547, -0.0375268398814039, 0.04715747494351922, -0.08340837740185766, -0.004889028058022972, 0.0033381949194372282, 0.03238158215419671, -0.06750767869262508, -0.026258420309504444, 0.016358463119037256, 0.017347809086331146, 0.08868387643259795, 0.09383111511458829, 0.057810493202553694, 0.21931396420389326, 0.1559717230384068, 0.17325923444534466, 0.17143866200990115, 0.09680691555508539, 0.10701271958237693, 0.02843922958533396, 0.047119441563714115, 0.026670149609927557, 0.01674609362876907, -0.0035349727284056673, 0.02953835330704913, 0.06408287800336497, -0.025566531617519032, -0.034761704169459895, 0.008504644663448536, 0.06915146791341911, -0.07061049977622642, -0.016812922131836317, 0.0987617663268355, -0.02331263210408006, 0.006142604540877729, 0.0367922418494641, -0.036795014379786155, 0.0783321145524695, 0.11978234467975503, 0.08086937287535367, 0.15100532628954186, 0.12140228411882148, 0.12747499458882916, 0.21121506569029622, 0.2001787957476489, 0.17119992459788994, 0.08136157253240221, 0.06277512774388408, 0.046543689385342306, 0.058289986919251136, -0.02678608822995185, -0.03638938193155876, -0.058797094354242393, 0.006175548678583391, 0.0823790839726641, -0.013047749408911765, 0.04223954055625524, 0.028162501640795284, 0.08216032201749388, 0.08103879475398039, -0.023817735528421913, -0.0067321258616480405, -0.006382231183656872, -0.005263769448492428, 0.05496938750318604, -0.045491315206618387, 0.04060466042364285, 0.010861515963606993, 0.08563987349102528, 0.02851740049885694, 0.13259403412935872, 0.1424204912457586, 0.17400872628506767, 0.1787503523890416, 0.2246339791981925, 0.1716022311354466, 0.07815152477444898, -0.001154559607648226, 0.00681968588196589, -0.03738613825742557, 0.05179292624297859, 0.023111854633316248, 0.013905907116970664, 0.003911007764964822, -0.011792235706089407, 0.08655314135087701, -0.01343349876904123, 0.05033100103331578, 0.0796527800229958, 0.04530470951149235, 0.05078987898375869, -0.037036221442387884, -0.005941813380727912, 0.015051933062546806, 0.07251661695417705, 0.010807648202476048, 0.052442822937145465, -0.046132795511314044, -0.004670418934116942, 0.0011034365387022577, 0.042459621580225995, 0.15276876431795416, 0.11921849009700611, 0.3232042984060501, 0.1509629983152929, 0.23577683598508706, 0.07013773553877954, 0.0518716428158615, 0.08425672404980102, 0.03524973329005306, -0.013812792281110604, 0.058784767169563684, 0.017164761421880715, 0.11701737666601608, 0.002817147626453458, 0.11775453416446348, 0.042819638919515825, -0.023377386520500625, -0.006169824122633726, 0.04408058490799037, -0.06256885222954264, 0.0025367367915786827, 0.0029822939943579567, -0.13531251822670112, -0.05701732876322964, -0.1556897068128696, -0.16910070867675323, -0.12434643878250011, -0.15773656103810493, -0.11878219677723674, -0.07415838362458148, 0.08096624906870915, 0.21641332511818995, 0.18850383794440795, 0.0783720894017193, 0.15874137302434396, 0.07987368850880296, 0.0848332484940854, 0.023884521524639202, 0.03369806703598559, -0.03837634335964684, 0.050403018024688544, -0.039536972324076484, -0.05533662134191812, 0.06711906595799527, 0.0007110541357159217, -0.04776246803792958, 0.04123981285878971, -0.08462549408413601, -0.09140745007024403, -0.058550307279224036, -0.13353691381774746, -0.10383409651543883, -0.186324321679248, -0.2610382247930559, -0.1913112066894245, -0.2145097757524703, -0.19297746684740105, -0.2386805907313209, -0.22979488242570156, -0.024301280960534088, -3.7494227583625275e-05, 0.16099497155361542, 0.18155915044031398, -0.00030035838974896463, 0.039042678009349976, 0.045053058287185574, 0.0780901087341022, 0.09741023399559198, 0.09174652373882788, 0.05162742997182546, 0.003749336006111716, 0.030843217907946186, 0.09013576413031929, -0.03355959425120072, 0.039250297698397, -0.02601941340790672, -0.14966493736324105, -0.20128964247083045, -0.14820208329753035, -0.2084876790748701, -0.19248115386635253, -0.14172037586820446, -0.19720802703165227, -0.15189511389350183, -0.04418446291313641, -0.056041898342800316, -0.11066117303427708, -0.05808957562340562, -0.11193548573257447, -0.015827683104960934, -0.04699004044119114, 0.08321116554991607, 0.021699507951359515, 0.011504665869753532, 0.03653008256601123, -0.05688392724302944, 0.023432604896105373, 0.004578569834472445, -0.0060873523901707055, 0.05360278039484464, -0.0007168398554470532, -0.028785251331046254, 0.013382925210654262, -0.055168361403981556, -0.09339995547148398, -0.08993272284729532, -0.12342799689581771, -0.2251713906673941, -0.11967029615352757, -0.06554175302611344, -0.03663798977449637, -0.07975996628121734, 0.06284268159938278, -0.015194531850190868, 0.027368137318780395, -0.10131017690901141, -0.09186445805742416, -0.061962593595824345, 0.05974933569080551, 0.020277353958733757, 0.12412149742466377, 0.00041479928572427896, -0.05513358259949827, 0.03796114276527906, -0.08426334802919429, 0.024530945396155263, -0.012154629286157698, -0.046309038139047125, -0.03820924366836384, 0.07927883111709756, 0.024038617852357683, 0.032389767124540184, -0.010901774101342167, -0.10685727848740945, -0.10521513290722569, -0.03998393259277302, -0.01866725653370985, 0.0202043538157385, 0.005566117572065107, 0.022754151771043975, 0.0644019964858603, 0.1035484578971063, 0.017685850270518163, -0.1117969819451457, -0.14828721164111525, -0.04931320569421868, -0.003431620882565013, 0.056187467803572685, 0.04396694963757844, 0.0031862080258171703, -0.0029632481564072933, -0.03852860202804082, -0.01728544314332086, -0.05392036241603034, 0.07129192833592501, 0.06135038001150829, 0.08401881917699634, -0.015857988224296612, -0.052770376553250925, -0.06141942129222648, -0.08219584585297102, -0.019849301510672008, -0.12692531885159003, -0.028766923504349347, 0.016468072834064502, 0.0658967101991403, 0.01617188244874145, -0.0543839573977099, 0.11093564373566026, 0.017136499144608634, -0.008599616237369044, -0.05218617607046413, -0.11844287597222615, -0.13820455804926454, -0.14033083425463433, 0.013667906414863594, -0.03376759416084273, 0.04388465269662298, 0.03770999723472766, 0.040988571209286104, 0.07544109252383636, 0.019433672679921608, -0.02205182703536753, -0.01157023189950528, -0.038467665988312714, -0.0496632626364843, -0.050834433483085334, 0.019091616947519492, -0.024636546873278407, -0.019843644665574155, 0.03173109509251172, 0.022434769350287882, 0.0642991618166698, 0.03640955595333215, -0.039820069612259944, 0.042061254777164415, -0.051067635468664434, -0.04676526277131024, 0.019229399627942182, -0.04389086203004902, -0.07325893650585948, -0.10022955890276339, -0.1846876237890358, -0.08635733937261486, 0.03896357293891662, -0.07182637260453584, 0.06782754278753779, 0.13747436559472007, 0.044866906657958706, 0.03956781279152303, 0.06699705800342946, 0.04193514099981151, 0.06101545812048873, 0.0020727250713337775, -0.03911504802520749, 0.029919979585888424, 0.05808175793778802, 0.044329903806974366, 0.022366799244578208, 0.08234642735802916, 0.027464607082705986, 0.022674947626173784, -0.03853630063319489, -0.052306565109208135, 0.0037380857860001247, -0.027574782110442658, -0.058220077714843665, 0.040437964493858565, 0.06470713200439439, -0.07775163993771239, -0.005161604122819515, -0.03832297141068418, -0.0797926881900507, 0.00017900775480790906, 0.057347643862822276, 0.014591076203154583, 0.05067269900218263, 0.054510337370528836, 0.00883073573535182, -0.0274040435907509, 0.09817727770122112, -0.008313847543873912, 0.029377193211716765, 0.08236885131711374, 0.07573296902312633, 0.11074275835430311, 0.04727102283498911, -0.09010441164241974, 0.023315685196310942, -0.01770674066790717, 0.07004586536839774, -0.03694433374596241, -0.0837635422679803, 0.0021075785339550682, -0.06606555419251872, -0.03902016248643156, -0.04990482175214667, 0.024926092916543116, -0.07923806298296218, 0.024964053368224635, -0.053776529742767226, -0.09437748138939425, 0.054398344882494155, 0.07551156636356952, 0.023043641368477613, -0.0037095959834868106, 0.058969428350015174, -0.04222021676599143, 0.03835473757157709, -0.05204861103520337, -0.031366621150611916, 0.05867834364507403, -0.03371091727285356, 0.111457715751075, 0.06571155090295248, 0.006689822468274169, 0.020330607375432606, -0.03426791398420285, -0.05039348917363175, -0.015944688982979332, 0.03901877857274348, -0.013702410608891024, -0.1019220727050952, -0.025369268392958215, -0.08774526983049812, -0.05074300594951491, 0.00730295269588695, -0.0012407373632989333, -0.09297734631407498, -0.04238591631152751, -0.06478632991076567, -0.010312813110867599, 0.04470885343484858, 0.08697737610522645, 0.05695609324317564, -0.0270324688741076, -0.027907261618061893, -0.04318254072257724, 0.0011105275649616398, -0.042187647003325834, 0.0001382693689412785, 0.005517398754779306, 0.06182102430046864, -0.008717633204956221, -0.0020359443005020304, -0.0582264469600994, 0.009555954189377696, 0.002187181364356832, -0.03597287749291509, 0.00990448365070147, 0.06776236198823035, 0.07325127650823143, 0.06394497544531205, 0.04638917397631602, -0.011809631979374817, 0.0557499174855122, -0.0264968738190233, -0.02013661912767881, -0.019741816964629767, 0.08062674357227485, 0.01474583947290595, 0.009571282552102389, -0.06569873278212889, 0.0631266473212329, 0.07028931778950993, 0.023228444681446796, -0.013849579438720361, 0.026916707426284277, 0.01588632784743722, 0.07693398062152845, -0.008014132947482563, 0.02384955790067524, 0.037154147354045326, 0.078743392099199, 0.1334763228892729, 0.02589656678588671, -0.07728810014760329, 0.05024664563137961, -0.00915862875330334, 0.09555841096345502, -0.009879076355830034, -0.009153858693513676, -0.05568496210325349, -0.010943686530481727, -0.12483208744850435, -0.007875013068602266, 0.013923731216167605, -0.07329556590070878, -0.10160382141767889, -0.05074992180086357, 0.009782143920722545, 0.03001698669755915, -0.03814658088772759, 0.0447990569974214, 0.01395445525563799, 0.020017102413113844, 0.059603180659104846, 0.07725192003197727, 0.015474627892979584, -0.054218440053154696, 0.020220967055297773, -0.06922986267783617, -0.02101641794230868, 0.04793884920916851, 0.016589768511226077, 0.054347520218025275, 0.05865549418778128, 0.05095803274271079, 0.03403420280290015, -0.08575606985822165, -0.04279890380863374, -0.026515741398013968, 0.04708345040715358, 0.01819478215799346, -0.04511403707485843, -0.11064649123704037, 0.02660663415205958, -0.04442243616128554, -0.02445248900882381, -0.09163602136226737, 0.01949384439400639, -0.07945181709893627, 0.05945824404148352, 0.04794454341619694, -0.015260892180925474, 0.045317634520821964, -0.050026738452740235, 0.02615627492759337, 0.03563767900986203, -0.0033274765706535134, -0.004754922055040269, 0.05208787803169693, 0.014659116015864804, -0.022264823553862886, 0.06784949389341603, 0.006455832915992862, -0.009663607037566723, 0.0011305338293922148, -0.0006291835804342828, -0.017972223355074958, -0.0222854173183475, 0.07236158488405198, -0.042057827909170356, -0.03943955850470384, 0.04168804469055136, -0.0467457963018842, -0.028294515551414, -0.022350424466255684, -0.05559944158553342, 0.005887129155749523, -0.03801594699445724, 0.08293823905126652, 0.039537934010287844, 0.08726348938624535, 0.031113198624314067, 0.05326719442822828, 0.046427937028022254, 0.0928686234299324, 0.07076761194427426, -0.01216423355321795, 0.12077281409078873, 0.06506760961539156, -0.0035667741999103344, -0.0697129419977603, -0.01633401577729301, -0.0320228547302979, 0.004002150523732746, 0.050503932497442436, 0.012059037226399534, -0.04317566961962277, -0.034521951512821315, -0.03436929067822886, -0.09200962400102089, 0.010244131822337627, 0.00877954024141302, 0.031025254727676685, 0.05999504378336485, 0.06670447806600205, -0.02130607645168662, -0.05966306290095609, -0.04329261740087616, 0.005864324382061644, 0.024783933225924537, 0.04820535057832088, -0.007354512925526807, -0.07488268272886943, -0.13280217502422834, -0.05423365181061223, -0.07863073792796002, -0.09209918240784529, -0.0337926339388132, 0.06824144178734101, 0.051317635174636625, 0.054710800759873814, -0.04807328795330312, -5.677401467908238e-05, -0.03749164642130815, -0.0816996647341174, -0.05096462882959213, -0.04439229533965916, -0.07637475009955001, -0.1069663643188705, -0.0037648061296833494, -0.08375647943373418, 0.033372690067351544, -0.08004818550940944, 0.03075436947668966, -0.0076879242228440545, 0.06418271565919927, 0.02629897755156786, 0.07790860505307631, -0.027955399249869225, 0.05930964328410893, 0.07308871549197898, -0.028119127961745646, 0.02084428204458405, -0.08167223532101966, 0.05629494314081736, 0.01504013992483002, 0.04832142452309726, 0.008013051363842328, 0.04628921008175404, -0.004821582680758956, 0.02635100070804871, 0.0365148380079504, 0.05699305185935875, -0.042521218770976185, 0.013553922637431572, -0.078585376201575, -0.047363317767884924, -0.021542797681281416, -0.018054510856747398, -0.044531413265977086, -0.015160261222319749, 0.04794902622778499, 0.02193232876802569, 0.01984345874431424, -0.02751293886174748, 0.059641557041447045, -0.09366483970558602, 0.01787276451222205, 0.005197088024369328, -0.05306894538068121, 0.04718242127668528, -0.03653553879085419, -0.002285597528987263, -0.01874328067818673, 0.05505876575146065, -0.004224108229235051, 0.08010586508886042, 0.09840048751690353, -0.01877628548636132, 0.015997575529395094, -0.0340415018378131, -0.0223427894122659, -0.08210512505702033, 0.017959022787601687, 0.012250008070042456, -0.03398694927061953, 0.018288306949350193, -0.000413043866375694, -0.08428060434780833, 0.011619874000634517, 0.053516355005745905, -0.05260493876416393, 0.026809456120001882, 0.03852057864708536, 0.032012775528745804, 0.07021819044099267, 0.0018889054726927861, 0.06118104317876878, -0.03936222143840493, 0.02571373597374714, 0.010251213519394621, 0.021108521816705465, -0.009912253341115044, -0.048306306444623665, 0.049650767161959874, 0.04988523570100555, 0.00899012061392185, -0.04707078354424931, -0.0807448052440234, -0.05002583760288478, -0.07704196891761327, -0.035446186930269186, -0.06042201842560962, 0.050058475176798255, -0.012976107038439044, -0.03380325001996417, 0.03211497123607599], [0.07361173822959229, 0.017992746585857165, -0.07172848365483298, -0.05036617701442878, -0.029483920881542895, 0.05003095910904078, -0.025973472905114214, 0.013722371260332477, -0.06006949796306158, 0.017238352959579855, 0.021449031844927153, 0.1024130405628919, 0.041114169312444146, 0.04902030612299052, 0.10108424618398912, 0.03366002893708767, 0.03237121926753359, -0.039583970922422815, -0.08852879351138941, -0.03029887387868683, 0.04856661356920062, -0.08214151947418544, 0.00841387811654504, -0.08614706792324141, 0.009749710492420252, -0.008268847865942388, -0.08190543477605962, -0.008542386921269353, -0.030359607923363625, -0.0012741379732934721, -0.044050530065412034, -0.02701746405589063, -0.04537464528809302, -0.022879463696320716, -0.014155580208182571, 0.016657330891856878, 0.08376153458826069, -0.012896124935703239, 0.0020374343872096015, 0.08567843925774021, 0.08656287940278577, 0.17733385571710888, 0.10590796321361062, 0.051949058865095314, 0.11446494135063098, 0.014352759176640672, -0.04864876194009914, -0.02018143840228043, 4.32706882014123e-05, 0.018330518529777996, 0.0360369649009048, -0.03445291640236381, -0.01719020249209919, 0.011252072693087718, -0.0764213613007704, 0.04920781545908149, -0.054637056933327016, 0.022609680183862196, -0.025549522772830822, 0.044055064684974846, 0.03129563810370396, -0.03738237505754992, 0.019068997397971535, -0.06420292770072542, 0.06255547744437179, 0.0732527407815219, -0.020224884651116853, -0.0019108059519261941, 0.17955848291462645, 0.1343373946320164, 0.18466410172169162, 0.050176372412983346, 0.044491012495092734, 0.012249457627446145, 0.03052703397053295, 0.016844189529523577, 0.02513637881202502, -0.06806846707663075, -0.05565430870026634, -0.06194302102972671, -0.055769279884109166, -0.08369337649432308, 0.03292900105251341, -0.049901194496448774, -0.02547052492373872, 0.011245550793467904, -0.0712021934105814, -0.06898162305148758, -0.017720288245306873, -0.08621435257189941, 0.03889343722088953, -0.07524262132958479, 0.004340102520924553, -0.08604961255249942, -0.01677547829126951, -0.023459814274925772, 0.02880392544032643, 0.06384575577370012, 0.1584130846715912, 0.17104301511042275, 0.03212755620241911, 0.04124329038011892, -0.04479314255728576, -0.06529815028879371, -0.08334492929783627, -0.02332463044717175, -0.06516447941615346, -0.055949205403953844, -0.07874485763970908, -0.08071915507268768, -0.08801425649337566, 0.02518363858342761, -0.0029325436902219097, 0.013324914832648315, -0.04783552000611789, -0.07610287848149791, -0.050113911254585614, -0.09881553126801883, 0.034803452156664416, 0.0017139169787818989, -0.010641283695243567, 0.0022571268928737393, -0.07617552518552718, 0.024551680319511143, -0.07781971365585107, -0.01051970752594477, 0.0613801181057663, 0.1390613526871655, 0.10894707880861502, 0.17044291989257565, 0.10179676603328876, -0.008169416001297546, 0.03364892825924256, -0.019084838127402207, -0.03723397829878558, -0.04485494058551956, -0.09267959535470414, -0.0852472889338289, -0.10427945537334604, -0.10247590384318041, 0.046400405773876045, -0.06821640711872236, 0.03274006585595982, 0.00886703488431511, -0.02212041272958307, -0.05352784258102714, -0.0193355952082511, -0.08217641888781757, -0.11281344110272747, -0.14110647053957648, -0.1304074260647175, -0.1266306129819245, -0.08999760940039438, 0.028187479617634365, -0.03667238302885185, 0.1737765939989585, 0.2158489859705559, 0.15541964678619258, 0.06645885490011563, 0.11535063516433441, 0.009104432638371972, 0.0754828506571302, 0.009555414897716462, -0.05117989462871488, -0.06929706214682296, 0.03333263963792865, -0.11542146249852904, 0.031468221907274635, -0.03279327036726067, -0.012268401077078363, -0.016667240643301304, -0.009030812831790894, -0.03602151985965089, -0.08087862831257145, -0.05911925959788331, -0.039744239464444886, -0.18270985201691634, -0.0927953662495196, -0.04914518545962414, -0.0279214818346412, -0.01995675630168649, -0.11057922823189877, -0.12105738834533218, -0.005196309498108449, 0.09481706410370129, 0.22280120447569446, 0.19717239751439458, 0.15060516156907683, 0.11806655792008436, 0.020353107280989702, 0.10383611097218202, 0.07868182885470935, -0.0460473908383195, -0.031909939752291124, -0.058467894762750106, -0.005945893378229133, -0.010268337981795772, 0.05372269761952718, -0.01638205343767559, -0.1008611934108822, -0.08888089246086982, -0.05478216679868831, -0.05587062261761914, -0.20279283620483468, -0.11626429126181577, -0.12735812266608884, -0.04006461397981591, -0.11329329020268708, -0.14633248573114363, -0.11265634361625623, -0.08947046169906163, -0.15544815256100386, -0.009741754005948402, 0.17809020528679162, 0.12872719359050927, 0.16210828063851873, 0.037719651688631686, 0.02525679076847744, 0.10380960503100777, 0.015507969646924906, 0.04583795351462065, -0.03943111826191341, -0.018621553050381122, -0.051613481211908854, 0.038221074476380165, 0.0683736320489286, -0.013575927450173672, -0.126319296517212, -0.012955930533271133, -0.1333554717190236, -0.06844638440487898, -0.15982083568586058, -0.12163662708135083, -0.10384391740371782, -0.09834928633703406, -0.11816087293779899, -0.018150557068402687, -0.0948371448005227, -0.11186474005663773, -0.06093981927517171, -0.03560903696009236, 0.010251507444975409, 0.13240381599964324, 0.20305736726883036, 0.07019112524909153, -0.03876929122538977, 0.05153242886064369, 0.020010768242037597, -0.031388061930882706, -0.020895320405745158, -0.060453158590342095, 0.013240340945541704, 0.008208476877879328, -0.07578174764772587, 0.010796941315274712, 0.019995741060968138, -0.011696709943672242, -0.16217242729406042, -0.13250162892134398, -0.011773535432979128, -0.02295519336086322, -0.031155590403519767, 0.022951284285413348, -0.06429911631384723, -0.026170026062244178, -0.005579391173041665, -0.11337320741279198, -0.10534616598819792, -0.1587270018993423, -0.15999089802254723, 0.05494620669281578, 0.2221065570222857, 0.17490493946428323, 0.11519866673088694, 0.014046694733185094, 0.11702396001017602, 0.007657691730695233, 0.048298547209782855, -0.06718227009132689, 0.03907276697938091, 0.021642288188734177, 0.044296186232053024, -0.004438828405119361, -0.07256180443910211, -0.046538596401073516, -0.024991592646008236, -0.03809865828840104, -0.01507498095668882, -0.040116527809289336, 0.06650333576998187, -0.06211126165665959, 0.008885796511221846, -0.10203804045151559, -0.09696800821811168, -0.0006541331577478623, -0.0716396217798386, -0.04586476013714663, -0.07166014253912951, 0.09785358799820126, 0.04306570490249545, 0.11129537089920327, 0.014351334623756514, 0.10718571381735478, 0.008454398261189081, -0.06554000061433415, 0.0040225402707447094, -0.031061703640648114, 0.005635598019601372, -0.01720912238629637, 0.0033524451695024628, -0.07377322847353479, -0.04540818816295487, 0.04794866633162489, -0.06402061730026644, -0.016713732282284375, 0.07818771838144786, 0.11913392957348556, 0.020172289203786303, 0.020835193730610525, 0.0857445635215019, -0.008218029829440804, -0.030210122471908834, 0.005920883708964441, 0.005246151567552924, -0.05514753099237317, -0.2057745009905972, -0.04620139442508374, 0.011514958807209028, 0.029234855312844008, 0.063652896964908, 0.11311216980125481, 0.04660629771943609, 0.0521705898784663, -0.05482395600827258, 0.04512726682350632, -0.08617583966461473, -0.006470994165798626, 0.04437558164236259, 0.09199999950399453, -0.0026346604799279932, -0.012049915558175637, 0.04130751653400277, 0.045149507953017434, -0.06209922303413554, -0.01448212485510617, -0.03986396565654614, -0.05460383810843968, -0.041175522959286566, 0.005225577136655267, 0.06383298830369098, 0.05008630287177914, -0.08593918334223904, -0.18755217652977454, -0.1359585223838544, -0.07665524272864656, 0.013979300381938313, -0.05131926063419328, -0.013729580474144869, 0.03351357575202401, 0.14120982804863944, -0.021144770560060158, -0.05340613757470859, -0.09713773260265667, 0.054624754472066515, 0.03738406851527392, 0.015877698058450455, 0.07128145942615441, 0.08156174647717553, 0.007106172009629487, 0.13406161565400596, -0.0021679463670303363, 0.03758791013846013, 0.050563301027662905, -0.04604342231902904, 0.01998344581955821, -0.006089835482308559, -0.02105184346618438, -0.13035410861086116, -0.07679831814608981, -0.03764962479957541, -0.11922897923152935, -0.14687811172197224, -0.13572659220595448, 0.02275157819637189, -0.08131302564932817, 0.0030075139137644216, 0.02927073489239629, 0.03645641856337944, 0.04798923476284385, -0.10063431224451777, 0.013685264140771465, -0.02935560194522064, 0.0011670054699516562, 0.11620773323731588, 0.12932834395457063, 0.12177334826562015, -0.03504502443205326, 0.045523661198641534, 0.03274598949677857, -0.0247228421897446, 0.057843580961827894, -0.041851212788470336, 0.013943775711937705, 0.0016281493217022113, -0.061944064947543724, -0.038560971901032956, -0.04815330641038852, -0.1533147802191515, -0.14710040621460835, -0.0065218177679998435, -0.009467531079455261, 0.047896368556324204, 0.009260304777201495, 0.05535177227182789, 0.04122789315976789, -0.031944450208785426, 0.053056034717793576, -0.09464107449159812, -0.05228697116943138, -0.019120972635786385, 0.0008923973001931541, -0.03423399009675878, 0.08813952472431814, 0.07892152676604644, -0.031511460699877265, 0.08993174103858693, 0.0014731047493845852, -0.05806291601186872, 0.04049014668109226, 0.11033280022550528, -0.04315759573138826, -0.09733099816888907, -0.004585994785916528, 0.0027493052022221384, -0.0006816692466165996, -0.11204974865039347, -0.02734566203124021, -0.003996430056400676, -0.02693167291644391, -0.029119708457522243, 0.02295319690816275, 0.03701795915684858, -0.0023614310333670754, 0.08306438172873964, 0.07923868563084803, -0.043614786557159585, 0.08139230174310087, -0.01195592593937618, -0.06492823366495865, 0.08281270344809256, 0.10361050322617381, -0.015998637156526593, -0.033578849027412316, 0.09171696771940432, -0.010641701220411472, -0.022551965361414086, 0.0512271570372571, 0.050717791121795995, 0.02985007930343109, -0.05539187584358029, 0.030155588045438768, 0.0649824383761854, -0.05082746323748955, 0.02875313595033034, -0.0459244747661347, 0.0023557093062623953, 0.03943395888942655, 0.11494651019063688, 0.06482268651193615, 0.03725036584478326, 0.07099298741120047, 0.02014279104619228, -0.0767635904131729, -0.08404383531459812, -0.049396132064106354, -0.0353804539484475, -0.039474100943691456, 0.10229952408490411, -0.047612970352083575, -0.04480006602638593, 0.0045842148094632496, 0.054467534897622676, -0.022197468876902358, 0.06296440369031074, 0.07125496658907654, -0.05278648060762149, 0.00947412998783954, 0.02292161236646213, -0.017498444480779092, 0.07337401121864806, -0.042225492785189764, 0.021269065565488594, 0.09361315576005193, 0.00037255915928151404, 0.03187961849156366, 0.008076266049022262, -0.05555190588403823, 0.08115080137483612, -0.03242403591271841, -0.0371388071356027, 0.03227572414531874, -0.00018642599861086776, -0.01766969278828165, 0.06428662742888278, -0.00022800486615372174, -0.004846252163070186, 0.022772462298541532, 0.06020227683751003, -0.05536105807199783, 0.033120080948567554, -0.07105459136070782, 0.03167170037718944, 0.10380713212997887, 0.05029658439094003, 0.02550541591902043, -0.09716902235882464, -0.0573092806686697, -0.010469590351714018, 0.010727064369700934, 0.010231485154952672, 0.036785449963541036, 0.08448681137533534, 0.034603058248898415, 0.04845789585688178, 0.03721718904636806, 0.0011852060455139867, 0.009998787726443423, 0.022311231186210475, -0.005194461989219435, -0.006405396459532623, 0.016718181763852764, 0.08087479742939843, 0.03519614887937051, 0.07796253604662941, 0.04437239945276104, -0.03385272308600125, -0.05806542990595894, 0.056040721019641575, -0.021180909772810213, 0.029359513140532176, 0.012371688368707707, -0.0198675252196405, 0.05075933020446878, 0.014252568329230378, 0.026402002610449424, 0.009561119395887212, 0.03772755966449522, 0.03784342008701855, -0.037284798720612015, 0.02870605862975023, 0.025126151048606146, -0.0021658544100696796, -0.07273107416996225, -0.021116371065808128, 0.018420865248005257, 0.008701351245223697, -0.04287584152573241, 0.04615511330620485, -0.007588900816274511, -0.04005368742111962, 0.006370222681971199, 0.025766978199287492, -0.02877513085901951, 0.004004123369297664, 0.007947551693462394, -0.05620247182002503, -0.018564181951238094, 0.0061578690751141535, -0.031057211928384027, 0.08208518760084572, 0.09508745278062988, -0.007932196425026426, 0.03233660684220565, -0.051089245217460846, 0.002464936825187915, -0.02196898472504395, 0.0059581254180733805, 0.011659193330992019, 0.01165253961012297, 0.05379173899673481, -0.06870224766886578, -0.006550830464303577, 0.05155055329265142, -0.06381990868417621, -0.04703489183234852, -0.03896114301008206, 0.07712134065365381, -0.006957573333614896, -0.00656691283524677, 0.05200299492407971, -0.06840903483950014, 0.06952437568160127, 0.07697146750430532, -0.017803579972350252, -0.08647809473823638, 0.05577500008531978, -0.005911693201011808, 0.028003030915336898, 0.008010928610323863, -0.035934517627974505, 0.045519844039866426, -0.02617469475086898, -0.01599532724303712, -0.0006027351435552527, 0.06642704645347657, 0.03088829511258771, 0.0768276687312449, 0.030489051720139597, 0.06540120684222304, -0.007855171442770438, -0.07087708114671741, -0.013860760716601115, -0.06683698975829427, 0.02441462773613622, 0.06101558379654279, -0.012953908931871394, 0.06511393334573624, 0.05136038772094685, 0.03934008461184235, -0.049315390088155074, 0.04091113396987323, -0.06794573641678182, -0.055522532624852725, 0.031375825118099304, -0.030025473460191066, 0.04480404138043073, 0.04148109415518703, -0.00781265631343504, -0.010513067490339664, -0.005647435653151206, -0.10754179389169759, 0.044611951360753195, 0.04996710521250894, 0.05924168122884819, 0.12372219966153608, 0.08048004965334848, -0.09132253977471684, 0.00919407061822546, 0.03379260662815271, 0.046245545416526014, -0.08394652596559937, -0.05901321026879287, 0.006461587292810425, -0.05465471060032899, -0.05878071685723167, -0.06728591809975934, -0.04195304233026786, 0.04008536325148297, 0.0362605550063854, -0.049971206091807864, 0.015433811347433796, 0.07399475041748094, -0.10467508224227336, 0.01641915178640109, 0.03932734070498787, -0.013654035058002487, -0.0007924685645100744, 0.007794325442154059, -0.06981781053574314, -0.05629213665954317, 0.08839280755469521, 0.021692594547128522, -0.10908779498912335, -0.05278258528948498, -0.014494138968289175, -0.10758925947325355, -0.017944658747784878, -0.0557136165116877, -0.02204212150066951, -0.035665222515122316, -0.07848609022732711, 0.05554230316050596, -0.07643775326635685, -0.07159697482719286, 0.04596029755126045, 0.024356458326321686, -0.06097436719484447, -0.043110217890828216, -0.10431723367547407, 0.013886131464415575, 0.03149557863047896, -0.011181152635811938, 0.04427024319420805, -0.031239447323592948, -0.04412832726475693, -0.03241909947386328, -0.0638097597965251, -0.08097193978799516, -0.07683326605171639, -0.07772766057025307, -0.03192135592217554, -0.02337900088186269, -0.13139017955914742, -0.049313144148310055, -0.05713334569193203, 0.007537887124760268, 0.006857405897003647, -0.008907060718980685, 0.0275456019636489, -0.07324632686348528, -0.045018341477563735, 0.021820742054611677, 0.007074124807072632, 0.05639833424551439, -0.002269060605371244, -0.041730713032917366, 0.014350679713748116, -0.048274916327896635, -0.03232763985365378, -0.02139482330797883, -0.0010107035326444936, 0.018330288180003474, -0.027964714353733686, -0.11754025004564488, -0.0856612892241071, -0.08812695131300018, -0.12329639346443447, -0.12001980612841727, -0.0381471360951931, -0.0033529925322468715, -0.002877532606960028, -0.037599254890185736, 0.051539048948286766, -0.016059578565742076, -0.008825958042346295, 0.017525561006143765, -0.063448577037767, -0.004812124129501631, 0.05577671748956416, -0.04950592912983282, 0.04442617101899923, 0.06249122013695543, -0.06157888057997294, -0.010192788884554483, 0.030996139460896587, -0.01676372187275667, -0.010442878556777014, -0.03633318109043652, -0.1250371619353634, -0.09507992417001404, 0.006544476071709942, -0.03564622625091172, -0.12362660686611812, -0.036187970902343075, -0.008719326624261224, -0.1307113427200241, -0.07359095833193502, -0.02369131960621987, -0.04518528481144681, -0.07598162852388475, -0.046494023754536054, 0.004457245862674295, -0.0760088066166039, -0.0024090367286925033, 0.034957209911248205, 0.06754844765967531, -0.021149666080961728, 0.04694815656456412, -0.027354222910427554, -0.07564392355051866, -0.01838831908897084, 0.06143946343279328, -0.052631202284208325, -0.045734722556663915, 0.012302180133767708, 0.01367377800275284, -0.04036928946035427, 0.006297977970037914, -0.07997947648343763, -0.017461607131539776, -0.00391029308059922, -0.06867865673569609, 0.01341043512756368, -0.03650689887093286, -0.0696319740484596, -0.09627633432345097, -0.005241730744253792, -0.07529173010889818, -0.049520070117193025, -0.076842913306399, -0.07164758985884648, -0.026473633306420902, -0.0484200804294708, -0.046632176859862415], [0.00470540026806929, 0.0722223526724283, 0.005424822385695736, -0.003497505553385131, 0.02294966528181057, -0.006325728391392467, -0.017645893510597782, -0.05495685125685987, -0.02182045821101142, 0.037475751183269575, -0.0966548937717925, -0.09294031896536348, -0.08445749315750485, 0.05536790014709716, 0.03679677728927838, 0.03968652369199486, -0.06938300430882663, -0.040421245847877776, -0.02266934962578388, -0.08651387169300646, -0.03110882149238444, 0.05928610308060325, -0.02542957468273068, 0.03914859753071992, 0.050175995755826056, -0.032146031402058406, 0.06777173119464289, 0.007333715945036392, -0.029847669221042275, 0.013959978360619461, -0.07447167666230348, -0.022547355841492027, 0.001196051582567373, -0.035096212330981966, -0.021777573970668984, -0.10106263172805524, -0.07406596391162282, -0.049022498666099645, -0.031164887884721167, -0.032008400404431626, -0.04530885117870486, -0.0979687572877024, -0.057439628151831734, -0.009851675489006622, -0.08313000003707202, 0.03654481665305699, 0.0360757104361586, 0.013208308595591793, -0.09424284527711776, 0.013612662585565032, -0.007951478610175929, 0.05046927521992733, 0.005628109969729011, 0.05802586983801769, 0.05124831945299275, -0.06339693256626411, -0.06387707083704891, -0.038059151229973956, 0.025603674985638383, -0.06221529936017572, -0.02090100890673099, -0.06772231117693917, -0.09986327953431896, -0.0715375220493082, -0.1182049653565079, -0.10306383673563191, -0.08158235916311893, -0.03859032428053687, -0.02103303259596919, -0.10545487999519645, 0.010194296538866261, -0.05669633904431975, -0.08933837071476787, -0.08272357134714843, -0.0827079129743184, -0.043877577005754224, -0.03984396425973725, -0.08582589400996367, -0.07461689482763752, -0.04347458834957507, 0.019591533884142063, -0.08085256347484183, 0.028693110595760078, 0.031401361338842165, -0.05300908124894025, -0.08305902856349298, -0.08386416550403011, 0.05397861504909699, -0.07629036706678442, -0.01766784772380484, 0.006195900311606581, -0.08456484281986355, 0.0391841056329413, -0.007096046237316202, -0.008753181702204212, -0.09241227394610478, -0.02436774431476839, -0.039569005445750184, -0.0035683037415186773, -0.04288923164350374, -0.011424620658022359, -0.1012636685304477, -0.06126834777509147, -0.12790183065795688, -0.1047496836370677, -0.008697975944750492, -0.05914950677240955, 0.006057121691627856, -0.037399197167301675, 0.06865295391132419, -0.0441712115643084, -0.05635243274179161, -0.010365711890796003, -0.08186383421886591, -0.040773413839370644, -0.03826954575023144, -0.04330933352888857, -0.059364361881761474, -0.05240450930145259, -0.04270765701456402, -0.03385791557723554, -0.06849439999617399, -0.02122863860495694, -0.024601656604342242, -0.043925616749176, -0.04452795287559593, 0.07550625245848275, -0.01041389688287223, 0.024108501830077223, -0.0031734520738132444, 0.014177783382531286, -0.1153934418147258, -0.013675335546223438, -0.10467976003060551, -0.019064651209510165, -0.037863932161466746, 0.014831497689490696, 0.05558384896471176, -0.060265037891522065, -0.07943260076561603, 0.03125580552798326, 0.06683139193491658, 0.03432407658543715, 0.030151958326579607, 0.007367835203080847, 0.033181805444003495, 0.04474729781035184, 0.015539183510353825, -0.06329978045066109, -0.04421792854205559, -0.06924165511749299, -0.04761046749522273, 0.10096725455269179, -0.10007548044580124, -0.02919963761366451, -0.11160070818963427, 0.06594146178602538, 0.01726510028856799, -0.0007889611405471269, 0.04683616101734027, -0.018140346932577826, 0.07694873189668082, 0.03161426987891516, -0.08356243754538195, 0.00810275208243773, -0.081199952894018, 0.011722254134755415, -0.06618256932688858, 0.0385138592508114, -0.07395846821770831, -0.03574322697061796, 0.02427921374322888, 0.04557166583945754, -0.06020362121331115, -0.06693476888239043, -0.0843527226489005, -0.045870840874360636, 0.004325272750147056, -0.05824595780181919, -0.007288398633499373, -0.004855595501142483, 0.016523007070143994, -0.022717723089366676, 0.08642229690225059, -0.03814585256393162, -0.04814146333516438, -0.0583995787339891, 0.1041331839131722, 0.044798585877186214, 0.01700717598798789, 0.05770193337764674, -0.020638110696266164, -0.05301649370852228, -0.0029878273544276684, 0.008629122918794948, 0.021653788275265786, -0.04044677389814688, -0.07053511025413174, 0.04166401988481613, 0.03931046161261782, 0.0011964956373330272, 0.07705182199591072, 0.04221222614638425, 0.051649227606239564, 0.014634057262066484, -0.017254394148689373, -0.019122135009685008, -0.10185066156300494, -0.018207756341291247, 0.047648332509459546, 0.03593219446816349, -0.03239535106343512, -0.07541492019060027, -0.044689182859822346, 0.030872272836770964, -0.0347858290288102, -0.007907264064156738, -0.020782803971854374, -0.055606321532758005, -0.03189060694167714, -0.03350067598289089, 0.08301294393345761, 0.07010394205963467, 0.05793513678009207, 0.012031615992948223, -0.011142539749489281, -0.018284698946816894, 0.020163414315547166, -0.02666097416707578, 0.09045867818593734, 0.043790508572632184, 0.12338925613338454, 0.031323254992851816, -0.04396966206939229, -0.1482254464168499, -0.14228256326392297, -0.07053299642335466, 0.07214408717350257, 0.07067893519511073, -0.0001401688362364199, 0.0765086771248044, -0.062387368278413756, 0.03071836743888877, -0.029851869708905857, -0.1001901567611899, 0.008644604789767002, -0.14156547383550006, 0.021194478327648782, 0.08479736028214752, -0.010284675177828183, 0.057604365341772226, -0.0023798834957846713, -0.026228438083870757, -0.005633220445010929, 0.009674862389784848, -0.06678909395811075, -0.07863970348695287, 0.02406175217937526, 0.06257637658585562, 0.08608788685328986, 0.04470390538478113, 0.06537867382589231, -0.024750273132504018, -0.07754885561031484, -0.09466203173437697, -0.022521194798231444, 0.011154539256682515, 0.0611288405880002, 0.08475752328671751, 0.06803287285321546, -0.0010628953876071817, -0.057545441263693646, 0.015614913550657281, 0.008572601355499001, -0.017391401413913706, 0.07942766207327308, -0.01084287119065994, 0.05559284257141791, 0.10554306184901795, 0.09239573725845383, 0.04676134336285558, -0.073484177991189, -0.08337994486001535, 0.04780915742518548, 0.089943933887417, 0.04532326644664091, 0.08459952624240383, 0.019111223221607198, -0.009598297925606706, 0.1263304066671771, -0.015451649765757372, -0.14015726745098117, -0.16117634003532327, -0.304716348964978, -0.08668851987924447, -0.011678037386454395, 0.09449657168115265, -0.12338531272438291, -0.006750325320403576, -0.010332937850089546, -0.03782170432262408, 0.06531853548268061, 0.03192573686829291, 0.08542468720218073, 0.12489673742187929, 0.11211934406680761, -0.036320341469799684, 0.004069889678724592, -0.08405681287768042, 0.004954034356593702, -0.04133119027173726, -0.03353355016730108, -0.01806902508500583, 0.07213029663342313, 0.12269484770924087, 0.030906370444949656, 0.048228048851226966, 0.18193680597495798, 0.10468224170013064, 0.08583637342427608, -0.07764609873792835, -0.3533411968539134, -0.24310023973844608, -0.12211048061553956, -0.1055271593235207, -0.08810223334216628, -0.12062603325098403, -0.049672295053497066, -0.0029331999645079805, 0.056768302296653216, 0.16964410238832242, 0.06567097391091213, 0.18224923423118866, 0.08326823823121275, -0.0617252068413173, -0.014899849469121944, -0.02014445152248469, -0.015247553067037534, -0.04570379605598337, -0.08446515428432538, -0.06616128649843098, 0.07072667976119926, 0.03305618911068311, 0.0749325196142453, -0.023313047777516426, 0.04231836909238768, 0.059589611061804576, 0.13596290303938796, 0.11380694606596757, -0.002197831960252381, -0.16045987063220082, -0.22712791136998578, -0.10063398549393902, 0.0013992744663026847, 0.012772752605836728, 0.1295510463120857, 0.11104392013827909, 0.09558915275110162, 0.04988805901975192, 0.011704072628799874, 0.11906166971920601, -0.04508681633147753, -0.034654824888727655, -0.004374122986814991, -0.0872958959445112, 0.0451545448229814, -0.07900569408575132, -0.046555301028870816, -0.04442651101162362, -0.053366421681867754, 0.019509552801394887, 0.04978278541126763, 0.050226020583959065, 0.03062574933971256, 0.06907284001023671, 0.17144689619990405, 0.29867115249486875, 0.12110097594928582, 0.0564624493646502, -0.02537858135758132, 0.06255336256974833, 0.05085781790918269, 0.14215892821528062, 0.0740033011830875, 0.09968983925311665, 0.01832558664636589, -0.011847055915361988, -0.08073916471455518, -0.0954213248783758, -0.16585246667471895, -0.08665460700327136, -0.04904927191683405, -0.028436686182962974, -0.01319312437141286, -0.026844210618925085, -0.05916033577829071, 0.03840321729134519, -0.06244856725600914, 0.012675633234576215, -0.01814115330644079, 0.031232226625011992, -0.006404170547382442, 0.008716405051591892, 0.13176326228682222, 0.0838442717613396, 0.17012929813903982, 0.17640823685738066, 0.006087976763264323, 0.060659354454925034, 0.09274133158202627, 0.03322382164168079, -0.03098785711668898, -0.02336070453073926, -0.14562396071748554, -0.15123411969399847, -0.11249193628177094, -0.22972918523752442, -0.17895854749289214, -0.1657276579077863, -0.15658389180639073, -0.0012662320269121526, 0.0025904198293440154, -0.07006609851094063, -0.07162197848262435, -0.058390589586155096, 0.022293332661971525, 0.009141933891813265, -0.0660329787034716, 0.017014293232510094, 0.014935037445207576, 0.03640040041856877, -0.005534624280507992, 0.09088991351433079, 0.10758136546429603, 0.08860944154104435, -0.0013661987089779357, 0.0022937907781431905, -0.04587197740240728, -0.1117440571581872, -0.1703751331986246, -0.18574363500129876, -0.19866696662715044, -0.21420618512224887, -0.24837799768444438, -0.2630745557689943, -0.0961999114275591, -0.13501257020343604, -0.1082084155277718, 0.03943861238701278, 0.003986636548807022, -0.04249574305429302, -0.01893913056815254, -0.03917917264935471, -0.05570528538355335, 0.018162672483819402, -0.04219877801621998, -0.02063192499768798, -0.04193174801676078, -0.028823717108575904, -0.0010946359433596181, 0.13608725660109838, 0.09291261461302626, 0.06718250747686592, 0.00467037699075166, -0.032017260955320044, -0.15961358151742794, -0.05708621727367184, -0.10741943958922574, -0.20684834977069078, -0.19735495077716883, -0.22628252894415846, -0.1941964881790304, -0.0920961073716023, -0.17976615880181326, -0.07928547620496322, -0.08924608303704792, -0.06864248747159014, -0.09082964815995055, 0.04708211942655496, -0.04992615945245791, -0.05221659861251443, -0.0637803299486303, -0.03507311774531748, -0.03529537171377021, -0.029412048740120045, -0.012287678184915569, -0.09013344210032995, -0.00671942234841487, -0.09850408295532043, 0.027595778074748403, 0.012115185806058007, -0.027730302590032445, -0.10583242125824453, -0.03615296442211628, -0.029981600865717394, -0.04257045360541714, -0.003468994860724537, -0.045241324156358106, -0.03435542311394291, -0.05904209726047285, -0.15656018437153701, -0.12659331616819408, -0.10282391288681467, -0.08543187112812183, -0.0041813008869968265, 0.049790666155539835, -0.05222224786146764, 0.027956494086851625, 0.0025735086004061666, 0.0742283589076146, 0.08957449376187838, 0.11234669503264111, -0.006663421744753142, -0.0037269889205396997, -0.01660010886899414, -0.12407523777451074, 0.014432609057733945, -0.030173024425877965, 0.058723371337903944, 0.05850594930664923, 0.04136722187312757, -0.05495832894231479, 0.13289867158063484, 0.10297764052182425, 0.13905351108569258, -0.02473219945680556, -0.06264648008155406, 0.037244509820740734, -0.10477031829096267, -0.09390462420880497, -0.11990098747691318, 0.018883947773138007, 0.06743729663294866, 0.021781519587132255, 0.03259656750231023, 0.07284153839918722, -0.04002725785495884, -0.017273704544147173, 0.06034359402988859, -0.04156704738486811, 0.006523452974466552, 0.010596541904098264, 0.07672301787270673, -0.0027153347264475317, -0.06090507606120302, -0.013409687972570973, 0.08380706984039493, 0.08686647316079067, 0.09072245281011315, 0.046184231552871026, 0.013692274911598516, 0.0742715246546782, 0.08136604947753175, 0.11751121847527665, 0.038083455163070656, -0.007373221272029949, -0.0462775944752985, -0.0964822349838141, -0.12612678081105372, -0.005615410899236927, -0.07837084614273512, 0.052279465747205725, -0.0756959983624537, 0.030852273381916376, -0.03672459480307016, 0.06263908153739632, -0.035719258033486696, -0.005741046899029886, -0.01287181562548203, 0.0286507532543603, -0.0036289831354210512, -0.011823339597202448, -0.07309397847000178, -0.068005278331579, -0.00795433190057524, 0.050056433372513205, 0.05064338998893357, 6.126094992344804e-05, 0.02078403031919689, 0.14354496405327258, 0.08778732452597109, 0.11904024655083148, 0.038960379406790174, 0.013554276849358116, -0.039069578743878675, -0.03440233193557793, -0.05701982078246174, -0.031575092734593475, -0.05043035655940065, 0.026637775194032282, 0.05351741037387808, 0.013848241041154482, -0.047888868061511033, -0.05179666084979839, -0.0376260719315801, 0.03567032822198616, 0.043450695664771256, -0.07173762899397357, 0.015903262769272675, 0.0007313470283271679, 0.039278461491602766, 0.00436873303105893, -0.06191313260650808, -0.020372456853486827, -0.009636922783398652, 0.10596906808048322, -0.0062645664023427364, -0.019131975227172037, 0.06394473809187926, 0.09521609926545845, 0.09755614454167097, -0.01759121156968471, -0.014319975454269806, -0.06592696152653532, -0.01837131114137982, -0.0925541233173347, 0.021712150468786915, 0.029170929390216472, 0.0384087913544818, -0.05440865257866149, -0.0184562401017992, -0.07891533744254332, 0.022445282327154707, -0.047403461277046026, -0.05690217795140773, -0.03190744928929318, 0.0035758096831369937, 0.03118376787897947, -0.031119836070021254, 0.018077938094226073, -0.02578284752055785, -0.03506161669526851, 0.017955278891315398, 0.04412434752999391, -0.029719330412977547, -0.04177660967925501, 0.10148658487737032, 0.061178027177237373, 0.18219942031253347, 0.11313227306160534, 0.08236429231881663, 0.07864934237911589, -0.06522426372849283, 0.056004260253823816, 0.019210423196087515, -0.03885325427830792, -0.0027060545025794818, -0.022522248932906948, 0.03385232833989939, 0.05973406741102258, -0.04054927196116571, -0.09992415114033337, -0.014768210444371942, -0.010978005587923218, 0.005848469472531735, 0.007892519893552205, 0.001267016682903568, 0.02789496550870189, 0.0042733632148820476, -0.10213933981531394, 0.03011909339163306, 0.06781657650226673, 0.0691044461864862, 0.05685118898483957, 0.03769562181718124, 0.048043269637702245, 0.1452414216594426, 0.10630830482713273, 0.029363992467812565, 0.03855457764400335, -0.00893580925312994, -0.0009596167274189872, -0.004260273671578627, -0.0067116427590317015, -0.04470533172824119, -0.06970994126783545, 0.04040648731132648, 0.005628136057388303, 0.024024353630544167, 0.008271941977267815, 0.01367375829387404, 0.019036157140844535, 0.0015376207559743092, 0.006063302389144652, 0.029270146633926113, 0.04252800251509833, -0.02415596356082997, 0.026180055561011804, -0.012393162352968008, -0.02066391957658319, -0.006026066022783013, 0.05977031724783964, 0.07689960308670284, 0.060918594692568766, 0.05511888672863953, 0.11147251952028732, 0.011930030604103548, -0.02507701053656818, 0.054000055017350904, -0.02255625808549308, 0.06865509900323716, 0.053445682713574603, -0.039408493769354194, -0.038075621664933695, -0.007726902792085611, -0.034305562676659004, 0.028355741194033217, -0.05548270633213474, 0.02817916565063222, -0.10049520794447345, 0.030989086654105283, -0.03683021724594683, -0.023742957985860687, -0.04672136024939496, 0.055689092572136785, -0.0031307157127169073, 0.05295357351664669, 0.0029734275514384082, 0.024509651834219402, -0.043493828734900764, 0.06877895916659679, 0.08453892780701283, 0.11546740821215269, 0.08015381884662762, 0.03397196872841351, 0.016759139460293542, -0.03398233750674449, 0.028876043858131785, 0.03090526306357275, -0.02529439519992359, -0.029335349432634557, -0.01809364259385828, 0.024925432468098765, 0.05985821468302023, -0.01869406581385373, 0.024795099558880162, -0.004547591551796821, 0.022021384468484673, -0.06881371117020364, -0.0019508933245768279, 0.007785309653600199, 0.0019621834950873615, -0.020476084730239458, -0.05135841496689199, -0.0600652194748761, -0.06222051251796603, 0.057216988300912604, 0.018500838743705113, 0.05838984207404416, 0.1477130768156742, 0.028168980267766357, 0.010586514771949333, 0.10475721733963696, -0.027521164775506472, 0.05157371450419765, 0.03045183356229671, 0.00423942428264772, 0.033253337856460806, 0.005893482965579413, 0.05165206763775338, -0.08752920275848543, -0.054529114696093395, -0.09394443375641744, -0.01796729527793276, 0.03884661957383265, 0.03853956677831791, -0.09178299207737371, -0.10233291013322758, -0.04635938033320892, 0.016937863746790984, -0.053221830889568424, -0.00968014376847062, 0.008715438789897115, 0.030015662517741366, -0.04544675033549084, -0.05331936167457099, -0.01914585661594019, 0.0923972779877037, 0.010561636376664681, 0.07393159859687634, 0.07721775636639232, 0.061210409678749106, 0.05342840101960164, 0.02628699455706187], [0.021044951663155537, 0.041035299692993896, 0.05324173172828982, -0.020784126515655064, 0.035184368647291284, -0.05750242444280865, 0.03125285871428301, 0.007240627771650875, -0.0605254521793767, -0.01246125132616604, -0.026363596932428433, -0.06788419442078188, -0.040208202179792686, -0.028347306722345544, -0.044666296328607975, -0.016379927461790924, 0.037819717127908166, 0.03467922374483063, -0.03595301549379392, 0.01444890701372593, 0.04911919903328518, 0.03787318777945391, 0.041544761471339973, 0.0881272067984781, 0.04023584967273813, 0.046125218741021816, 0.06983366297845414, 0.08364342056938051, -0.02175941228731972, 0.06247824098323965, 0.010642545264505665, 0.04142604802284157, -0.0648911825894072, -0.015622093076035532, -0.008006665834780042, -0.06352282783243733, -0.09968374503957872, 0.03147549528827095, -0.07692409688037574, 0.007922907763333242, 0.028088573507290753, 0.012831433522896025, 0.034918267384368776, 0.03937997826764653, -0.07814335216578061, -0.05143314595844844, 0.06940904441623977, -0.020522302442871943, -0.01836209261489393, 0.05136102775186792, 0.0013223144711696693, 0.03401335980510596, -0.010110032480565368, 0.06310098572612981, 0.07836341378835412, 0.09531143693275879, 0.07817461651613439, 0.05202037439530347, -0.0615287260568411, 0.07622610315221584, -0.0325472053951414, -0.07863296796548251, -0.061729352477459525, -0.02119442152452087, -0.07361080114135439, -0.07761086537967435, -0.01654742936308567, -0.007350706414267247, -0.1109876107841962, -0.041300485510997964, 0.005639054003839332, -0.0905681146267137, -0.035415407043368964, 0.02331938989720332, -0.0489913005847707, -0.0906592719518439, -0.0850042932586157, 0.017589772130209985, -0.09118055831661856, 0.003153021369861605, 0.05857555984927968, 0.08180273061549082, -0.003014480985759451, 0.04018326222613167, 0.03760580604759849, 0.03811833402075032, 0.06341497974943774, 0.07981065571699572, -0.04184996204582896, -0.029860179600524384, 0.04536765452691849, -0.013516621429781099, 0.013080444752550496, -0.001882386742968549, -0.03099352305033636, -0.03570411402447124, -0.08460382075105269, 0.016253041818652073, -0.012841411511023906, -0.06011029610138825, -0.006321385352461658, 0.07441905618358308, 0.01766265905349241, 0.00315986086813339, -0.010715426649519764, -0.0205874280123392, 0.010059068013965788, 0.03269960261539149, 0.016079126086735566, 0.07259110176445824, -0.023585554377229517, 0.04967616856848469, 0.09904372248320847, 0.04076968938750247, 0.09295598754715083, -0.06315285355931245, -0.02262232756654149, -0.07567989801776205, -0.08713004822344766, -0.07281071182964463, -0.06529129501858118, 0.0014700659485578453, 0.015094114085942849, 0.07530226649806937, -0.006312269634252907, -0.024016940615388435, -0.0586955232656331, -0.022061418960348224, 0.11672299632240983, -0.03984190551979545, 0.04781482279547334, 0.053854453093732456, -0.04299478313621959, 0.013372990625937144, -0.03515947801291937, -0.009239124805690212, -0.05672178785047065, -0.0339378862211132, 1.9936389376442117e-05, -0.01709959188291592, -0.0009903442663375867, 0.025434720312871476, -0.0170612868006705, 0.013170418045866448, 0.02168990641232714, -0.014646175791760759, -0.04715766148503257, -0.05825040907714562, 0.041245263276843656, -0.0654450359054262, 0.0019871020515757104, 0.014822883261226445, -0.008521046419776452, -0.09853552268342308, -0.006600738991022813, 0.00994034638903004, -0.013685931171595332, -0.11834692188506889, -0.07011460875182575, 0.05001162759791578, -0.025776753008472084, 0.004416747726793226, -0.004927889736926238, 0.08336680791257192, 0.007332831809096083, 0.03744221482313503, -0.01430548703024468, 0.07237438510133638, -0.03124840139740529, -0.023221936061395512, 0.06391115561846399, 0.08923493914509871, -0.07391633532746063, -0.008710478537148226, -0.014390728502349343, 0.06289796502669523, -0.013394643090678404, -0.08699697250671967, -0.1335382627069586, -0.010765288924327427, -0.0024464858583458622, -0.07686330980044773, -0.029398802143689732, 0.019278967425008293, 0.014091981489214225, -0.03341784553890507, 0.06236481477493604, -0.04885857608036771, -0.07961188873508283, -0.08073240498198339, 0.08760636597523494, -0.07445723306768105, -0.09820270206434863, 0.015438291315780209, -0.08176950270344267, -0.06598948596809072, 0.021189499968434715, 0.020223845464574938, -0.0359500502026575, 0.00931536213104955, -0.06933952671101822, 0.0507882284915637, 0.03457468639549489, -0.056138227720523216, -0.09709487835504872, 0.06316060514974312, 0.010825396808356876, -0.0738015314275854, -0.03281293157102903, -0.008824703043810838, -0.07901324990627467, -0.045326952996313966, -0.004405332617797091, 0.06338929412172434, -0.00266497354033123, -0.022194829027392598, -0.05492813616685777, 0.017133864797016063, 0.0027198551967989723, 0.04158711383858286, -0.02735669611497048, 0.009951478604289887, -0.0419690504484136, -0.05058032131064352, 0.06753437854914122, 0.0948786487433979, -0.04413888524050348, 0.07904761872132138, 0.04038901381548331, 0.09206598181343857, 0.03862954796312585, -0.020776651155691536, -0.03612851167196477, 0.01573807734626906, -0.00957775029822937, -0.06106484156877059, -0.029931752486561537, 0.049722951188997715, 0.03737632865229192, 0.012618061824599937, -0.12027905748729252, 0.02709817858429238, -0.03598496918676618, -0.060646224500945596, 0.00962354311436332, 0.043177580674465574, -0.002130121178949372, -0.03266770127676193, 0.0035293046994704846, -0.12414778045461285, -0.10251055096669331, 0.014118645610786391, -0.016770780537938634, -0.007415219828612577, 0.04145861044945442, 0.06315829362581254, 0.03234987413337828, 0.015215113616562009, 0.01641902377571996, -0.050555628317828755, 0.006635443316147839, -0.00123542888338377, 0.03257818729752845, -0.0577233077399907, 0.1333126515288942, 0.06963806442824513, -0.07823459146424688, 0.01107872619814496, -0.13217700971907298, -0.1060283252413817, 0.00037800435326475565, 0.05178670190369684, -0.07087023542910109, -0.02654301477507172, 0.032273199252049, -0.11475668561498928, -0.1086739133617713, -0.1075708764644163, 0.05803890240501807, 0.04028583428330634, 0.11166289537359415, 0.015552651481408926, -0.028029901413208883, -0.024027150102223744, 0.02488533425067668, -0.0022063301171853737, -0.02198230084402413, 0.038893564158513486, -0.09825232771166957, 0.031148117093259077, -0.14753844802757482, -0.09776532130595132, 0.007671605571580205, 0.050958218715836605, 0.10274454846836405, 0.019778589043914177, -0.021491355422575506, -0.05481340619671234, -0.14936149027691004, 0.0038129934979673485, 0.0681829207504455, -0.02693826369405176, -0.0523764473466343, -0.02797696158161397, -0.026882696206958545, -0.10758778939139658, -0.03793877965249075, -0.05519238110398723, -0.0444037200793847, 0.037018543671692335, 0.0327509552850432, -0.004872337059140881, 0.0425282215583002, -0.03071237053367741, 0.03049368533634243, 0.004252490621954549, -0.019010008969152937, 0.03539853077446001, -0.026784227791888524, 0.0019971922530497266, -0.05513012680851218, -0.060922967274442644, 0.006424615736680429, -0.020835002644660816, 0.10959951119514037, -0.058222918460092435, 0.007650210830244338, -0.06620868608734964, -0.02181589016589805, -0.06649599602345249, -0.04481007442890053, -0.15355395023334129, -0.0700156541755102, -0.08052603192099315, 0.048904351561242274, -0.06362661665565908, 0.04508224482807623, 0.019424015055977458, 0.04545546202959462, -0.0033854795384724613, 0.043704623104145066, -0.020868620712098624, 0.07692387683370074, 0.0250833489529951, 0.0831349278913108, 0.08245152049681151, 0.022100293162021948, 0.01314456018433275, 0.05654235794829939, 0.008579467241340209, -0.017263121246625168, 0.05601537794201439, 0.03960010785202193, -0.0035332577876734995, 0.0747541188202859, -0.07603600026225259, -0.048554119461858405, -0.11000551683146999, -0.0943175403952969, -0.06707755059080879, -0.08478025032412771, -0.052049352310369584, 0.04258250226417846, 0.04351691688247717, -0.042829228523798474, 0.10186283587972789, 0.0693845407838826, 0.07075849029550897, 0.04532409442984224, 0.013708302504586361, 0.04802851175269276, 0.08880235765988569, 0.0030189707489557105, -0.001697344879837808, 0.11779597115845412, -0.03851310326130919, -0.06166292122886314, -0.06757366972630958, 0.024280007127545963, 0.08660356273320377, -0.08271073313933906, -0.001511348991353581, 0.08444759339104636, -0.12622143194935312, -0.0015348384536662402, -0.12209846318976349, -0.0002773624316463557, 0.013068361642978789, 0.024534819186331012, 0.011953742275238812, -0.0575252832824487, -0.026046165217448396, 0.08364209049065918, 0.008562749618246697, 0.04468934777896209, 0.01753879554749026, 0.04553966427436832, -0.02897279086520197, 0.07130608332725658, 0.024441898550416886, 0.05014155901366409, 0.033236630451263904, 0.031282048703587514, -0.017511239300302687, -0.09288266251332872, -0.04362106044340773, 0.018584078308964098, 0.06873394206644007, 0.0029579557624808367, 0.053760005161609115, 0.023097553664844724, -0.07641767292304075, -0.005422059713009534, 0.005009130935106848, -0.011741893611642936, -0.029391297217810905, 0.002367285965732353, -0.010558368644937737, 0.02013972014368588, 0.039436229195119556, 0.03544067804206693, -0.0394216371443727, -0.05046993039459435, -0.06604890348378706, 0.014249020337044581, 0.015883239812410205, -0.01385895359246728, -0.013342972073332413, 0.11670008302216286, -0.015112813510640756, -0.01970555973051788, -0.004001828043169789, -0.09437828105086149, 0.018764458756246858, 0.1288374592006455, 0.05292244464862003, 0.061092930368820755, 0.15331140679688027, 0.023786549967101077, -0.002486559545745591, -0.04578993678346987, 0.04160249162781388, 0.06831517282937233, 0.04998107587740176, -0.052683523978435905, 0.02985341113093849, -0.031161757256545422, -0.044827334774382346, -0.015411941675925928, 0.00538272654552322, 0.05306150680530293, 0.031043890153255628, -0.03174049528765381, -0.011587635210907997, 0.01624201731678327, 0.03276923057070978, 0.07216022953554523, -0.059291703940305404, 0.05933453927889175, 0.048947252192106425, -0.041057734614247526, 0.008025452610040689, 0.06471140570597907, 0.1417763125886251, 0.12872179336877002, 0.1255904814106989, 0.03626341091460441, -0.022105969850090477, 0.06548005494626245, 0.03868683362588633, 0.08820209252879797, 0.1078978532284948, -0.06698172320763202, 0.004569075006763854, 0.04885797040000023, 0.04753043694981479, 0.08956794789795856, 0.0783356507305497, 0.05764049368027545, 0.09817365401581189, 0.11499078636262389, 0.14759611529131994, 0.08313414367162662, 0.11173080168981747, 0.020484313450579886, 0.00791235647949163, -0.022594776147065482, -0.07649052193132803, -0.15307847317065093, 0.008853630697810389, 0.21875698380771455, 0.16444250288752388, 0.02612414764553541, -0.06857965491528659, -0.023278897337980758, 0.07213262153991977, 0.011404703588727187, 0.07660553020161294, 0.007783830854690833, 0.06191208254835899, -0.016331077208332687, -0.03363762756216596, 0.008905898603545013, 0.04832863204829683, -0.030144757626157263, 0.07575309792371746, 0.06975849048854287, 0.07603796869517447, 0.04226748782326862, 0.012746858340342993, 0.010600567607900263, 0.12304649627074153, -0.03881238276793513, -0.005263927954319642, -0.04408023593694042, -0.11285454366052695, -0.1548570765034503, 0.012415460583904558, 0.23695224567416254, 0.07911587245635228, -0.10090089179334702, -0.08632567711795809, -0.08042066203976297, -0.11931408142075707, -0.07962044454711467, -0.013126798926876864, -0.016348773794237124, -0.09461344017197625, -0.05162267693762275, 0.04126201433590637, -0.011253680883693214, -0.037726632564399586, 0.017816269789193876, -0.010657244120172337, -6.238521765356191e-05, 0.037363548218764836, 0.09610029047059447, 0.09364962927740925, 0.0027646996493759122, 0.013985087361245426, -0.07453877422581455, -0.016521786039083684, -0.10977538515664735, -0.2854705440148566, -0.1616414236173353, 0.11683332531044358, 0.1726347635985543, 0.12287994751636483, -0.10198736721946816, -0.15415879121413398, -0.29286139140379963, -0.2567326816222971, -0.20842171359705763, -0.10587925721001912, -0.0898244001396273, -0.03247803746547416, -0.10209609199231846, -0.04296364416085297, 0.06988482679536424, -0.054510831175256874, 0.08756434454858338, 0.06911578425297828, 0.09876113461520138, 0.04312024480342013, 0.06506843881203955, -0.011764861916466047, -0.0234528104949648, -0.006570830828343652, -0.11733338715837267, -0.09603972653421715, -0.23010162801584302, -0.1502233590908409, 0.032515322814725404, 0.20594551170436542, 0.25120223771636274, 0.1186683335877301, 0.009905400676026245, -0.08402896300755226, -0.22843688131400067, -0.19854577369455154, -0.12562322381196758, -0.061808038732075424, -0.09468751865307971, -0.07714572936497568, -0.004185516328929788, 0.01729952613036986, 0.07064934202327107, -0.014200354078338263, -0.03855600229296418, -0.0055319847476623255, 0.029014726308263003, 0.021531169795694312, 0.007681099269322208, -0.01989488268777079, -0.09556936175089908, -0.09273909828914154, -0.08920048314163603, -0.1751048876220056, -0.23682528210671538, -0.10261924134295798, 0.05171203420032398, 0.10975598671824584, 0.13346123383332403, 0.08761728349378539, 0.12422899252421826, -0.10768133470942423, -0.10477616190099351, -0.2595456155561474, -0.15872917638485742, -0.17554316462509836, -0.04012601487229549, -0.005625017663136689, -0.08761215852139408, 0.05491169803161513, -0.060305289977037234, 0.08361949717350088, -0.0248060026264343, 0.058716870850640715, 0.05634987341487157, -0.0291424719737761, -0.07962925113152927, 0.0007757293282807468, -0.12682919089260952, -0.12282883153405463, -0.1985812774873168, -0.17721916237381333, -0.11563434576180115, -0.05191502797643777, 0.03277730836783027, 0.0848419052140893, 0.00932235759063443, 0.11148648407724256, 0.06739581265948041, -0.03874657639054262, -0.10630395735234749, -0.08087094901275418, -0.09998120334550745, -0.1727008661378415, -0.008283868944616364, -0.061254989422810734, -0.05147540913041219, -0.06235495852855651, 0.06556022445613799, 0.012764877377797045, 0.05595692640789936, 0.046380258052697514, 0.0033229457707642856, -0.05372456760743413, -0.06738513309403377, -0.12176548273259603, -0.07280207309676538, -0.1284964780420102, -0.27092289521246093, -0.05450277339809093, -0.03493877482333264, 0.021219805999026585, 0.09680854348837764, 