{"wji": [[-0.074614462614288, -0.030041346865937367, -0.029772699098163567, -0.03701296603101555, -0.009256528392591043, -0.010013689421825109, 0.018369100702766095, 0.028073771991130758, 0.030542927247430685, 0.07803095064800072, 0.02886688772081801, 0.027901195775455107, -0.013847984973326288, 0.015246676148235036, 0.013282534057170586, -0.031005589825475688, 0.0023145845164767725, 0.06937019238634812, 0.053096787261449924, -0.06182861934416703, -0.024201230937963274, -0.07519227106019809, 0.01441485525510025, -0.049335503393781344, -0.0009747772509000052, -0.07355267703839236, 0.03141060482257199, -0.06925279218023439, 0.005759605428904482, -0.07481287311902939, 0.03665142862356867, 0.07210300877598977, 0.036813815241105746, 0.023916423407898235, -0.026079027065887266, -0.024587335338954942, 0.009802015096959892, 0.032030272496587124, 0.02987554393171643, -0.042420466100307176, -0.07845711556051749, 0.07816768605460526, 0.038994145125211696, -0.03193491814271219, 0.03968204408312967, 0.0562593459445788, 0.04741039171272081, 0.013761251702505676, -0.05110961060982182, 0.05017950589760007, 0.021984965600450844, -0.01185715706549168, -0.015668136997262785, 0.04461993937797554, -0.033194612261419544, 0.04676166512418653, 0.07515183061691902, -0.047424679751146344, -0.07727694017546494, -0.07603306608768792, 0.06486821628272676, 0.04095237868263706, -0.046792730790939055, 0.0463336487389292, -0.035917561353376135, -0.00528512328906661, 0.04426251413216581, 0.058319075334518314, 0.00689373822148492, -0.011007021684378587, 0.011539393460480121, -0.0591383975705545, -0.00044264409508500504, 0.020958811403190718, 0.06556700844051241, 0.025789435737795918, 0.03811161639247274, 0.06129775936909874, -0.010700477445888782, 0.04666084530895794, 0.038720537770483954, -0.044269658193279514, -0.026358161599973874, 0.03173416625355549, 0.06816755757473028, 0.0040890299349518044, 0.039472591707759415, -0.042371643243067476, 0.0249403831573695, -0.0580410313527312, -0.060529667980360066, 0.004710926873197144, -0.02336373980887721, 0.07664855355684153, 0.009680861451846287, 0.0008302472292300472, -0.038492447997805185, 0.06103487798587944, 0.015596074936673737, -0.04381865792788529, -0.08738217847514688, 0.04683178479103912, 0.08236193729936657, -0.04688371202960354, 0.030228227751299325, 0.018441269223329143, -0.013451169339552418, -0.015036429317628634, 0.02029698689606981, -0.008775253697369286, 0.051397000546649446, -0.014807950036970247, -0.07278298923674939, 0.01883674109726223, -0.0019450593472391947, 0.027356219809520053, -0.04505590906724807, -0.04246656590012009, -0.06802674036749755, 0.010949669275943869, -0.0689539090431063, -0.08383246570652612, -0.075277639461763, -0.04139627715502206, -0.08214674393023615, -0.008658009596480368, -0.06304316821435511, 0.03157975782252397, -0.07800525202005398, -0.11367441921861549, -0.04379269473606483, -0.08905076002328564, -0.2350351639342166, -0.2342591895392601, -0.12264034527657884, -0.12420673078882527, 0.014305819813763034, 0.02639876454093878, 0.04144469089948313, 0.06611001770256429, 0.004597209136805613, 0.014635507344039941, 0.060378535458018454, 0.059314803495769, 0.06394612148126133, -0.0009952973376473292, 0.03194214158877202, -0.09949552999366781, -0.09742364054008373, -0.069107743118415, -0.22644128265975363, 0.01613104206716641, -0.0587497096009317, -0.031581749370007677, -0.023343783447891786, -0.028554979913928063, -0.19300365258194407, -0.30328907265894756, -0.4446017453682244, -0.3392602297932839, -0.21277256765658153, -0.14743793405858824, -0.18963851342460386, -0.11835691673619093, -0.061226608965557684, -0.02797649382790782, -0.03723621110039089, -0.006126982136898119, 0.06500170657973417, -0.016391063455065497, -0.02489843584438528, -0.060591599282171546, -0.055550274545868056, 0.006058965979704812, -0.14221323703152572, -0.09854183965679224, -0.21009096935240337, -0.16137942917634784, -0.14164030805869382, -0.09867525970859635, -0.15557462919426504, -0.15802472063285775, -0.20632972454661094, -0.3709369995540779, -0.4013150962565164, -0.3043432727040367, -0.29830640753217735, -0.2679996043067012, -0.17346191282352685, -0.1299131655528504, -0.1183901956863208, -0.12890149365225853, -0.06202607634497348, 0.05435857842694455, -0.040761114823318866, 0.06418564646415645, -0.05347586619617253, 0.029678134063258164, -0.023127806578510792, -0.024192485518171, 0.006323675251027, -0.07723099915697218, -0.040942975089565334, -0.18816039577872753, -0.18808789874682952, -0.21942504738726099, -0.06734343861266039, -0.07531422871344841, -0.07962150601009693, 0.07441785911431939, -0.1334526004576714, -0.06161619353909877, -0.008781981081948264, -0.15795187888475076, -0.09419136542205032, -0.17188146199968488, 0.02998152603913952, -0.026930083138049923, 0.020225603539778453, 0.09091729174030068, 0.11897900580896634, -0.012354552332827555, 0.015950041296321875, -0.06330206875886016, 0.03433275532505384, 0.03520790471794188, 0.007945563678821883, -0.04305488669285685, -0.013968771269713283, -0.14596094421457345, -0.04398693211304894, -0.20691446840865482, -0.1581566495757822, -0.23437480135443725, -0.20976476018980653, -0.05549785836878466, 0.011426496066474947, -0.16779593515206395, -0.054661727487282194, 0.14796389010685632, 0.21535299105203243, 0.22419827170672318, 0.2535424628696852, 0.23550087243416953, 0.1476651395427766, 0.0909860612725879, 0.2011967580727323, 0.25758429769729296, 0.15976303930099758, 0.1315798562084819, -0.07524348540113776, -0.049193924381325554, -0.06616608313541732, -0.03552832221736665, 0.01971651587245093, 0.04079122423209623, -0.08234700561624299, -0.13575896788499178, -0.006944852074315478, -0.13157744239136415, -0.266158889696331, -0.2465471755558007, 0.05911869599671867, 0.02481412509938713, -0.09926557697971529, 0.18893845152178998, 0.22503564517633315, 0.2530604909269696, 0.2739670452134297, 0.438393425101919, 0.23729998326514082, 0.1516821953148607, 0.22466312563713778, 0.20558234151295737, 0.18887157392881057, 0.0692268454089797, 0.16554405251545956, 0.19422113550073392, 0.0142300978568399, 6.990596796777927e-05, 0.018810703831148464, -0.044883461243109234, -0.034944598054411996, -0.0056490016331854544, -0.054000877257003796, -0.18951717711902866, -0.08207533308615403, -0.1408914682521466, -0.1122146427183178, 0.05512484682526701, 0.14870505296656736, 0.10573778983434741, 0.15072417175476632, 0.14566200612321376, 0.15615358948557, 0.07187741477681468, 0.16947596680423083, 0.13380801650701327, -0.025234342129142495, 0.11652924942403034, 0.14878861056973555, 0.1587476724056731, 0.10233503771248634, 0.08626706937608684, 0.1673401843629107, 0.11566779937310256, 0.06404378840473304, 0.07004505614595012, 0.04081672927199889, -0.03607392209978412, 0.05383531181383392, -0.037227397449353855, 0.007669358053100376, -0.10082355321264899, -0.09524501443339708, -0.003710358108477216, 0.0007222030304584729, -0.05673453646284959, 0.07133542114950382, 0.13313623637000807, 0.1829169330077419, 0.132205499963351, 0.003566155125052044, -0.16606902308060864, -0.11028792422820997, -0.07932558249094249, -0.0670253404694804, -0.11409495488464605, -0.026406980403443088, -0.034024031532557515, 0.024846596295700466, 0.12440427797704522, 0.03510332055962326, 0.15043019138058822, 0.021145118432582037, -0.04249237411598515, 0.07498678242578145, 0.08018272495912397, 0.013336113430047421, -0.06461791464258547, -0.013726427975530052, -0.07299860551152239, -0.08812119498812006, 0.14947917013614306, 0.04420067963834153, 0.17812564397676792, 0.30995848739885407, 0.12723141394365353, 0.11702204852631586, 0.28445631193400733, 0.18366371427067313, -0.046027040899525994, -0.20628701613178616, -0.13302581703875563, -0.18809371895296872, -0.1490728654561991, -0.07986036020637542, -0.17884626664042688, -0.03991750028147463, -0.03849521750164478, -0.0555551126189438, -0.011322244602229713, 0.09013941518083558, 0.07604754989064842, 0.010005776173795, -0.011458640431745777, -0.050251879343276906, 0.03413173826296588, -0.07325656751597737, 0.023511697463222455, -0.0664245004751032, 0.1731196398113897, 0.03200714591177635, 0.16317802800356773, 0.26484638006005473, 0.17934483898388331, 0.17642429533500656, 0.22758310429026568, 0.11869941616529248, 0.03525158531400395, -0.00649120101818269, -0.14333060205043788, -0.11670661766135543, -0.21560334433906767, -0.22014506930890443, 0.06643506388521286, 0.0033711647934530427, -0.09195499381758705, 0.03694569257910804, 0.01447539662909682, 0.01002569692485957, 0.059469349935847036, 0.04322164889624909, -0.057963774613146155, -0.0173064425643737, 0.07651924016196582, 0.07214561592500691, -0.07495190245613002, 0.07511520359087498, 0.06274852410993116, 0.09045700240430575, 0.17515377332001786, 0.10742838007040698, 0.019576036468165012, -0.12994940799338042, 0.022623244465366583, -0.01858355143404293, -0.14642544111617506, -0.0545693702922619, -0.035340801413662117, 0.0029979765824826084, -0.1973364638900102, -0.020263504171845945, -0.045032433777640546, -0.07033236683165439, -0.09771351091347603, -0.02134768018797216, 0.020446945610670005, 0.061129723094910826, -0.07202914191203236, 0.07700096020101375, 0.052318328356523836, -0.015179185730298953, -0.06451032229473329, 0.07421681124434858, -0.02926250811868208, 0.0010101729723546284, -0.01705512223601184, 0.015893044444708307, 0.05435260844103243, -0.030607897154791917, 0.1060443426735409, 0.1240867548758624, -0.04321978515933083, -0.32085882574207697, -0.1853515979462924, -0.17648727518923654, -0.00851349037743772, 0.19872128081861354, -0.07716982686152579, -0.03002359153686899, -0.15038139524502642, -0.12472820840771194, 0.03132609399685577, 0.05243306171355977, 0.0366587432164992, 0.0614984521410038, 2.2457607331672456e-05, 0.06446245726506551, 0.056631689153123214, -0.07718402997701913, -0.03921889051460903, 0.05318841179680108, 0.12192999931630684, 0.013821435871648356, -0.04701979996832638, -0.05884124856976769, -0.0776244978436809, 0.0964004810031034, 0.012269315014177886, -0.046074565762219896, -0.09072622109745497, -0.06862087826374381, -0.14679794101187038, -0.14335637160745027, -0.1475764878556413, -0.08870896630967097, 0.08892505704369655, -0.07183027183764797, -0.171608269916247, -0.10961561849631683, -0.015596808398710124, 0.024918756800719016, 0.07143805900764573, -0.05658269094354968, -0.01892042780525886, 0.012845437198959003, 0.007820000296334907, -0.04352876288343943, -0.0736523048024552, 0.04390032834139448, 0.08493582151431926, 0.1370962984217424, 0.0157790712527627, 0.014044412576663778, 0.0891467510285441, 0.05416862886333679, 0.012964503410155556, -0.007588214088003578, -0.10778691365761275, -0.16217729666229602, -0.03966628322405316, -0.20281047220393172, 0.019315152391764276, -0.035309429371282106, 0.14602360678373746, 0.09762065530905281, -0.20282476302790178, -0.048118420488277934, -0.018977657190994052, -0.05199768577837177, -0.016329828101673997, 0.058498925152293844, -0.07640676203942212, -0.041159741407384, -0.030804553852191965, -0.00018751154941751532, -0.06792050008257414, -0.06595704723492021, 0.04869741077400054, 0.11593018575905681, 0.08848998181509717, 0.10781321876951774, -0.015895318649171406, 0.021949729811991035, 0.12384797142079157, 0.07493086370989946, -0.05986024110938924, -0.12342492931778783, -0.07231991711664408, -0.16485696969950783, 0.0932029583677652, 0.04595689282141668, 0.029287790655936865, 0.22048745717918825, -0.059051735457572425, -0.06728039481197493, -0.04599278457406669, -0.06209675220125271, 0.028732342701291866, 0.03538462169737012, -0.06125039545441168, 0.04691724730211705, -0.03879370635354176, 0.012375471336291815, -0.04775678931503529, -0.04786578202813735, -0.04204582942126422, 0.029206485695915697, 0.06448340053124142, 0.0753130942968074, -0.11237242839519353, -0.13842035277630405, -0.01916002773320309, 0.011420623768604615, -0.10063536225698676, -0.010073386898849452, 0.010512674781751925, -0.07377893844745692, 0.11873866962488693, 0.08719491982911874, 0.07400464522177644, 0.01097424994454033, -0.09077185046152526, -0.030842342364668908, -0.08382643451895794, -0.00886650818744734, -0.07925946165785444, 0.03348866997608343, -0.010486024156754157, -0.07703810195063221, -0.03039159603933153, 0.014490500451567216, 0.036532309867347595, -0.034464390692648346, -0.050685736080001695, 0.035375954911666826, -0.07554691257331801, 0.017023350878851835, -0.01565979366808399, -0.18441957161509942, -0.059010846824084646, -0.14610072683044267, 0.001385834133500717, -0.17267980121696602, -0.06359231447883842, -0.11777013271385223, 0.08107306939733955, 0.1279237854696829, 0.14963262769072158, 0.031016174219461817, -0.025887299255887952, -0.0575750975168323, 0.08704063570991077, 0.003796648043367745, -0.0008713163725894731, -0.05401908366008441, 0.006957174722298383, -0.03916931971773052, 0.01161853123677839, 0.041812687713804926, -0.03459367413232802, -0.145384505919799, -0.021193418649706988, -0.04442885145134321, -0.016641921745012448, -0.004384968320217981, 0.00803793198102575, -0.022989585681514785, -0.04217456720704726, -0.08432387908334929, 0.04627712503180462, -0.06991547591418734, 0.048432236358376124, 0.025591539975121716, 0.06971323699346492, 0.16386740270753272, -0.0037050177030298155, -0.10138279573182508, -0.10171295287083362, -0.06426914533640496, 0.04588420067729722, 0.03871685891116715, 0.03615528532378331, 0.011201759695313788, 0.0758191509219501, 0.020628350023027764, -0.05610738179537871, -0.08013570399891583, 0.023750986406332362, 0.010532220486980234, -0.09203139676418247, -0.017484139434482234, -0.08875803916583956, -0.01194675235739095, 0.14508489936907082, -0.02484457114723547, -0.13776330788282723, -0.1195133224266677, -0.14628916696946687, -0.10935562959327373, -0.047428206680365056, -0.098367994599152, 0.11274688206338865, -0.01353911787635751, -0.15475438498951216, -0.1012305721960653, -0.12242948886726576, -0.08479380368963153, -0.03463644777658159, 0.009753632110873102, 0.07408560171453016, -0.01512364909674703, -0.070737558806705, 0.043306883323557116, -0.05654678860389976, -0.016854578034940903, 0.03755795379989351, 0.040049869437465, -0.08471482307259857, -0.07792293372171885, -0.16630746145647327, -0.07233845818631156, -0.03698964079863257, 0.0929302519542118, 0.004956784333980716, -0.032477260232498056, -0.014744387039045848, -0.10746659996929686, -0.11361553264323071, 0.06485897024863507, 0.03265012622007513, -0.09482057341684527, -0.12632566118337848, -0.07748133476181307, -0.058164456492039975, -0.02870044915042101, -0.04524283034284814, -0.018076705490973444, 0.00661308822854835, 0.06940039148771104, -0.053258607604099575, 0.01113339870287608, 0.03005332161993053, 0.006156566053696158, 0.020381922562418626, -0.006823752297648911, -0.0032875231232955765, -0.02700784240397773, -0.07623668366684633, 0.10731919847713758, -0.0803548292693204, -0.0758396445635933, -0.0677543252744159, 0.05954738453507947, 0.059939675852831775, 0.020489743772978044, 0.06091393955141482, -0.057869699587513625, 0.05827531677046319, 0.01850661806566917, -0.030369660964824945, -0.025766683229498447, -0.022004202981170354, 0.015106551560166458, 0.0010351489333009635, 0.0023233980588774185, -0.07629887979596696, -0.04050449313914641, 0.024068677002446998, 0.08064929520940473, -0.03461697519305255, -0.02609394429334179, 0.07518501941663047, 0.0012912821888030257, 0.014159941422483448, 0.027762103359342014, 0.03833597073900387, 0.0026955635963865853, -0.023540116067399117, -0.011151071861348784, 0.018805584884564075, -0.0516200530082757, -0.05092749439204894, 0.0011278835676119033, -0.03288625303455088, 0.1700841850271774, 0.07806945458540088, -0.009413730069777589, 0.0867712721072447, 0.06872558919600698, 0.01798973528477191, 0.036329775497490134, 0.04668189854928131, -0.06628990525207752, -0.013960402757148178, -0.028766029250029523, 0.04370142092780904, -0.005382673411448019, -0.015293469522057748, 0.08072929958968708, 0.018027607896635718, 0.03579171483851104, -0.042737969740908106, 0.06430219362277959, 0.054788182822842736, -0.08425762976991429, 0.01944853062954404, 0.02996401985225108, 0.05770367915359411, 0.04207347849214558, -0.01342905435181848, 0.14927951997943475, 0.08704912667601306, 0.13478811672623536, 0.10607379960021782, 0.07693702994661276, 0.03309030503952627, 0.1446085866898375, 0.10714954440233347, -0.0659847971696974, -0.03504575667746138, 0.057587141696816335, 0.06935979938587393, 0.053920296082172386, 0.03510043433166608, -0.05531857673334807, 0.00881680686706221, -0.019852244034959943, 0.01160263124869905, 0.016937861310217888, 0.06161511726747483, 0.047443971021326026, -0.019044785006376998, -0.03272609884315523, -0.0191335706926134, -0.03665484617432166, 0.023512535116171015, 0.0910296034825031, 0.05470704921930805, -0.06456791077644869, 0.021300539003134562, -0.008549258581995596, 0.004247663376907841, -0.0791804391030404, 0.025069891687323806, 0.017328265496083937, -0.0635813327508025, 0.04687113884355657, 0.006807443375835444, -0.0245902733286403, 0.030190994339126406, -0.077025218834743, 0.002169333706379728], [0.022495858041987588, 0.04612816823764351, -0.007985237487726837, 0.07247690337625895, -0.0289380111614922, -0.047997506498981886, 0.06141239920233185, 0.03348126311359147, 0.0025195010910340904, -0.06816381627849313, 0.06086012339049429, -0.010110489185514202, -0.018167418244832576, -0.07346524124473064, 0.03120159820737403, 0.06887835186262664, -0.045704628503979376, 0.0755521473476532, -0.050693405229414394, -0.033305929376772646, -0.07280387928636654, 0.02529596532657523, 0.05785535434769873, 0.02214981893941352, -0.06704480641721901, -0.05344868614517782, -0.061001599707326076, -0.03580600153490328, -0.06930047915041072, 0.053096331692916415, 0.00022416397154327583, 0.034584908922201785, -0.011980891423016088, -0.04046069826819006, 0.03300007780223088, -0.05001338412506227, -0.07620898920585846, 0.07449269194563693, 0.000961999652633314, -0.029566052211221463, 0.07097732149435783, -0.032225703166437206, 0.024856654016230453, -0.014798773218465382, 0.060628044934724054, -0.011044744224893273, -0.034393235892446465, -0.0009371654549549109, 0.07045882495682435, -0.041512691549588046, -0.0697938562816014, 0.016284676854376564, 0.01327595617709433, -0.006583782907237115, -0.06697017391504233, -0.001573808222136111, -0.01730376702551105, -0.057159255248406024, 0.041991605863707024, -0.035658027982406686, 0.034248815938137, 0.005123790312920502, 0.013184776833369981, -0.03652580216266861, -0.04756174744863912, -0.09072517087086851, 0.014821426088121087, -0.0017841776169551615, -0.05005951220928508, 0.015363785705217268, -0.07974962696157993, -0.019680667461896253, 0.06110036494247591, -0.011544427406917947, 0.05469681504166677, -0.06301543194379444, 0.0427894494201367, 0.03313077172333614, 0.03221871418792229, 0.07723688472007327, -0.004539836388084872, 0.03862662359717002, 0.06127236834428071, -0.006405826766701761, -0.03475002590439272, 0.006160493113816806, -0.009373772678941364, -0.02955150197775004, -0.06869946433494946, -0.0009471717976968141, 0.03833719425423893, -0.08310032887520621, -0.058428510632072, -0.07060118525899536, 0.004743393729335366, -0.052806294352496966, -0.09815240713569623, 0.010984070985217056, 0.0448508700188141, -0.03935532098484438, -0.0195744589929675, -0.04112459941776138, 0.05253547395372127, -0.032806129722072676, -0.0204017601707639, -0.034809827580614024, -0.07307564156103777, 0.021799033219514898, 0.06099677900285941, -0.013160886875948755, -0.014692357584107404, 0.01659212928136848, 0.05324615620502243, 0.05832403994676136, -0.07226697559173381, -0.029608527898052666, 0.06512698163858756, 0.043062327100638315, -0.06387791047222882, -0.09630817713974779, -0.037667773762397556, -0.04622630332655735, -0.03245510983850428, 0.021780456748737624, 0.009798986619199921, 0.050488498477781384, -0.016776095678754533, 0.06761582266136115, 0.04376452781699994, 0.03951953023358162, 0.02436590841416056, -0.053921145970611824, -0.06893402557420492, -0.021883919278037293, 0.0037058078320113, 0.08744033554650656, -0.007016811154493344, 0.07644461733237043, 0.03150865693596622, 0.07090130213095788, 0.01493322444891261, -0.060917042997648926, 0.021605323751390362, -0.05058911133566743, -0.07899440301246173, -0.04567008812207628, 0.008563833549947858, -0.06277375716760676, -0.020300891532054385, -0.058929033336934895, -0.07622065537625679, -0.13052221818924753, -0.1247997643454051, -0.011050168585734271, -0.10404331052481339, -0.08334116099222019, -0.03755369731189275, -0.13281753455372175, 0.008448830922310463, -0.26251195222536766, -0.10796067973499893, -0.03198390883132962, -0.03335384880549472, -0.04418013703656511, -0.023282992786333827, 0.011319035350045204, -0.025204299094347054, 0.0787249573339927, -0.011386915370264011, -0.007836680092333084, 0.023407253911461118, -0.010010775097943892, -0.0015093705593246236, 0.05189181011781991, 0.04861582337609209, -0.10254476303003084, -0.018643887994585443, -0.08159779148555013, -0.1264419426069377, -0.1692117375436239, -0.11979130138206102, -0.26163204377328586, -0.15357395611306382, -0.1756754468972033, -0.3014436509526007, -0.21081942686129387, 0.023762713807974633, 0.02405436982578166, 0.20470661969977094, 0.14023684329565383, -0.03499989885909715, -0.10691884209726596, 0.005146414634728945, -0.07588144558460361, 0.06258223233182221, 0.07911477627539307, -0.061383879843617664, 0.052404481389036396, 0.030879242185871455, 0.07836705905253169, -0.0064958120978744335, 0.028583056090226985, 0.24026758793612113, 0.30992554631301295, 0.287634979956416, 0.21088778263727462, 0.16207603363100254, 0.007234704137831214, -0.057734267396710455, -0.02996615704039947, -0.07649912757230978, -0.2880522551125084, 0.028981542155920494, -0.02675934854250467, 0.005921597584094369, 0.08897107707199296, 0.18110344661328295, 0.1983526509997787, 0.14851275799323146, -0.00710583594630081, -0.0031376740742739945, -0.11566927113600449, -0.029850073769338237, -0.00041862203197040327, -0.046835814372762026, -0.045197029188997095, 0.037513833937603325, 0.04980119803466364, 0.01677327671458863, 0.29733212102835116, 0.23890074936360012, 0.30338246374322714, 0.2803709390034715, 0.0377656258252455, 0.2591681794252382, 0.26781488171281065, 0.32438509245122293, 0.067916090710558, -0.05680578403154956, 0.22911654669854625, 0.17012649066065644, 0.0507587124016976, -0.03175151745177655, 0.1094424263033341, 0.19982787248385292, -0.0460654683709292, 0.08396792754912089, 0.010041646680742302, 0.043073012393391834, 0.017961541055129752, -0.011722734105335935, 0.06475339400120567, 0.05811652419417543, -0.04418295622509043, 0.09071450774624967, 0.050148803342902795, 0.1695471484191527, 0.12882798115819646, 0.0954753964722929, 0.3343518281225944, 0.31987839217511066, 0.2576344321835523, 0.292384409083617, 0.3663126801687647, 0.5853870436588654, 0.6071547855156746, 0.39677298162382185, 0.09456676173350814, 0.21745604065883145, 0.026658263897293002, -0.06582786325663745, 0.06276618625071521, -0.033447719948483105, -0.03878199510788659, 0.12641041755174567, 0.10406673523221709, 0.05137238378086378, 0.030526407704994735, 0.0644745397493311, -0.042714184741642236, -0.07337083908716104, -0.07424607051365426, -0.004445771167323409, 0.04020584765994008, 0.10606074096595787, 0.014252622400925848, 0.1199712790648769, 0.19026335771643887, 0.2511315418864924, 0.36940558998728124, 0.25091617950817613, 0.32919210251652403, 0.28897981756910923, 0.4830229835185003, 0.1765164025269744, 0.15261126067934583, 0.14351378202206144, 0.12104287607276189, 0.09842232045583246, 0.2209386293391692, -0.024473243002848963, -0.2084788785318019, -0.06094303282666952, 0.10920480664988086, -0.016991900723298838, 0.06309397456106251, -0.049093865981135895, -0.05951658241101252, -0.059311281673086955, 0.018886792000346462, 0.05736129993568481, -0.04367176349523788, -0.0654057899476706, -0.13610948738169615, 0.05549278694881552, 0.007399124032593624, -0.08164537981520151, -0.033407451671194736, -0.015830472415237332, 0.14404106504368314, -0.18580456850801838, -0.23122554004780613, -0.245711510631547, -0.09036502846108432, -0.05555509627540012, 0.1481623734882214, 0.17630385101338977, 0.16679802239946556, -0.0068558519921411015, -0.2834347224232966, 0.10695607325533929, 0.07244506231723954, 0.15108070870295448, 0.04302412942774683, 0.022888818806179545, -0.06702379789690113, -0.06365129285835613, 0.013619651175307064, -0.02319354882009022, -0.07832060727072224, -0.1714603547601424, -0.2501221582818471, 0.004652766477345496, 0.11797756207184669, -0.0775103913225514, -0.11637981104987888, -0.02019362137041183, -0.18280733208183336, -0.30301473242054694, -0.2831991000860331, -0.37694255604941174, -0.04200836260677939, -0.05102148916602998, 0.022606552981221415, 0.29617098151645455, 0.1318424390100075, 0.22385161657996916, -0.09097095197559583, 0.05330578573937589, 0.12721646654163105, 0.09259442369850426, -0.05497559907173952, -0.04381645562544477, -0.007562966534703036, 0.0425257198679303, -0.07256901121813464, -0.06876621000671129, -0.11559896615891611, -0.23438604727559884, -0.12337664139970066, -0.04852396380080056, 0.06401522293010138, -0.012403859596861041, -0.057974744560108975, -0.03302716681770448, -0.14534909524057266, -0.20160147517751636, -0.19103831410543637, -0.0013057932314857466, -0.13927303206630523, 0.020533436786946888, -0.0015885752785451117, 0.028632242496271314, -0.1734279266015637, -0.017441077247783522, 0.11930766830278279, -0.0688191530351307, 0.07311915533807821, 0.07494508381588383, 0.046726644162417896, -0.012314680173954767, -0.027595873041888794, -0.026558288958810822, -0.035861076138161516, -0.029345299237123538, -0.023891885323596245, -0.18807486085881223, -0.16083934530710806, 0.11665377736830777, 0.02809639214825841, 0.13700300340990867, 0.15237271946297984, 0.11733360037919616, -0.08285743493191979, -0.04114566363608768, -0.022853810156084103, 0.05590133216197253, 0.019498705349889355, -0.07218557550924798, -0.018842986045154785, -0.191448635699671, -0.11118527642824906, -0.035579971653180435, 0.018289030238263705, 0.01568933158259317, 0.21158732567352068, 0.25482587114590816, -0.043871198486085575, 0.01664269350850668, -0.06667632781074101, 0.01574156387406504, 0.007627822026602589, 0.019871666289589255, -0.09349667320917056, -0.11241264093257212, 0.02859364448690168, 0.05513036227502737, 0.038040265566575984, 0.06574262082146681, 0.05879469058888598, -0.015113912503596425, -0.047207132637280824, -0.14841152404066518, -0.10287637992979512, -0.016134919836498493, -0.05706572974677359, -0.3282350360025841, -0.18944088693837027, -0.14723191660873625, -0.10601173737828988, 0.05001727960853721, 0.207089821050091, 0.2224917433524366, 0.18632682505215256, 0.21219240048049204, -0.11208452163293371, -0.03286284821602195, 0.01232868780205889, 0.06587242591527502, 0.05435033464023343, -0.021747842071187375, -0.055647860574453374, -0.041794406340156624, -0.054928712780064004, 0.054944335941451726, 0.18330246881713902, 0.09532979584653961, 0.055016259672159125, -0.10217164521941811, -0.14480608050688926, -0.12482494866466823, -0.053328417419384, -0.05298519753574467, -0.1563015164221664, -0.16671563537577325, -0.17661903642638987, -0.26887904152588166, -0.037698159878998404, 0.12877623521289175, 0.17971812668912737, 0.1742068886813859, 0.1652924538636759, 0.2250129454547321, -0.09861289303430626, 0.0382574301396671, -0.07212209457218513, -0.03370968562672879, -0.01199772682166759, -0.04214278794561516, -0.08222429147130857, -0.015124996618713818, 0.027202608126095422, 0.09141758293502542, 0.06907744124504102, -0.09862010458396922, 0.019989755373492905, 0.13715352127375008, 0.06288641505640495, -0.16983581177742801, -0.20478516864588342, -0.07973867601054804, -0.08429230716948354, -0.2860933099880919, -0.33790660367687536, -0.3098473780262801, -0.15975542686508895, 0.07129848285889982, 0.16512129126694372, 0.1887834798628147, 0.17263616142587487, 0.03948782904498281, -0.022495741114523436, 0.05169942732205062, -0.07008053090487157, 0.024288770640965518, 0.05220996985254124, 0.030724601520688847, 0.03315979745620787, -0.09837669686014362, -0.08506742905530412, -0.055858539855396204, -0.05641277366517615, -0.08289018165179683, 0.0110475394473614, 0.04348774277731984, -0.01917936184738806, -0.08226548851751724, -0.23117786902481688, -0.25075896744486614, -0.16956778630684427, -0.2021048034001889, -0.18991227650140635, -0.09141051504297965, 0.008748460008587904, 0.12689159861431165, 0.12131344823664852, 0.1994162600840713, 0.15132105663322398, -0.0928248657556226, -0.015394948144992053, 0.02038545418311267, 0.07574983771324435, -0.07161092576198338, -0.002874485688725787, 0.028017381964875354, -0.0139172015114907, -0.03640498782608494, 0.0527794340898559, -0.07630170623674729, -0.17283351020813195, -0.08263893912722739, -0.0810809633804393, -0.22699888992251385, -0.06084260536587108, 0.08971961728508542, -0.12412009652316729, -0.2049517443224098, -0.06391159722910815, -0.09858452104067905, 0.011374005125524955, 0.09061263641500035, 0.09231033820869165, 0.06459417470291061, 0.018052118434994508, -0.05393275373640188, -0.05959555274369955, 0.0034090683294669463, -0.07688634108309862, 0.02577361133699491, 0.008683744535341358, -0.01497606740632157, -0.022995531218234194, 0.0005058446516694851, -0.005038248205905332, 0.02931799828675724, 0.03078280664460219, 0.01609002461475924, -0.10324181629186102, -0.12018445638771526, -0.1260431780652507, -0.2432160721617452, -0.10969636538650812, -0.11471556319583141, -0.21922126966595493, -0.04051306056857972, -0.11673022344933162, -0.00388710721534945, 0.10954829982953102, 0.041311179431341515, 0.06640087740029359, -0.22637838849446162, -0.11754081756928336, -0.02359841281966587, -0.10613156702026806, -0.11930506180857549, -0.04222984660726423, -0.053231496040928174, -0.04439957229111077, 0.02927368984508083, 0.022240632173661727, -0.03274097853654736, 0.052289089631935765, -0.04221425985576876, -0.09856401723003157, -0.1399397713455406, -0.10272773007775525, -0.15220212548248024, -0.1407701721950404, -0.17517883172717838, -0.038894940699582485, 0.002742424952143998, 0.015607107621104094, 0.04124569368611717, 0.018697464555545162, 0.25771447938158487, 0.026749636576297055, -0.012735294615929519, 0.015431802201585819, -0.21704359160756892, -0.17589036636699718, -0.08890005988796607, 5.233363094577056e-07, -0.05926640870444636, -0.009750635718746235, -0.003088838622900358, -0.010709712519984092, 0.022572258588236985, -0.060716523971053225, 0.035899784171118956, 0.0869538483921789, -0.0798213497069385, -0.0017320465002354363, 0.02070993995622802, -0.026006743985736477, -0.1928825887792935, -0.17031569725763512, -0.12083786799178582, -0.1405217313613201, -0.10941818033925674, -0.12300646818438032, -0.05603862258515276, 0.17238375391202754, 0.15842982450553136, 0.16819375951380766, 0.09776850417843493, 0.024582134078679603, -0.09307918180978102, -0.19561719693073784, -0.0348215688348593, -0.07245957728482288, -0.01679683918451869, -0.004111510572142226, 0.009011529078221165, 0.043160134236691246, -0.025641400019931995, 0.07951895431850667, -0.06852993535106683, 0.05494183896453824, -0.021591392663721943, 0.10269803533323574, 0.04943166070809266, 0.08044737393770451, -0.09512784450685056, 0.018178774476447567, 0.07472833141849002, 0.14718144237476175, 0.046614693041174035, -0.022661400908810258, -0.05576895508719392, 0.09269690699927413, 0.08255667675345019, -0.046800439246845, -0.15644488240940266, 0.09690449084696484, -0.17938878934400934, -0.1337798431396142, -0.10507303857355973, -0.0622835357833019, 0.05834262679328555, 0.07038396247441756, 0.0069199482150366825, -0.05995762035626509, 0.0766609685891943, -0.07756514970927912, 0.008134273630653418, 0.07254593459263398, -0.04083703201957792, 0.13680272309329128, -0.07701734258726407, -0.033564541222653635, 0.02893847167190457, 0.0432901370635116, 0.18360913098754503, -0.04012535887745834, -0.039742967052390686, 0.0022478473885363137, 0.12253026724235819, 0.1107692633028597, 0.033597273296816464, 0.05352797092778194, -0.05199503518175199, 0.06136308646134832, -0.12243851288414635, -0.009348931831550038, 0.0634280237767216, -0.056243720446172846, 0.015476104745582718, -0.07680357490143352, -0.018145944120526305, 0.02224368146796958, -0.015521767335475861, 0.08090317811551181, -0.05031188222433329, -0.04776604871373057, 0.0017572993356436244, -0.05319048130011802, -0.1074298899331074, -0.05854084162558602, 0.2060997438572845, 0.14011208372031805, 0.037548565079268674, 0.005643564903010289, 0.1527827300132392, 0.09450125894441878, -0.15002979745073958, 0.017169682155012432, 0.17846841427789945, 0.13218996384226583, 0.029937668352886557, 0.12654698372929127, -0.007813926480312558, 0.027463406928120108, -0.017476240633490684, 0.10029174063377029, -0.036474528218295506, -0.06116702412393076, 0.06485339134947922, 0.052964846815399425, 0.04913428721262239, -0.07834999374638303, -0.006161448739121708, -0.06900843001850061, -0.08037428315543486, -0.1729962340891644, -0.1366592600729203, -0.00042063992492749147, -0.013901498450739944, 0.0034940052746776375, -0.020376392626690828, -0.11366314857693079, -0.0398131469168042, 0.12650678851893823, 0.04281631812230356, 0.04153457685743043, 0.0039279427356515035, -0.07965447939327844, 0.031065387808758633, 0.13192808900065447, -0.03875653538862124, 0.04770445357411299, -0.05696864815093671, 0.033443663158972764, 0.05441063293508012, 0.00991352707855192, 0.02507006359382072, -0.020035150877684794, -0.012432695423786985, -0.0516668240242437, -0.06811857995172117, -0.06325545827099452, 0.04199690986545235, -0.04737324267035173, -0.06942637842682466, -0.058166168134543526, 0.08464112281318721, 0.08238824478574495, 0.028461320631966575, 0.06275173432350319, -0.00697299068021422, 0.018787457533252998, -0.046669784856922476, 0.026593040909831552, 0.03207753229960446, -0.0545186712974207, -0.010923694735216783, 0.012727285541885852, 0.06238333047790634, 0.03326917288828229, 0.04991900657382096, 0.06489679251274488, -0.003985145869754722, -0.03844209577505195, -0.054686796326389536, 0.011101827430744254], [0.007772352219389073, -0.07399530715448578, 0.012080800551044699, 0.039351916163249, 0.0094613490152647, 0.03997802563012989, -0.04357104213184086, -0.059924827264321565, 0.0625357192872909, -0.04465920669312194, -0.049791382046046904, 0.03170904659208024, -0.04728791422456238, 0.04906415733792586, -0.02259443269636665, 0.008368971401119668, -0.06055330441683299, 0.028608207731907184, 0.04789205030707985, -0.0743404239084693, -0.05700286365554735, 0.028298445001850803, -0.07276866232756682, 0.0750241956641968, -0.044508154521263645, 0.008249763356546091, -0.04354074432424204, 0.0688575713822012, -0.0392566091156113, -0.06847399173654872, 0.06601260070928278, 0.009021581291884753, -0.04786549512334042, 0.039616849684362986, 0.014377668234721634, 0.061679300767527034, -0.04834655806006077, 0.03949976398938479, -0.05545321397977958, 0.047424107633692564, 0.08472565522863952, 0.032058650788993885, 0.06453246674459313, 0.004833101231061681, 0.05054184274529897, 0.04913640362004195, -0.056315387919805525, -0.05149585378110839, 0.03191992469873439, -0.044701957692488865, 0.04473525438143152, -0.006082679807956292, 0.07179869635259059, -0.06615667168907838, 0.018932944830311854, -0.07893656965981911, -0.00022730690620671734, 0.06129389269701818, -0.019313446240164282, 0.03778474787518208, 0.017980654629534843, -0.034550614635154554, 0.04289180907587032, -0.036826031262151046, 0.021164583463589817, 0.011904141892393886, -0.027331955434466513, 0.08486484503947853, 0.0799332577130007, 0.17749563954048866, 0.07264707729693995, 0.13875316669277804, 0.03663892528401432, 0.0010578190019689343, -0.02086439761981983, 0.12549839083173953, 0.020280392265142833, -0.031226602657018133, 0.040650289421976765, -0.07055823617790878, -0.03544046783787393, -0.014688018972634017, -0.016560324025818238, 0.07868777910425828, -0.043541387298522305, 0.03988886060657654, -0.06026120907214613, 0.058417306602746334, -0.017934501832167063, -0.046993150089080525, -0.014581351065612947, 0.08044464379163127, 0.08936897304957855, 0.09459945450373566, 0.053470241062069455, 0.031128068592509578, -0.003946535749811461, 0.08119991111889747, 0.04808641221984556, 0.08539115923440987, 0.10079722592184003, -0.00945184658335022, 0.021850519401497397, 0.10152392927887617, -0.08301711136292544, -0.10364648742379333, 0.07881065570445515, 0.0417236340429658, 0.09526956269588857, -0.05132114965253906, 0.07143076188120226, 0.0462179012390635, 0.0327000451047539, 0.0782677508900464, -0.07536426771111433, 0.009670576074893512, 0.04782763700685955, 0.0666715405834878, 0.09802646140470882, 0.03555102789315368, 0.06030494848190834, 0.07340055166399223, 0.07802088667208984, 0.021010665013048525, -0.05647398104328888, -0.05925700375480033, -0.08450590151459743, -0.11752948909301317, 0.05642973943142387, 0.05182570372113766, 0.03250262422009922, 0.03945242809277905, -0.008795556388713799, -0.05427450318846871, -0.060780818898303404, 0.003189335210770775, 0.008245721919722455, 0.035947164533840587, -0.05059687548106726, 0.060397088159005324, 0.03876832840715841, 0.05951872125271043, 0.032584027504537, 0.03307156581114602, 0.0929133204327177, 0.14517830121850597, 0.15420977618718867, 0.10298976535169918, 0.1506408340038701, 0.04309305385940869, -0.03651257053737716, -0.022961494908803875, -0.08303223642825887, -0.20975314829125766, -0.06360985642373645, -0.10308299454878188, -0.026351893980214924, -0.12971515049008567, -0.03797272688006285, 0.08600013575683695, -0.09471549211736549, 0.005401046032222176, -0.12241429387519483, -0.01780573471180932, 0.010321397310018693, 0.04364879411974295, 0.07577498650339114, 0.044023237462593484, -0.03913209783708607, 0.0013430324412930447, -0.07359974280073649, 0.005086619729035466, 0.08918387568665183, 0.11543931413310382, 0.10838313634673465, 0.011961164937760593, -0.02076207518194147, -0.027748288868515703, -0.1543019326647254, 0.221738608680239, 0.025247218448459757, -0.170610265653148, -0.15003395497192726, -0.11698202776555201, -0.018958543576064368, -0.021808214893726866, -0.08297855393919333, -0.019979014689760065, 0.037184538266479335, 0.09205945179281484, -0.13825739360923572, -0.04332444829977214, -0.050899241778171914, -0.1015858016354471, -0.00392486938008808, 0.03674598895390309, 0.07169088248888797, -0.04617462817895839, -0.04201695441279848, 0.018030465529953882, 0.07943110524411692, 0.0328203538113808, 0.1917853442834057, 0.1471403012643717, -0.08704142203810354, 0.051614108086351716, 0.09324242027680572, 0.0632241438462004, -0.07063792306715143, -0.2875985196252623, -0.15587725277970924, 0.025763808955028458, -0.07549488054346493, -0.04315721369827911, 0.15297457387599475, -0.08469991646230297, -0.010881047436360257, -0.06909238121510641, -0.020026058365019184, -0.045749230867438206, -0.14107668395687392, 0.006795174761837355, -0.04880544226685761, -0.036555612910327336, 0.035658565162497824, -0.0667610941994026, 0.002955112423378724, 0.10816660455875791, 0.023893116455561046, 0.20160463321257058, 0.2374749678905063, 0.23521464141675766, 0.03232846099768394, 0.07991781205945646, 0.08654394284293496, -0.12472833928195468, -0.12893266150877597, 0.024288343130213826, 0.028516805264248088, 0.26329953168146314, 0.16294051518774247, -0.05847853831190146, 0.09520036796377163, -0.08465236341864539, -0.13251987446126345, -0.06564762935418739, -0.05372542716582367, -0.08180089448558157, -0.018692017076701737, -0.11237420801341166, 0.05160178457211309, 0.050061619035120616, -0.0541106602649089, 0.0706014574692143, 0.032278196994274526, -0.01445028125980019, 0.32553713945521284, 0.06891880630961135, 0.02118249256509357, 0.04420762762659607, 0.0274334639678286, -0.015722245678147242, -0.041454723149741926, -0.07460647948277095, -0.04489335283484279, 0.11906082136254688, 0.17456182214085683, 0.10262474917883088, -0.11769488470127008, 0.06884491497221257, -0.04257253682497852, -0.07236084647951826, -0.0376529203019672, 0.04933670745663561, 0.07012985487921895, -0.041499786074388645, -0.021388319701184707, -0.021749586932568683, 0.0002781159807596552, -0.043972943006600144, 0.06615919753421018, -0.06234300577897, -0.053380080690611266, 0.052246307717495194, 0.10410078309011075, 0.09216444667604437, 0.011747485162488948, -0.07237766826913819, -0.09989406007068893, 0.01748019519556022, -0.03298758212287556, 0.16990442165104302, 0.0510122278093938, -0.02614792998725531, -0.2012998434435153, -0.08744722511805948, 0.0037736488977843387, 0.12923351295877944, -0.06125348660474269, -0.07399627196800493, 0.00031654552795309265, 0.08236274070890821, 0.08088515201953424, -0.08437553570624726, -0.10083724111516354, -0.12428939486597003, -0.061640625922799966, 0.04934772597910969, 0.02150807420531257, -0.013323945428968781, -0.02458422784790662, 0.042277214910108475, 0.24943482308966114, 0.09499564849546388, -0.14028958208484352, -0.11101506206938747, -0.1906132663521634, 0.06784141451237383, 0.1217207017304657, 0.08969144757957007, 0.041693922321710646, -0.11594635103070527, -0.22052112134487822, -0.1959990100352032, -0.13776373638560022, 0.13366327174993495, -0.020734563902496946, -0.04287004076322273, 0.06636687159371768, 0.14260393616905256, 0.026404232063872705, 0.033124245738951674, -0.03356748333393724, 0.019549569382480696, 0.039401977526335195, 0.04827246173437295, 0.030416796593245626, 0.013810397195778, 0.030568827066825264, 0.10804463959841293, 0.15464902252123752, -0.028732337810613656, -0.2182187648867296, 0.04106525894689745, 0.13762917635192665, -0.04522710994067449, -0.062379786184377436, 0.1378842981290621, -0.09884294901054477, -0.2940066749324667, -0.18157632050300737, -0.06504396315916573, 0.05717521991739651, -0.04901905917665861, -0.11907500382606341, -0.17789697057290843, -0.010216363937603784, 0.06384618453822687, 0.0015122120260636972, -0.0019463832956718313, 0.06640289009443547, -0.07092973015713448, -0.0008014295865743735, -0.01333975335909626, 0.006657602648632452, 0.024241538201420488, 0.08820265744959822, 0.038279496965762785, 0.0878893514472135, -0.008235646409072754, 0.0186480478292457, -0.07439633239749005, 0.01135092153222639, -0.025024719438396383, -0.03963022942331695, -0.04445950284725542, -0.27911780737963865, -0.5355959187469936, -0.13558657843016203, 0.07451102583012922, -0.12314923632281827, -0.14617576488135917, -0.20712572791713907, -0.3022612572757448, -0.006134944465543358, 0.1584407536048249, 0.07586740814670652, 0.08458719496599335, 0.09338189425938373, 0.04289103249360865, -0.07815916024092295, -0.07353728200846377, -0.05102383727731178, 0.05032971799427218, 0.07488342341247808, -0.014358429346955595, 0.029096360305058758, 0.07661997594376858, -0.030407641810092985, -0.10575137467309455, 0.01835091118512684, 0.03652566483049888, 0.03744426731106263, -0.2652785841421049, -0.35667633814038935, -0.49369968829262445, 0.057129894099226204, 0.05577680713438151, -0.07094982338290197, 0.00406836570653138, -0.1476951269874293, -0.22051522766004983, -0.15680054235599236, -0.11306655738922121, 0.010410624191536306, 0.18315540012766143, -0.09186370097616638, -0.019412241887165827, 0.05912019431019688, 0.02697978748093166, 0.06633325129382249, 0.0631189487929325, -0.07376346694541824, -0.030105732529513388, -0.20518445937094001, 0.009232693198898382, -0.024479983852819295, 0.03165614432644282, -0.06711456389687467, 0.006821666823791365, -0.13996414143621064, -0.2543369422570048, -0.39836479410346953, -0.24917908419305718, 0.18258424611160823, 0.07468956010633368, -0.07722952453086238, 0.12962489797965554, 0.12376174612561433, -0.02787246407053091, 0.0810906795932865, -0.05844715206647028, 0.04291645820904804, -0.07610159406759426, -0.08182507390987974, 0.023585337991108363, 0.042156959850863096, -0.009241875728402798, 0.05440093995935263, 0.020880966298048902, 0.06259840244712452, 0.08940424173589877, -0.020078192271374203, -0.10654276288928059, -0.029478932219509597, 0.048838282236417514, 0.03768534215356072, -0.10021393469300736, -0.18326132805931994, -0.2828834787343955, -0.38638598373193533, -0.21049645649511567, 0.38469408662493565, 0.2050118714431123, 0.1360020929710764, -0.02477954398335293, 0.17909777364884047, 0.21168335669471655, 0.004317350903765252, 0.0242622144004134, 0.07322598420293193, 0.003859573338388902, -0.11443138932106421, -0.05912416995020992, 0.04341171592439667, -0.0023329088805713154, -0.018341928527720888, -0.058285352646883934, 0.05779832529071329, -0.03840963929748595, -0.0697025322627725, -0.04262884602602132, -0.019384201558860642, -0.13581827459488813, -0.10269865977982529, -0.2159549241862426, -0.28761446159129156, -0.3300092560105028, -0.3444402803338978, -0.13890372732901318, 0.3840217059128191, 0.5111117221656946, 0.27695670294192865, -0.0018146658304555032, 0.16719088915325375, 0.18945824948508774, 0.077117190023533, 0.14792244055068005, 0.050037763555737524, 0.02146900673395095, -0.02932216086891453, -0.03367979660306868, -0.0398259606176953, 0.017007439679418864, -0.07008167748621268, 0.06567418766167296, 0.013322244864917803, -0.02962704006146075, -0.09269034433958387, -0.09434402816814853, -0.04592985210182192, -0.04065640584622555, -0.04120182405347068, -0.258720825508367, -0.2016187511418078, -0.4248689857457278, -0.3097471649394099, 0.1790017612826189, 0.3337264187017986, 0.4539786193703317, 0.09082938483995533, 0.22475176140483147, 0.2639334181259429, -0.006689730625410316, 0.2146292011613047, 0.19021205975733735, 0.11385141589518555, 0.06398736174403345, -0.021852328824772126, 0.062023268036873226, 0.02461879098966131, -0.028759987386795513, -0.008575935637778878, -0.047257220405086627, 0.07582008507014787, -0.05738740987002981, -0.1363522334940444, -0.152292899851951, 0.0006071829889035015, -0.02179121390227152, 0.0070341045271882586, -0.04068004253581348, -0.29028208882421996, -0.2114972584063071, -0.2539630318426569, -0.17563065011148338, 0.35523141965439375, 0.44558690261465833, 0.29584020048698606, 0.31341762614369184, 0.15376510123379783, 0.21260707265064452, 0.19020303564256422, 0.11204407614076597, 0.011149157368010603, 0.04184006094962882, 0.01012704140013051, -0.05866968958590361, -0.012188729509720629, -0.006768626335087421, -0.005031470797895621, -0.06553018223293482, 0.006437754378444487, -0.013541731768388283, -0.14848463812822327, -0.05370011077369213, -0.07485210592860277, 0.11253078016027734, -0.12128685980527965, -0.2241939020874665, -0.1513844667888601, -0.09186960483295545, 0.00022241575489194334, -0.07603622589838545, 0.36471186254964383, 0.3607382976649774, 0.20723422519876633, 0.26449211461053485, 0.35703949326045137, 0.11207855729198933, 0.1892844630263471, 0.12616022324198362, -0.14569472063996794, -0.0067913663736243685, 0.08443411614943516, 0.08180641790335375, -0.055576032237287964, 0.030485287943482587, -0.02795523393959099, -0.052349444570596634, -0.01927647379292218, -0.025155057926554942, 0.056183988039743386, -0.05190654183827094, 0.009184886284507024, -0.009370603743124371, -0.18944066331540535, -0.2660392733898653, -0.002030950057151214, -0.12412766006769493, -0.10302472656114037, 0.06609573042799924, 0.18416674645284412, 0.20515480774442385, 0.3689077221686055, 0.245864918744284, 0.21720475108201018, 0.0772189555910418, 0.08405298786967952, 0.04973324233789862, -0.12862694609489272, -0.029300889708230016, 0.018026006387558483, 0.061430042748727334, 0.0007204193192119423, -9.945584443711575e-05, 0.02353391902248521, 0.06239048818974072, -0.039712465959070645, -0.027140373671875946, 0.015430988872082484, 0.011662861022757839, -0.06360978652670983, -0.08752038804436, -0.07306665840485412, -0.028417126733602343, -0.28952012272865424, -0.041944842177200264, -0.10497816576845394, -0.011396366196941963, -0.05654253850892798, 0.22583533976713516, 0.022311254542441046, -0.05440633839715449, -0.04996028272648238, 0.0352778736614128, -0.014639978567652116, -0.04047581126175298, -0.1502675673379483, -0.05189075186460701, -0.012497509340930397, -0.034437543406592684, -0.03077368411487924, 0.042247152333849694, 0.07062008537958817, -0.06154213951523173, -0.061349419151818706, 0.061936436417745, 0.0011319903695008438, -0.0010691357862932572, -0.01076862681245254, -0.14018765191471128, -0.1907313030964709, -0.03158205814584726, -0.1383539808312126, -0.3406759591165584, -0.17745457060404501, -0.06914073536146474, 0.09003641280942508, 0.15019032969045348, -0.05989418542089699, -0.03197660521736107, -0.07646873527056022, 0.023544164291782264, 0.03617651432718373, -0.09459612119288655, -0.10665038658450551, 0.01053149210434268, -0.08996445882524826, -0.011418828001645495, 0.015420640375083304, 0.05182692079478313, -0.02555316397965285, 0.002405745563433634, 0.07895337741411795, 0.04219365505862154, -0.059086133465823844, 0.05570003764434108, 0.020515835890156403, -0.11732528679719326, 0.028424131910606703, 0.037505958434605594, -0.014548210453441353, -0.043368137193374276, -0.16520621097635932, -0.14602415039604222, -0.15842334326249918, 0.05312598178068389, -0.0745921686937926, 0.11386595355893908, -0.0587875788619391, 0.09860888077542486, 0.023890589291518445, -0.0021982420337762123, 0.010793003148101209, 0.04197106668100725, 0.012158138258175437, -0.06819470694397087, 0.02859128660796917, 0.043328928013012594, -0.028987409365715172, 0.03410647476442323, -0.07849020129116345, 0.04242368729272281, -0.016262025119139847, -0.10019630537695547, 0.012331114910654337, 0.04551299081602673, 0.10771926962169198, 0.05566337053675802, -0.09056116225181543, -0.08045456238938042, 0.05333884670518325, -0.03328470266461682, 0.10899780202664815, 0.19397246085261796, -0.00517016813691111, 0.10316789173473184, 0.04527235559421475, 0.06660724841870228, 0.0279873660796467, -0.04928924831009025, -0.059730024823888776, -0.015492748993930095, -0.03670019158285395, 0.07010705171659103, -0.0022885723874101482, -0.06621447569231939, -0.023446336480774592, -0.07632462956136815, -0.07646687591440238, 0.03103647319260174, -0.0045968331810398505, -0.09551888994160508, -0.04074700807918395, 0.09557621230665063, 0.04670777506013176, -0.010284607236855857, -0.08087459297782854, -0.06096513124420399, -0.0928823983704934, 0.0896617863565407, 0.16502390076729453, 0.18728432444508475, -0.012426867599013978, -0.02085488388281056, 0.12015277799518229, 0.10870356929677431, 0.005516233697021241, 0.006160259623933985, -0.067144296379751, -0.025613119691385446, -0.018872147933052277, -0.002215476793844176, -0.010096006743326572, -0.07378282635903129, 0.005355513574715545, -0.03653419685766192, 0.05809191584693116, -0.04179840143970878, 0.0076664781214850096, -0.04380720063814764, 0.03126105537262536, 0.04357082507992444, -0.029443848660716837, -0.02335606927621749, -0.024881028152066456, 0.07160417386500788, -0.033822212376037324, 0.09017822219959562, -0.053128392133633656, -0.06979564559281515, 0.09351718107870771, 0.0462167995057801, 0.09818064306564275, 0.04676763982617104, -0.02753053160680609, 0.002430536826304594, 0.0764480226527074, 0.050110476674296564, 0.05335005436216425, 0.03912628013794203, 0.06848126452784697, -0.01282503212387913], [0.011463125835691618, -0.04247985083609393, -0.05388552154716696, 0.0559665185948823, -0.02252234453825913, 0.04096936266952732, 0.05443134700059549, -0.07329172548634169, 0.008225935069266013, -0.05543772634090753, 0.046011063294461974, -0.07135024746329385, 0.012183591391269073, -0.034137905880265246, 0.016209558881303595, 0.02083171530954955, 0.043980722098461406, 0.026339497758393712, 0.02259490899747299, 0.061816425120741314, -0.0451571929681814, 0.0516959616195887, 0.07373335605768797, 0.0018766319765588235, 0.0594696863566318, -0.015462707453521893, 0.06968959628504395, 0.07932159345837092, -0.02055005041363346, 0.01911375179204755, -0.01670569498739817, -0.0765362557239547, -0.02845693033044535, -0.01378416242036043, 0.05066206746752236, -0.03071266421681864, 0.05395868021940803, 0.030697685096236313, -0.06689031274132898, -0.03766009950274495, -0.027913743209212402, -0.0765601213931567, 0.0751410467656433, -0.053742088689452475, 0.0077529773345055885, -0.03366493619154577, -0.04297126398777799, 0.029515427501243398, -0.03581771961388418, -0.01879851895129343, -0.023763830313998955, -0.03663368166558081, -0.05892798125264996, 0.05014023194282788, -0.07651656633292027, -0.03149865630351805, 0.05702126221005194, -0.05488967324176322, 0.04648831227841885, -0.0237997990125995, 0.02983561654474593, -0.07127601009321384, 0.04274436865487938, -0.039851786420465996, 0.05930628448916091, 0.05271820695789083, -0.017145763834354746, -0.048992938143275655, 0.03509505598220456, 0.05555026995462327, 0.07413647765532955, -0.0001450366416379301, 0.020442848175017053, -0.008477219971671869, -0.002845719165911714, -0.07395812176997668, -0.08740336137641155, -0.023004056219811293, 0.0012367847796711507, -0.05096803197906743, -0.05981763171159862, 0.05664959971488444, -0.032690716878522805, 0.03986378729548684, 0.04639853409620856, -0.017277364001178117, -0.0745722541283507, 0.009584310282861955, 0.05859644073348711, 0.03809406401982037, 0.06311194675474815, 0.00401606245837508, -0.013837583618315134, -0.05382757209910463, -0.006377283938581636, 0.03249696897993319, 0.03667205264852767, 0.02407928098769292, 0.04340982942623526, 0.056607695451678965, 0.11095781115799067, -0.0019817658721325232, 0.03242462756502964, 0.017208580941722115, -0.051778349644409624, 0.003492081389058662, -0.03925640341772627, -0.07082299302681583, -0.0729457917132832, 0.0779389422907195, 0.012960706293927255, -0.034703180401897446, 0.07667995882357956, -0.007435425548458746, 0.05411026370313496, -0.08125102960916084, -0.012267473788659096, 0.047941547027906324, -0.011049267065097077, -0.02368655334800068, -0.037188172223096595, 0.07848672037228305, 0.0298843106902249, 0.0337707889516444, -0.006802518606895863, 0.029429930798667372, 0.07021847162159854, 0.09697316967162123, 0.10927394533763499, 0.1479035562036598, 0.16063106577127625, 0.02801692583168023, -0.002369351693619641, -0.11738614194131608, -0.013907126260893955, -0.05356100364376523, -0.06506506678868793, 0.023601658258502013, -0.03103767943669369, 0.055915293021672544, 0.06988772296586998, 0.014827948357597986, -0.04183783792764823, -0.03937445604588338, -0.05340460063308213, -0.10462882072367072, -0.08700090821707658, -0.14102622681018417, -0.09186483714226472, -0.08155929935102421, -0.008835374970225135, -0.04873636033284706, -0.07487004166635552, -0.0028770578780367814, -0.12150964595681606, 0.014635433752836676, -0.028144220510268943, 0.13054214521899268, 0.08187355670795825, 0.012350183395413631, 0.06787236248252283, 0.17214531135478806, 0.1620283211932483, -0.04506305036285571, 0.021478928936700697, -0.04813582725344293, 0.032364243431498074, -0.07591166236559764, -0.05551674479457718, 0.00661714681582162, -0.0576299455032589, -0.0293675068488116, -0.03359784100464298, -0.06896160819899923, -0.12679083410636174, 0.0013023356091162591, -0.019073079820732197, 0.08061242967753625, 0.13153838782620314, -0.044138600457174514, 0.08813982982357123, -0.15638917920023931, -0.06613656340218727, -0.09956843370781251, -0.1732857894848892, -0.097189558132588, 0.07162339511019537, -0.010329664555597187, -0.024253879829913765, 9.435725823875307e-05, 0.024229058983288858, 0.02045764986794268, -0.050259617115888784, 0.0046274384667306535, -0.06247113760008523, -0.07190267791245163, 0.04804186741098326, 0.056243959112092894, 0.0611475553156675, -0.03248100886109699, -0.06350647526492899, -0.05586117793876328, -0.049881233746034294, -0.07775684401260613, 0.05738038881891895, 0.10442866122054649, -0.03108380795254727, -0.05508805974552434, -0.15978564672880124, -0.019416073413878982, 0.06802522494633294, 0.09913593192790186, 0.13845971780813943, -0.058602536877511685, -0.06516103110513037, 0.0718411950541098, -0.011043309182036519, 0.14248095086206233, 0.075548633965133, 0.013414520618350684, -0.001328127096631023, 0.041867842098322124, -0.0042656153946687035, 0.031704346770836465, -0.016262596884312638, -0.04570881829453126, 0.06349670579893509, 0.01930639329241786, -0.037139012090933954, -0.056021352580643245, -0.0006573825083551862, -0.048975760317146615, -0.08041468438475023, 0.15244064113869324, 0.09840199202066029, -0.12676995308468725, -0.035857547422925774, -0.06709651461381727, 0.07511671508852368, 0.20310974271206916, 0.15997329060996124, 0.06258463050879158, -0.0973380726503834, 0.05076878946079217, 0.08113563889619879, 0.12548750765549735, 0.04119551903971211, -0.012787955546906343, -0.012472372191393421, 0.043911005114653845, 0.039940018457746446, -0.043806712057977426, 0.03694750223900615, 0.03729711143982452, -0.005670784361089517, 0.0026512744528869024, -0.07657659853444677, 0.10232640773616179, 0.008659562557870317, 0.1316888113276958, 0.003971101078139757, 0.08442420198340397, 0.14128877476016544, -0.08292368717707618, -0.050345719970575756, -0.15361053935338967, -0.15021760421661212, 0.10967235476491106, 0.15720822750173194, 0.023304365696403376, 0.03900582878699301, -0.013928051831370627, -0.10834229723527199, -0.0771095874963685, 0.006895496408632861, -0.03789494451436337, 0.039225101070805214, 0.0043683387495212014, 0.06535207046885942, -0.0771104728701449, 0.031412571925046, -0.059266896924744114, -0.07687823967192581, -0.012028049608654128, 0.03356002120359453, -0.04508456404079593, 0.14492550129691198, 0.041660845390322096, 0.09065847767411334, 0.08106656311446102, 0.0009926079525602375, -0.09026098643340662, 0.007336248272189748, -0.026392060737817392, -0.11402125209863462, 0.02387196333262981, 0.11004024490680432, 0.20903383833284456, -0.05575618405376474, -0.18915250199593248, -0.08124546374928392, -0.02855148565340727, -0.021039400382422187, -0.04426377283498822, 0.030832549981922575, -0.019776536675536742, -0.07774549668679406, 0.06582407403303747, 0.049179534463070586, 0.019470118660397127, -0.08117835104305102, -0.0004923125905089502, -0.03734409442682083, -0.041784898464255225, 0.0019032518292265875, -0.08210446689692694, -0.005676716698254693, -0.16726809822361932, -0.20557614214244793, -0.12261828269948778, -0.03447597814415123, -0.18027781542387358, -0.07047822530377032, -0.0401252598497171, -0.08241382237893856, 0.034852983561054526, -0.046458866694449145, -0.04783509867521464, 0.002550500076274995, 0.135500556370603, 0.04564006669859458, 0.02297005639191907, -0.06353993197070593, 0.04774044657121911, -0.056206954285213336, 0.05609577332704325, 0.0581328926257604, 0.057826075365428255, -0.016884235663242653, 0.024214917713635105, 0.08210373441492223, -0.04195896291186779, -0.09421242780552382, -0.07593461805915036, -0.09393551772847133, -0.15014467876077392, -0.11597801204591963, -0.08236574782061513, -0.03246364941223139, -0.2699525423606877, -0.19388432071285508, -0.19035802663874857, -0.13628552516323086, 0.08160001350184176, -0.052776096462400855, -0.15361031818465087, -0.11870421488352868, -0.03496005556112844, -0.08060099979182025, -0.10315335113334645, -0.0364826305230196, 0.0036247078379661826, 0.023979933276857306, 0.05217145274067307, 0.03866532209911375, -0.006282489663439317, 0.06976023819455617, -0.032583982926493386, 0.004422594805911484, 0.03449475520354284, -0.12855933196815228, -0.08412414926907157, -0.2538986455407747, -0.18336206554686252, -0.1859596104991824, -0.13146258661826946, -0.2121249062225844, -0.16619837266496557, -0.09712186017437743, -0.16214364849727692, -0.14656115954896623, 0.07905784261970603, 0.007557907085248287, -0.04430793544776463, -0.011597166823819697, 0.0017394718530409805, -0.12604088819588127, -0.11871328155855941, -0.07677936509949486, 0.05642633366148241, -0.00992918744293909, -0.04559605261008943, -0.07493255386411903, -0.04495486464409381, -0.04498023266714185, 0.058330108389687364, 0.05806343048249509, -0.0014528115201985852, -0.022818454139466985, -0.045175523570162406, -0.13937832458395344, -0.13759815816162962, -0.09240999219373564, -0.07228040057054494, -0.19667542883758782, -0.23532245251232223, -0.09424755987986941, -0.1293529067715305, -0.017813669354243247, -0.07318439721395399, -0.06137506315835058, -0.1460919333666055, -0.14732643870748904, -0.12581406915203183, 0.03364383609693373, -0.07436646606475386, -0.052379516142644585, -0.007198157633176121, 0.04409844827383772, 0.014242375105800018, 0.043259478860757636, 0.022564969254682914, -0.0662874546432889, 0.05630493234426079, 0.008794508450936213, -0.11373723235011665, -1.362761397359473e-05, -0.13186686716594787, -0.042514499555646915, -0.05160752857122639, -0.017801363666997926, -0.04290418058515948, -0.13828784593037793, -0.11769193425412547, -0.1781180552366507, -0.13063089302615447, -0.0521544463348822, -0.09596414610172838, -0.09815016139137582, -0.22886881843632434, -0.1512070904419965, -0.06329062408529271, -0.02900104248189452, -0.12143594760839252, 0.01055091087058054, -0.04854816552306865, 0.0718113993394964, 0.06489088863921186, 0.06799581051447823, 0.031133381902449325, -0.038829776674901464, -0.044734345767711466, -0.01809870921403224, 0.1222129647385206, 0.033488403878440744, -0.11384064720427821, -0.07379463344587336, -0.11133987604239255, 0.0163676061901241, 0.03293240028242709, -0.08138350337834609, 0.01682698078855888, -0.1688411086772914, -0.13082251158272404, -0.0632976732805458, -0.10425635084414017, -0.16986915076362513, -0.126958812023133, -0.2181859872961662, -0.028911746593151853, -0.06426325537640483, -0.029086014717654284, -0.015394683952523212, 0.012562672033216142, 0.006997188627764936, -0.05542342541773441, -0.07980590422066215, 0.051100626837172695, -0.06592188002306244, 0.005521885515956246, 0.08740420897593237, -0.02485255991650093, 0.06937376970346333, 0.004280919924143912, -0.1458613078154946, -0.06723974430859062, 0.015696257260932836, 0.04360904682789553, -0.05648142529409144, 0.02267297501536261, -0.023945997461761747, -0.14942153050316806, -0.09057887090454726, -0.022357222244746972, -0.14630093662304464, -0.016054121975153823, -0.06022043863896333, 0.006781381072681051, -0.13467700140645492, -0.045931571343904125, 0.008232798300115404, 0.07551668270658199, -0.04514538705483811, 0.053443859775324926, 0.01171265298552667, 0.047370213936156015, 0.052448666717663635, 0.023555601524371785, -0.02389955446246488, -0.024903669511385337, 0.013929676709960018, -0.0411724433543722, -0.0820489024380863, -0.037205564968149314, 0.05158515561488359, -0.024607529712884036, 0.017607093914568415, 0.03513333392308806, -0.05699755171054259, -0.19366926961916855, -0.19940891659849516, -0.14490592110774236, -0.043785290050626445, -0.08583182548342151, -0.13506579970117835, -0.01909474695393299, -0.0936951930562258, -0.06333911733011242, 0.014228196028393803, 0.11686282942607981, 0.021183457876604007, -0.03554799373881693, 0.03550281606447783, -0.08017001473889582, 0.017735057648239128, -0.08130950887772886, -0.010324332502941885, 0.018667200876017854, -0.0029655762702734726, 0.13189636021095885, 0.05610804974352536, -0.04395384065599701, -0.026791398936287382, 0.19581077935824484, 0.19823774205013667, 0.4053224374252294, 0.07759028457636641, -0.06081001496599332, -0.14132477155462952, 0.06713857694712261, 0.030270023332757513, -0.09074230533115778, 0.010427466811222084, 0.009957062244756261, 0.08083297833237241, -0.00032051734958802496, -0.09816265250184672, -0.026551463455823314, 0.05304997815665223, 0.042651825719633274, 0.00020839593409542612, -0.06911384898030207, -0.017724543170450822, 0.04576141372088059, 0.015742167458276207, -0.01542645793097086, 0.13219984345768182, 0.09440780484671221, 0.19667354707924936, 0.22905104809712282, 0.16855408044241985, 0.2985164169890347, 0.36821529259344943, 0.24320622400444145, 0.1688996648025763, 0.16580530301282675, 0.1605974322403623, 0.14117960005805505, 0.1874602389272351, 0.03497027720525211, 0.1222831673470821, 0.20927939054915362, 0.19368730498606865, 0.15063632537207428, 0.06082416662435042, 0.009235874574111128, -0.027371079372858667, 0.05966658155375524, 0.040613969831266916, -0.0019018179894904068, -0.0446661196962621, 0.10615784256906895, 0.10955662386508645, 0.026310780233587402, 0.058631167844529916, 0.02082358278782841, 0.005400662827022751, 0.2020643014018092, 0.17127572247534378, 0.1301376053216228, 0.08827569616315208, -0.00026268762629468674, 0.22365408372438164, 0.3537534553868875, 0.3795725305596388, 0.16802729761150226, 0.06808385400334895, 0.12752531306698553, 0.16599719760909062, 0.2192812071139179, 0.20843913871564124, 0.1637204255110945, 0.053599201072540445, -0.004243684174094834, 0.05300857575157162, -0.04351598451587219, 0.06754922643603836, 0.05403687461081315, 0.008467066869475282, -0.026942453712794592, 0.06497728432935664, 0.11676007085990185, 0.1767193033707354, -0.018273783629917842, 0.11499150815527562, 0.16755394097951212, 0.05996636202413001, 0.0933417592565743, -0.12138159990449562, -0.036658219371652145, 0.10796470148562684, 0.23589218462237627, 0.29350194270344526, 0.05993535029183017, 0.10489580225862151, 0.023190347992601498, 0.0485374929493251, 0.18047098182982002, 0.17074560607857703, 0.19977640868150826, -0.026927280153444855, -0.035736992912211836, -0.05672708479723044, 0.06726454615729041, 0.05165040478949831, 0.002973913172966955, 0.04171770503682475, -0.058266228073297205, 0.016910728770532703, -0.0697007320737603, 0.03302990990031479, 0.008080801972273049, 0.17315272277535274, 0.09310229465781727, 0.02328803453210553, 0.14552825457072602, 0.26740460857543064, 0.10606012097064271, 0.07594183818196887, 0.15534368365539453, 0.20584491787540773, -0.019238590228228637, 0.0024994215888967234, -0.018428568769464016, 0.002621492528666399, 0.19973321468890956, 0.16729966322505488, 0.06598228442642981, 0.04888922550302558, 0.08647535355433718, 0.06362783813377354, 0.004416089926847375, -0.005984069882522203, -0.002741876931008469, -0.04013728300134857, 0.033557174853997764, -0.032288116201306116, -0.11141765674524363, -0.05422331806561089, -0.0884671103759328, -0.12386801721333537, -0.08757288212353759, -0.24317876407249442, -0.044897679846944406, 0.0638879523051897, -0.004252818648992898, 0.11486267845487542, 0.010958227200568861, 0.008137635770271465, 0.20979946306227903, 0.19764550039311954, 0.00484193618723601, -0.0883691401091037, 0.013783994237708578, -0.01573183117899023, 0.0855650767257072, 0.08823654646893052, 0.07659355409689049, 0.01804693934639167, -0.034872038028333205, -0.056564807506241516, -0.014298475537161834, -0.030944202331757768, -0.02991000452377455, -0.022026847306942883, 0.04351896774939677, 0.03058797142270466, -0.006992387133356276, -0.009851137750526779, 0.03891261675582994, -0.13020644662390762, -0.1761306667116554, -0.05688034215889263, 0.007528658397541944, 0.03204744884961184, -0.028040387484237903, 0.03641681925046872, 0.09926694434449299, 0.13939145375724907, 0.1004558393851694, -0.04777624933728813, 0.030264495581061673, -0.037665334817405506, -0.0310362475331791, -0.06636345010544059, -0.020900369311610663, 0.03087944751719149, 0.02249122776932516, -0.0024156951908650137, -0.07594727858359028, -0.006241369072018013, -0.04485794379026409, 0.0033971140499553876, 0.008303690203958856, 0.07334912855680548, -0.03430025715144165, -0.07372711018958178, 0.002671003777629603, 0.0033105023515061227, 0.01048915451927988, -0.0416060816487624, 0.012419875478297116, -0.06898574730964221, -0.029575409274980972, 0.05079268474410864, -0.025858364952269144, -0.08012550390114108, -0.010662438594247562, -0.02717183309098284, -0.01169088876937328, 0.060299223645611494, 0.02502279939945621, 0.02710652726236, -0.07138123511350826, -0.006277175521744463, -0.06231943656891386, 0.04185429572245891, -0.06233141031353917, -0.011582432919468352, -0.03999172913778916, 0.05620399655360758, -0.06669509646742147, -0.0056304764645191095, 0.07587733083103369, 0.057889765761044175, -0.0468646118307835, -0.0447888339847697, -0.028434741822590388, 0.0560276804141043, -0.06888836573330276, 0.07315680440155341, 0.01666077498417115, 0.05289908076131545, -0.06410612751079449, -0.007821134597623222, -0.03653259717899361, 0.0544787371268462, 0.003880585157960143, -0.026880966656120272, -0.06759598791135257, 0.0038396370168973515, 0.04793188127712655, -0.041243538458323355, 0.0386388517455695], [0.05025446355410762, -0.033791260353633466, 0.01791004251525101, 0.05671522074987398, -0.05624644318664071, -0.010401924084340444, -0.016948387302049867, -0.06777762991528925, 0.002271811737097562, 0.07716723751786975, -0.06928358578537644, -0.06817913820815444, 0.03597688489460048, 0.06791106116092471, -0.06509513471271419, -0.05167137674509842, -0.026631777258248952, -0.05257896925817599, 0.03926277110844979, -0.033930426219940094, 0.04174807639685922, -0.03818819891257638, -0.06387279368472709, -0.04435777544953596, -0.04528579748223085, -0.02303603324185982, 0.07648300592181173, 0.03153379042331925, 0.04081191321844435, 0.036741534788545485, -0.04930457202995957, 0.017728472031844286, -0.011700241242560555, -0.008924234460086874, -0.06514894034788524, -0.06320216374094187, 0.06463308011622332, 0.027758289591495178, -0.050498287394109206, -0.042297611565606304, -0.036208907933582966, 0.039766313132884, -0.040031070940639804, 0.025645039441173766, -0.05922071119381014, -0.05733509329383553, -0.05064818200442549, 0.028074778620692534, 0.03718347106079139, 0.06322559326969916, 0.04325980375727609, -0.014100239831947206, 0.0014271532706514184, -0.07691505628832296, -0.01740411183611071, 0.06798569046599529, 0.0325662714626552, 0.05182192486185616, -0.06640759806330371, -0.05365230765363008, -0.05340315896460475, 0.07617996742210278, -0.0781161452587784, 0.02517561290537218, 0.07766619089281708, 0.03492756972852848, -0.02595779313263698, -0.014229309613430148, -0.055197124573574396, -0.02799021408701971, 0.007756378819116599, 0.052477090632407686, -0.10852234599593727, -0.017744319269504406, 0.0020654482224703344, -0.043129688163640253, -0.08465390833510654, -0.06494603200282655, 0.0107904948454291, 0.057597063667417625, -0.039090684950941035, 0.05205295986450453, -0.045780276068503926, 0.03884434514037957, -0.024754433215527227, -0.03616624562501235, 0.011609686912017072, 0.046516402762549425, 0.017931501589324758, -0.018875013580476815, 0.021982149609636802, -0.06005546181239909, -0.0033161031317920416, 0.02608167831196435, 0.08028566523034585, 0.027150444503672364, 0.11682463435601749, 0.066354439604284, 0.06130483268053819, -0.00013722861840570466, 0.020933637046708094, 0.05388594393860984, -0.08700412209271578, 0.011773299842988728, -0.04932318225213723, -0.07399634113199455, -0.10297900713299751, -0.04312123648892313, -0.03512199345760394, -0.05698633023087156, -0.0071775542557713234, 0.0325310957033671, 0.019087214337775674, 0.05310043170648083, 0.059902400610354, 0.03874392859180366, 0.047272516610497334, 0.034811108536131494, 0.09689341550890658, 0.11375821416437559, 0.046590766423159374, 0.1406190622580207, 0.1370880761765074, 0.19832582916564184, 0.0457959692782852, 0.1515356586381344, 0.0653966238920899, 0.058342609985173224, -0.10431119914098912, 0.04559448510865633, 0.08684895355782171, -0.08427612329937478, -0.058061254287242896, -0.03982790167518033, 0.06713273991769148, -0.07788992716471546, 0.0795073347036198, 0.05954080634408883, 0.07655479700305787, 0.006705248361608948, 0.07631297030135933, -0.07565814393234134, -0.013744346358518336, 0.07649100522436167, -0.06588410095666435, -0.009980726868165434, 0.01799330660367291, -0.03778949579439081, 0.04038370166870738, -0.023478091460140228, 0.19790410172024156, 0.30322020277890616, 0.3045985953485985, 0.12679138002234794, 0.00857970258140789, -0.15399653019546788, -0.06790565347930753, -0.04080332581989779, -0.07419672576669441, -0.11152155631563773, 0.034084952087931594, 0.03351304864745491, 0.08132546318233286, -0.023645574407656876, -0.03211080502390063, 0.024758003333645574, 0.07986040378622905, 0.0025855893589189975, 0.0474636287643542, -0.06564610571536628, -0.0188314641542661, 0.0163799313225912, -0.09348582170614925, -0.06038066493770572, -0.04095102176990909, 0.06435267023103712, -0.09636922825521667, 0.08864020661471958, 0.1148928816788867, 0.11375116514332725, 0.14825817697861218, 0.23805859429979126, 0.1516293750867904, -0.08568469865419305, -0.10607280517164448, 0.05160719889924387, 0.0217149852613625, -0.11394102513063946, 0.07218945688258094, 0.0034052209125773085, 0.013975753227151264, 0.07285207252096026, 0.08925878185169484, -0.008319191960373765, -0.07082567080190232, -0.03746429378395971, 0.057449433666724586, -0.03509314419745845, -0.07432138073738793, -0.0994654938601619, -0.1448568089647701, 0.09363513379673587, 0.019107420477041108, -0.014059865906171549, 0.13353657424991616, -0.07740975943943351, -0.10771546465113312, 0.06178929396351585, 0.08814310498780857, 0.1361536500732367, 0.2362973947901754, 0.016291931959451743, 0.053313206732277935, 0.025668709503234372, 0.04388600529245192, 0.0859499686622241, -0.052299440214285856, 0.06719465560440555, -0.0016438508341012927, 0.012666642669019639, -0.0022452087119979535, 0.10375043100850442, -0.06607413469733969, 0.034693623153973785, 0.04278769712140183, 0.06341858729652695, -0.05375746931858505, -0.120245424565299, 0.008987344689309954, 0.14051151186030367, 0.17269525982026507, 0.06526942106440355, -0.020308177590840665, -0.08740081801980355, 0.02466224303625455, -0.018290432505287738, 0.06564730668965162, -0.017148199176976086, 0.20330286879586768, 0.022989714420121363, -0.04217897110985838, -0.07635122748563324, -0.004366909041875265, 0.03788661490682013, 0.039490501406287154, -0.03016149682067688, 0.07890544365147083, 0.042057310409110996, -0.01697592186097827, 0.017770240207602, 0.05802498063028751, 0.0012549083403898516, -0.039322854819744804, 0.03195246874136061, -0.06250019241413506, 0.02043897765862211, -0.034639337580440875, 0.1910935883368307, 0.15687867907887512, 0.20027867999500717, 0.09903466845345023, -0.04537323417076474, -0.05377935620874937, 0.06986325500353537, 0.0011192993205539443, 0.1020456186328273, -0.14579140187350342, -0.13751160712716454, -0.027456903988645146, -0.21508731204355194, 0.0797266638781577, -0.04670450191241355, -0.02216530416756376, 0.05206408989652483, 0.00867135031380236, 0.06598801805661912, 0.06101204779782063, 0.0870897070976363, 0.05968347967908029, -0.060784591006362486, 0.02411487123404097, 0.0002635619510459946, 0.06603893999123976, 0.019544266317937348, 0.016960364996312725, 0.01543945096226575, 0.11843131538329955, 0.005731204708682146, 0.09866126802825514, -0.13042662908269909, -0.027610136577298366, 0.05595207483666812, 0.06234100675055528, 0.033952818027697625, -0.06829865505567084, -0.1402759646623701, -0.02413097572921266, -0.09861389810552057, 0.013001869827577929, -0.17701566702864485, -0.15694409274539678, -0.030800021186152344, -0.051272603664305125, 0.0913640896204698, -0.014485078690506989, 0.036017028491277074, -0.049621331956830175, -0.0789739896008719, -0.03153246947836678, 0.015330301306629443, 0.021711930507917306, -0.06984621901084308, -0.06794702566941924, -0.08293879815842628, -0.07100761333220415, -0.06593683351458239, -0.12107948467210505, -0.14877589935284533, -0.12587824572858844, 0.02095019067088774, -0.0078851412218489, -0.21813459056941048, -0.3153462309371978, -0.09152309380299051, -0.15844945663339413, -0.02594502209030368, 0.028290865511312276, 0.04677738086743824, -0.013401143747487094, -0.04491589194253016, -0.032293521350771, -0.05415029499560381, -0.03817493901361472, -0.0022163757191106695, -0.006656523500029794, -0.07390787415492257, 0.06747337053857658, -0.01568618217185228, 0.0790810370865897, -0.038577988230095395, -0.10105910944013984, -0.15038320759517793, 0.000660897263379565, -0.11881721363285952, 0.026036082145036506, -0.012399996055312112, -0.011395201139741337, 0.058394078261979, -0.10793911092311877, -0.16469218799531793, -0.3598660319738018, -0.2465221386510097, -0.18220474828641875, -0.13529824562951667, -0.15070455109825526, 0.07708805477788787, -0.013884630241508197, -0.026217058907780817, -0.13883713123043326, -0.11584874476272854, 0.01882736696204725, -0.0631348502828577, -0.024093936732283182, 0.04300037383891433, -0.06969140429045079, -0.058325868225815806, 0.007316585384957728, -0.06718840709116647, 0.05245052270535269, -0.12122734144034557, -0.11491013489974708, -0.05352177955025863, -0.03582534600160633, -0.07025582251740259, 0.05383228825764811, -0.1622474302865121, -0.181441913881866, -0.16528639467465614, -0.18586926211725963, -0.35259056660373284, -0.2872845767758874, -0.3009081746635996, -0.12277361988399092, 0.13584779017619072, 0.051781701840595044, 0.008835246255632222, 0.03530993954698726, 0.0794691389944625, 0.07343612539600225, -0.011622692671725186, -0.00605734078738115, 0.07498616435395772, 0.030027075141265937, -0.021314622376829507, -0.05008215823864596, 0.0447584189117783, -0.03736156170111947, -0.09152619964451263, -0.13209514079917553, 0.045120727275294086, -0.0282909533481618, -0.12639121845830373, -0.16160916460349548, -0.1550799162534318, -0.10947037453515586, -0.0312243493809993, 0.081543888085098, -0.22154502267854517, -0.29584940504136437, -0.2902413876036955, -0.03630257647759575, -0.0004691105689234589, 0.17941684786595577, 0.058840008382202706, 0.11638519697874913, 0.06450502353318295, 0.008306438867742344, -0.0714640008202863, -0.028154584986337702, 0.026042087837564728, -0.041531110196290244, 0.07840388770525736, 0.04998688489684858, 0.03397493549300142, 0.029427448954918944, -0.0159880971075041, -0.08317831366970072, -0.09768824834931926, -0.1808157663636347, -0.06915969724464119, -0.009855889208418126, -0.01462588590678819, 0.13029648194387708, 0.09221453932914726, 0.16401957766415323, -0.18018899050528508, -0.21331858844716944, -0.3598898839047579, -0.01821816648159755, -0.03484261953226186, 0.05155580222755189, 0.0909405548814876, 0.023465745630557516, 0.04627869051679827, 0.002188338799052559, -0.09086099363270507, -0.03538404981492406, -0.029892974330079796, -0.048480339907487374, 0.03461852842969775, 0.06654431244977016, -0.06451735837210294, 0.0403114308482741, -0.010829744043209782, -0.09335017199692239, -0.14878194685409138, -0.10363823735013, -0.13004450877500962, 0.06518080344200049, 0.13770487177799146, 0.18731247374618937, 0.27273409839158164, -0.047898344993530136, -0.2974080739188683, -0.2687523608552582, -0.20098213336796422, -0.05144976924178293, -0.020231768052699706, 0.11854302488582165, 0.1083800631333226, -0.14423107069776353, -0.06050768231193097, -0.010852826555713426, 0.030256061440190694, 0.027977627208520633, 0.08067611539844347, -0.052607636431327376, -0.017817843125526166, 0.0631707371567399, -0.012090651657835887, -0.019460394031678815, -0.0023134002087234463, -0.03278377946490604, -0.06978116706464013, -0.11268899799521531, -0.04125416849365618, 0.03667455253090837, -0.13391030378934435, 0.021164645852616296, 0.049526374590752216, -0.08490438106121749, -0.42862759137755624, -0.4415159221845881, -0.15392555815368308, 0.07522302378540491, 0.0349402524853504, 0.05759680050945271, -0.07876750370755431, -0.17299887549931242, -0.06236111124376877, 0.026555976896414635, 0.012664802791035034, -0.015719646767700927, 0.0570082871585154, 0.05120269880103559, -0.012745967732187172, -0.03827355857995505, 0.09038484586474986, 0.05561107547246989, -0.12069867658340715, -0.0017351303884723945, -0.05188461833395057, -0.0639257255650211, 0.06256730702860204, -0.13227759288979035, -0.09578028595833998, -0.00834524188241242, -0.19193854259507762, -0.282194114502284, -0.46861536009348514, -0.18794934976669533, -0.018621348874122652, 0.19883364496720501, 0.18468441612525455, 0.06303887661691278, 0.202462448320807, 0.11371213220525786, -0.07036541935680006, 0.10596787226640138, 0.039653760148318395, -0.008087761781678054, 0.05714524405986759, -0.01622057997654061, 0.06333213521761, 0.059811235906883836, 0.01913337475061194, -0.07988827037851164, -0.05976814120134699, 0.04631125095933507, -0.023263397980684324, 0.008192330965503177, -0.16378402868717212, 0.013470028326555666, 0.04523593484150485, -0.014013868281070235, 0.06970177984400014, -0.18797852436257062, -0.2974770586409683, 0.0026618363149779555, -0.022384125684030313, 0.17788736858869392, 0.07615316814884772, 0.2864005175212417, 0.09889531856726273, 0.10467809832939368, 0.02288875065809612, 0.0015671762826782666, 0.10255771459253223, 0.01973760643232986, 0.04806490077398378, 0.04552633114847529, 0.06888318091023472, 0.049061391094247266, 0.0024205454975520387, 0.06387813745251353, 0.15316826624861404, -0.04895603480737097, -0.057461843140584196, -0.07008186151565547, -0.053070249962816375, -0.11945303310724076, -0.008207430136558823, 0.0994448888155039, 0.05389994513229255, 0.0070088374139653555, 0.051412283606275526, 0.24510183418547044, 0.1027414453215056, 0.1009275571308747, -0.04506746618352466, 0.0452295983756261, 0.05339494410886414, 0.07464107325719693, -0.0030874691804939694, -0.09907849759381672, -0.02585176150286517, -0.022382907960914977, -0.07116609240301973, 0.013662461164133938, -0.05390508658842399, -0.01432483090741598, 0.09022282753484084, -0.05091024144474083, 0.026964627574676003, 0.01882029319795908, 0.047424154687342644, 0.13101135836992434, 0.050336276178197185, 0.06878882009724727, 0.17496979066252408, 0.11580408557763247, 0.19299331921001087, 0.2769269263212353, 0.18551327552823393, 0.03980327769697725, 0.06261355357596049, 0.00850767632316306, -0.1424932038680165, -0.07810420153950665, -0.016651662011209756, 0.04770532482244586, 0.1669065598043307, 0.06023814217071628, 0.02016317913368913, 0.05220530019417286, -0.012092145802460317, 0.029841723920961603, 0.014621825231131194, -0.026245975937253477, 0.13485159146831593, 0.06905643166778438, -0.019268495327296305, 0.07446188797000948, 0.08313968466609871, 0.22282159449212158, 0.28725057936238046, 0.07367277446910726, 0.19208545207994768, 0.11145815675898968, 0.27512971347653525, 0.28937437816466566, -0.03763786480059988, 0.05702721545138377, -0.022529382893720543, 0.1280344434377659, 0.09880532840575565, -0.03817368765927144, 0.01573651069425506, 0.06826288933306841, 0.12986025574120982, -0.024293214998373565, 0.04241870283887757, -0.03834874444569107, -0.06758750191009001, -0.04045705819446451, 0.044660542721787294, -0.002620515129329935, -0.04942486867141277, -0.007131749881120534, 0.07405051053399143, 0.13681763496386046, 0.16719066864008308, 0.19694204524987344, 0.2049197296535925, 0.2744319272429694, 0.3400821152805596, 0.28237953936441396, 0.19914733251185235, 0.1223371415444363, 0.13926053065334087, 0.0360947890454854, 0.20504893838546792, 0.09398050178908325, 0.14491994929911117, 0.06905492445077903, 0.14005752615893782, 0.10360743418039965, 0.1384231630106493, 0.013526593236005573, 0.06141141734104153, -0.0555056414309146, -0.0027873063396911812, -0.009462460603199593, -0.0317157086939276, -0.0012837580821911246, -0.07984137614992694, -0.10918283071127785, -0.07973531242994707, 0.022979010750714644, 0.0889003124945122, 0.20086111754507255, 0.14084096109187055, 0.15054904804572924, 0.06786839945954552, 0.17584984239980295, 0.051485552137808595, 0.02386124265584893, -0.030606220898865447, 0.12573445797004829, 0.18004340513128636, 0.16838844858207844, 0.06709087319329551, 0.053849184809503015, 0.028823165349624747, -0.014385228279387421, -0.016099346180600535, 0.020248629471453127, -0.0047194235674690626, -0.06849456603829433, 0.00595507419777376, -0.06521954070429745, 0.06337609701941299, 0.05212732582427352, 0.08000091051403654, 0.017595147575660733, -0.06183529037158982, -0.036440946910911445, 0.017790725464717543, -0.03313331430710177, -0.04800618338453346, 0.02364076091960196, 0.0012281915882707088, 0.03055228309184446, 0.02199984827857653, -0.025538215334635822, -0.12955895593602615, -0.03456932445536101, 0.10197110041011666, -0.04279980850844447, -0.040076406930400495, 0.021888473745513018, -0.07671895337072127, -0.06674378024834685, 0.020469512481170883, 0.005713611445700406, -0.05383674532003392, 0.01652455154203039, 0.04658041374417321, -0.053616942131288786, -0.04865080776592332, -0.01913087164264203, -0.03777675094578822, 0.05070719808566217, -0.010563450908480836, -0.0418203952148198, 0.04382345552275847, 0.03460723672506799, 0.08294271767355087, -0.012538343357757794, 0.028997285240847135, -0.010696029860021529, 0.01841600283916987, -0.07119476870301843, -0.11444285663570794, -0.05875942244169903, 0.0023559045754276147, 0.012877276737958198, -0.0432401215949852, 0.06323993379435087, 0.025107048020658714, -7.421702846444026e-05, -0.009923872833506583, -0.06634296118250059, -0.07429483499417407, 0.07845933015464415, -0.06999516340336928, -0.013216192770642732, -0.03733533835722705, 0.05722302869091658, -0.07995501522251569, 0.05819298448068477, -0.014734698948765237, -0.05972413589584246, 0.04781752293341899, -0.012311245200653012, 0.059628190031168, -0.0537138241886197, -0.01360352006271348, 0.03874818460893059, 0.05828793449134158, -0.04615823251089501, -0.01480058078149291, -0.019576106457826866, -0.06771047863001381, -0.0440800545807065, 0.040077848712239204, -0.07502656739238167, 0.04200286716733729, -0.06546738907820687, 0.036151152988996016, 0.021474315521836734, 0.02190784846128585, -0.042858899609114647, -0.0742003444995341], [0.07025979174123803, -0.0790999357263535, -0.07037571971226822, -0.00435249755924598, 0.05279955950775944, 0.05120078545718762, 0.02722846407644741, 0.016193755697756385, -0.0213275756722102, 0.0715825489812979, 0.018676498096019803, -0.016492204318916515, -0.056849591657592284, -0.0001260674601856603, 0.023501736804379586, 0.05154207187664283, -0.014214283566223146, -0.0596363964006392, 0.0499589516372374, -0.04192807018884185, -0.025314926414267483, -0.0771321186249851, -0.015282418644215312, 0.007399627947876478, 0.0005477339077776117, 0.0013744109387086034, -0.0758627469560794, -0.009041396011656641, -0.003253042173846671, -0.022719876419735434, 0.0504984145049594, 0.05911402005230093, -0.004745911279173565, 0.03221043574042336, 0.014700847783953544, -0.07465836219770819, 0.043760185248607725, -0.016580644872653316, -0.056241234279411, 0.04399217727665561, 0.05268752662864916, 0.03229696963198833, 0.010000842165367218, -0.08012179246200338, -0.05692721128721107, -0.06037433603671992, 0.029804458051288917, -0.019254546461164024, 0.04150728490724561, -0.06851224710809918, 0.05350112340546273, -0.06264822717442918, -0.05729005987251798, -0.01993817908262601, 0.020067196093067577, 0.06270814231820704, 0.06818123450806882, 0.03729498818094952, -0.055745861009430686, 0.0014731805994345065, -0.03440956227495998, 0.001473550826073488, -0.0783170657143867, 0.005192893145567679, -0.07264694530962033, -0.047690059182302305, 0.04553825617325047, -0.03826315924337757, 0.00853011845277442, -0.0660138125015228, 0.05306403182254072, -0.06422693293551034, -0.0072680464270925785, -0.021082664273235265, 0.007590717984756145, -0.0006989836398745917, 0.050103006266387515, -0.08277159488986947, 0.07836165799641223, 0.054985175418814744, -0.02484848121971263, 0.04942062033681461, 0.03883239150031251, 0.08080674742756971, -0.05951582042532101, 0.06453097105231284, -0.00879657866608576, 0.04082100277964806, 0.009811771653492904, -0.02395008001759849, -0.006664226982519456, 0.07016325157201403, -0.10433497085678907, -0.06323484684421897, -0.0015067355083254767, 0.023944201237982212, -0.09388606166685978, -0.06695730915463005, -0.01796899668037187, 0.02328975310053753, 0.10330956979597841, 0.11000362043811224, 0.020575598663671864, -0.03786654700767943, -0.027016354763238926, -0.047538869340840485, 0.005034174969890082, -0.03979323236351871, 0.06364960762184864, 0.024447149696296896, 0.024665954678544877, 0.08017336341124814, 0.04710754556747651, 0.0681955974793348, 0.0640698203556488, 0.006142278769677203, 0.06050621863917739, -0.03356757640804317, 0.06133975805758109, 0.010788732907149262, -0.03477800379423758, -0.07021925617436489, 0.11689137335714729, -0.016543404802049973, -0.00875632607222777, 0.013979480284478606, -0.04466961233443043, 0.08447238710858983, 0.08628109581189233, 0.08198965310724705, -0.08083060240997383, -0.013475396582248899, 0.05758048431821577, 0.09861185168656594, 0.12331855552393473, 0.023886081082136794, -0.09605260349558996, -0.02076532272617133, -0.007058419099142248, -0.05592965303359583, 0.005721462891204468, 0.04163829775045827, -0.02696541094303711, -0.020332095298400528, -0.10143102287631253, -0.05645627446331066, 0.013623115297682214, -0.028062311283627468, -0.12913578005331663, -0.029515841386330528, 0.09489995554021881, -0.08451705336384188, -0.14716984190914384, -0.1283509391336477, -0.039563164580015325, -0.09559519062881904, -0.039720219570357145, -0.00010231567489020481, 0.12583349668250954, 0.42420016415827394, 0.21533406311567407, 0.029614562163925516, 0.046834575007538105, 0.09129812463553585, -0.028869752540739976, -0.0742486547817592, 0.01373670764009855, 0.038546360029336355, 0.047610460398506776, -0.07528372395738976, -0.08997795572609606, 0.033168948879214524, -0.0007206866951157278, 0.07809884172169908, 0.019084669350332758, -0.0221082823171872, -0.023533678704889066, 0.0943956153751682, 0.09394708883304151, -0.1464803519404793, -0.08438906321053674, 0.04656785170858043, -0.004716469996823771, -0.3527388897025676, -0.24220789453801744, 0.18201269283752453, 0.2783273202022365, 0.22048562455603646, -0.01728127845743373, 0.10656579929338261, -0.16681475775076116, -0.1679636261276099, -0.057935491940773215, -0.044284164016233335, 0.02255529469329466, -0.04498379718079066, 0.04793034651275561, 0.03894374042411664, -0.010190906375188552, 0.022060204969095602, -0.009669835234054043, 0.06327144934392949, 0.19362519715824403, 0.029363100293763437, -0.09190520255506564, -0.07581686144005428, -0.13762921317486498, -0.09857492283377428, 0.02324149606618415, -0.10490307040382639, -0.24052673359770527, -0.5052355113376045, -0.36257052358049346, 0.2851733791982401, 0.40095684160093753, 0.26153334611078644, 0.14578080005599753, -0.04867236085549794, -0.16036410544074683, -0.18732965796362425, -0.11817300760163635, -0.051171408737755206, -0.0911930904226701, 0.06801693828040428, 0.03485260267168245, -0.0700769031221137, -0.05771472790383759, -0.030399749252674434, 0.09366257309521181, 0.19865322315069697, 0.015624702992082434, -0.0482318134587013, -0.13587989466077277, -0.022282009618888123, -0.14290943173285903, -0.03446392648108136, -0.08927875953049884, -0.10799440034887636, -0.49229031779784466, -0.5826955475300011, -0.14913420570731054, 0.48857442412231855, 0.5785310058791112, 0.3324657898808415, 0.08164085891773451, -0.08041643858305153, -0.19445146206978034, -0.21458135533621925, -0.23564495623447784, -0.13426799148519897, 0.02020556943744623, 0.011931415463004318, 0.005170703677771297, 0.041155712850899744, 0.041106372771974646, 0.03624403373078272, -0.007302405614277403, 0.0835980712827354, 0.09159302218534443, 0.0023127950117018303, 0.0749285539705228, 0.07623570701617838, -0.09551793201398358, 0.026180308266931348, 0.12657515759811558, -0.08625791020371688, -0.36526959435972955, -0.4398345366500911, 0.0017948488910372218, 0.538840330908447, 0.5662338916454845, 0.25428820808240993, -0.02854515552732248, -0.266690355840819, -0.3074297286987124, -0.12989492617962942, -0.12148586118348248, -0.04314452194378979, 0.03642900701824218, -0.011170899394881641, -0.058117627017249957, 0.05850805168614228, 0.0679762928663325, -0.059547024165669066, -0.03291483218760113, -0.02593042777312107, -0.06615879120966849, -0.13467093876133074, -0.00910881310198998, -0.09715078013911999, -0.11922277639365411, -0.0581090534200012, -0.1465636623865949, -0.16974676696856889, -0.176444096406838, -0.17627690349896288, 0.1777124682939281, 0.6937721927560053, 0.5817300917806338, 0.2152809180577483, -0.2033617128559386, -0.4203171354947438, -0.2851916913480767, -0.18254632293732584, -0.18828567236979854, -0.07917241634473354, -0.07032836048670794, 0.002998866828878912, 0.055534907322763394, -0.048713704602696736, 0.0723530266061382, 0.06906564124944577, -0.12685579126795024, 0.02123736353753614, -0.1655108237915145, -0.1878021350593027, -0.10342051661324876, -0.17515293386418912, 0.05802755932331227, -0.05582274914242178, -0.03361473566017389, -0.02148477935773192, -0.019469498972210925, -0.012971488362976149, 0.4845967536222076, 0.5731375511489875, 0.2834927123592985, -0.09484067328864275, -0.14926226384219307, -0.27533210437767097, -0.15437567584856615, -0.05395707656008681, -0.0027174115253631383, -0.0229087248645156, 0.05582233882660756, -0.019168807416077717, 0.03799030807308453, -0.07624662965311366, 0.03578417080266041, -0.011499164839151746, -0.09411456991708328, 0.023254343623927764, -0.06951891646512323, -0.1103165399000801, -0.22525541874400376, -0.10044911468725302, 0.008195351913343482, 0.16222837763857154, 0.26619395900497617, 0.09692520918058482, 0.05288341106050947, -0.053562605488501086, 0.2810711367498587, 0.236367282857856, -0.14391171542435993, -0.5078454383872892, -0.24420152897651937, -0.11274337200138213, -0.11254130161276307, -0.015285937255115957, 0.09071311518341271, -0.06212931738633652, -0.05594231444831984, -0.05953751555214469, -0.01903719680264606, 0.020014528316194293, 0.06776971373430665, -0.053670807035017955, 0.020087174606102348, -0.008439941861399933, -0.06933060082415897, -0.08304443270757345, 0.05242486902500247, -0.029906454996786843, 0.032795914723388615, -0.01614947290508201, -0.05148640294873793, 0.016146100991002145, 0.1610040418841529, -0.06037342108143442, -0.09036516151013722, 0.028684852520896875, -0.13288908447100067, -0.396416681300477, -0.24913850873719384, -0.06522848333294391, -0.025549393189275772, -0.05159150728317687, 0.013228159195128583, 0.010890016636636407, -0.024696978774152896, -0.039775099846799604, 0.006053314573362861, 0.055961053308604305, 0.011728337036556263, 0.04487207452939868, -0.009543245292144795, 0.07007140325848983, -0.15219173293114815, 0.09586555621719708, 0.031486490052337716, 0.1412432573860815, 0.15624155809814652, 0.02725980037949723, -0.04892336744863662, -0.085660998294998, -0.07066808049867465, -0.09844384690114061, 0.026308000767717762, 0.1965071829082186, -0.08832674794933809, -0.06362664599160643, -0.1350307439467378, 0.25914972651389145, -0.027518881935671355, 0.03174338802442128, -0.05785325483419658, 0.0794450141475205, -0.04867421551988066, -0.04751335952587909, 0.017049813759963783, -0.06601429684350363, -0.007230584864169034, -0.028804058892421727, 0.04456078003086958, -0.08389554440278857, -0.14516007211448378, 0.010491220775866419, 0.03751119821885767, -0.09487022043734605, -0.07577560843742544, 0.03426999455397405, -0.11223349685432635, 0.15867545799493962, 0.3291001385776733, 0.10014076436895708, 0.08764205786519899, -0.1437357447179479, -0.15208726721389804, 0.16385087354280775, -0.04988250115052229, 0.16128878873758382, 0.0747770831597336, -0.015684886461333196, 0.0668801201920445, 0.06261472549508447, 0.009429081307390818, -0.04254713618247198, 0.05879093043317976, -0.004778359880981888, 0.04609781978727183, -0.053076533516017585, -0.06508638915201169, -0.1987290993215371, -0.08154599833976638, 0.14139651866455394, 0.19012524602708356, 0.09421784201215457, -0.1825402387245581, -0.03460526554330571, 0.06434784219276488, 0.10961858436314374, 0.26663447694191794, 0.04976978976709967, -0.04908037333115906, 0.0885180581696042, -0.02404508590343078, 0.1938920891742297, -0.05909691516317315, 0.04954010114740319, -0.08126025261024827, 0.09691888111214675, 0.1027378991845872, 0.08799659116843869, 0.030972325288919748, 0.03514785521129941, 0.06313319580696128, 0.051523192233556024, 0.08872951983679284, -0.07266334518179089, -0.13091032730431665, -0.014682724227174615, -0.005897111724981467, 0.1427990473702125, 0.08861911910458373, -0.03125854136873425, -0.14352331096915702, -0.05401985525301147, -0.016279013253553267, 0.05569662636660522, 0.24540826974661767, -0.24003252201886882, -0.07087038507149526, 0.01549660396022962, 0.08755380252206682, -0.00511091742282282, -0.04881655683784346, 0.09412013564955732, -0.03854416885130131, 0.13607435196403264, 0.18310651236402425, -0.047651846628511185, 0.03887642641662912, 0.015215481076437918, -0.0038812956296905283, -0.06366349514109108, 0.07836403257754553, 0.03268659428710017, -0.04169725152463729, -0.004814922486502264, -0.056586392603932764, -0.01551924922432918, 0.07173348042888983, -0.07078923687383973, -0.21809038413629084, -0.0769927199832889, -0.16548969785496936, -0.002424568162441917, -0.0747605189059746, -0.14011305636347032, 0.041565118025336814, -0.015101498622328848, -0.007258496493753238, -0.06640569448243971, 0.08630785254466013, -0.002887577281113154, 0.061266446686174696, 0.06079147959855806, 0.07765561907433864, 0.02502885153584174, -0.07146635891053803, 0.004216546222676797, 0.03774789724327679, 0.0407085057230704, -0.005808791252582549, 0.22633765151330545, 0.02110823473920059, -0.025825673040143344, 0.028558600492350157, 0.0864783403497576, 0.044118918670524566, -0.08686589693274784, -0.11716694291755406, -0.03995506840135255, -0.3216621630217155, -0.10666262871163691, 0.009166783491680501, 0.025746719126722273, 0.16533178180453267, 0.002846150575751063, -0.038771438906171414, -0.01644286562487483, 0.10271265568110366, 0.044255040934149455, -0.04695537367087413, -0.05849693145208247, -0.040627185229250996, 0.01830219560980638, 0.023225108595182273, 0.018266320554594994, -0.027302138812255503, 0.006978599502751373, -0.04893447460424909, 0.14281594378899434, -0.0027444319240771575, -0.04631085964508813, -0.07189853850144148, 0.031079424665785976, -0.12933588819119174, -0.18984894129842927, -0.2622462170296037, -0.10100831878825442, -0.05012571633864463, -0.13712725598501088, 0.016277182840116235, 0.052378521115334975, 0.13469307083380125, -0.07004887545146302, 0.10512171954766576, 0.19839797069376813, 0.15288322367973556, 0.1294046746943253, -0.08544617306143286, -0.14695779846163012, -0.08378067707823803, -0.0356632337899551, 0.06683014619625516, -0.07746868582723515, -0.06522793156365271, 0.07867791620417527, 0.008703767011558413, 0.06487566740288414, 0.011475601427573996, 0.0073376507779108445, 0.15453090462978064, 0.17777101356110891, 0.16890017927653167, -0.13149814020373, 0.05917897662579024, 0.007440218198279188, -0.13146763952772098, 0.05985733931171824, -0.07230795312437456, -0.001001687390804535, -0.12018360995181028, 0.025664828843423186, 0.07846865657532162, 0.013222773898847245, 0.10524836176054589, -0.04079667442164998, 0.032619544114264425, -0.12014952646278071, 0.027501460632990485, 0.02188400605288399, 0.02608455863329618, -0.03725572296062856, 0.01499306821311401, 0.0776493597470884, 0.03740084563673578, 0.01667313228249771, 0.11437533296144874, 0.0110052000053464, 0.09909410943955829, 0.019247790186987034, 0.030559077647556034, -0.11765183878302468, 0.10466372232123418, 0.16331304747155856, -0.06175006248755381, 0.05341798358539752, -0.1541665425612392, -0.15441279609313166, -0.07715629854454181, 0.03840533864059549, 0.09557261913619367, 0.18847762301185822, -0.08033777495586765, 0.0882542836401793, 0.1433744156603312, -0.07140388482876692, -0.004057639533922966, -0.009767833998842245, 0.07135399819041721, 0.017779340006850847, 0.00911731506490443, 0.07581928152603673, 0.051638757252123905, 0.0190313254010675, 0.07456942321428257, 0.03581735293253298, 0.08332824815902254, 0.12246828590131188, -0.0988935512158527, -0.05956059512981593, 0.13687867404874232, 0.0455509983357368, -0.04776246456539161, 0.18327599161575267, 0.08648101417756243, -0.08946932157281136, -0.06046806785269332, 0.024048008859918837, 0.15707282505253786, -0.035755978033194497, 0.025342544132476982, 0.09066877085401294, -0.07723826117258674, -0.15882096888141095, -0.08703696805797992, 0.006227528808698167, 0.03988756274721259, -0.043842418031449414, 0.008303312302188753, 0.03365481161259186, -0.0008186460234531604, 0.008672385039435638, 0.12054153162596687, 0.009153786522630124, 0.029768813165539976, 0.04822588031412823, 0.06496838682701336, 0.09958687537352746, -0.04974133669903621, -0.019477159801541827, 0.0011508659984184604, 0.1075453831489405, 